
#include <eml_net.h>
static const float emlearnModel_layer_0_biases[64] = { -0.033508f, -0.045903f, -0.029347f, -0.045821f, -0.090644f, -0.124910f, -0.025708f, 0.122234f, -0.033535f, -0.090306f, -0.041086f, 0.036314f, 0.102539f, -0.092302f, -0.060425f, -0.046207f, -0.057653f, -0.111168f, -0.028899f, 0.029524f, -0.028984f, -0.015831f, -0.014270f, -0.025431f, -0.051016f, -0.022693f, -0.037300f, -0.034869f, 0.124386f, -0.016169f, -0.028532f, -0.046733f, -0.029524f, -0.034714f, -0.026186f, -0.031632f, -0.022194f, -0.025772f, -0.116630f, 0.087621f, -0.031516f, -0.042906f, 0.071408f, -0.065823f, -0.144385f, -0.020668f, -0.022283f, -0.132679f, -0.049503f, -0.021067f, -0.076827f, -0.056385f, -0.157362f, -0.055869f, 0.060827f, -0.102883f, 0.021569f, 0.000196f, -0.023345f, -0.028949f, -0.069319f, 0.098774f, 0.014938f, 0.014905f };
static const float emlearnModel_layer_0_weights[6144] = { 0.078516f, -0.090071f, -0.201359f, -0.151655f, 0.006559f, -0.068557f, -0.175007f, -0.253852f, -0.045138f, -0.157316f, -0.635896f, -0.122348f, -0.028890f, -0.032304f, -0.188999f, 0.084950f, -0.192395f, -0.218084f, 0.057901f, 0.072483f, 0.108331f, -0.052879f, -0.111910f, -0.027977f, -0.017662f, 0.134800f, 0.096519f, 0.029642f, -0.134261f, -0.148061f, 0.227355f, -0.050865f, 0.029503f, -0.064546f, 0.115240f, 0.090764f, 0.161770f, 0.125687f, -0.207221f, -0.113318f, -0.089515f, -0.125481f, 0.062261f, 0.037960f, 0.082281f, -0.059283f, -0.040342f, 0.036707f, 0.005950f, -0.038810f, 0.157106f, -0.006003f, -0.131752f, -0.411289f, 0.219570f, -0.108780f, 0.184257f, -0.104713f, -0.152414f, 0.180911f, 0.033373f, -0.251104f, -0.247767f, -0.277686f, -0.245526f, 0.032032f, -0.158382f, -0.093045f, 0.222083f, -0.260405f, -0.086816f, 0.096514f, -0.060721f, -0.104211f, -0.245856f, -0.029772f, -0.094950f, -0.209048f, 0.032175f, -0.135064f, -0.223873f, -0.472284f, -0.005637f, 0.130804f, -0.129732f, 0.062957f, -0.109098f, -0.005798f, 0.340876f, -0.111646f, 0.021109f, -0.182439f, 0.061285f, -0.003580f, 0.342725f, 0.215277f, 0.056416f, 0.129109f, 0.136726f, 0.070886f, -0.176668f, -0.108169f, 0.141206f, -0.037660f, 0.101253f, -0.186684f, 0.100251f, -0.053379f, -0.158625f, -0.335044f, -0.140145f, 0.084400f, -0.031738f, 0.089602f, -0.028743f, -0.224919f, -0.178816f, -0.321594f, 0.028550f, -0.032730f, 0.127630f, -0.042272f, -0.198542f, -0.118876f, -0.153367f, 0.062963f, -0.284243f, -0.291512f, 0.039675f, -0.140148f, 0.071824f, 0.046578f, -0.101309f, -0.040006f, 0.153753f, -0.005331f, 0.159848f, -0.182455f, -0.140455f, -0.063065f, 0.260894f, -0.131314f, 0.082386f, 0.074198f, -0.111527f, 0.027147f, 0.144594f, -0.183301f, 0.049181f, -0.001797f, 0.155961f, 0.039576f, 0.044744f, 0.162890f, -0.073149f, 0.036429f, 0.204619f, 0.167916f, 0.441548f, 0.289064f, -0.189976f, 0.023780f, 0.001506f, -0.013389f, -0.120078f, -0.089201f, -0.073669f, 0.079991f, 0.027982f, -0.121901f, -0.161044f, -0.074927f, -0.185355f, -0.073008f, 0.081283f, 0.148791f, -0.209258f, 0.048567f, -0.124454f, -0.127818f, -0.060210f, -0.293078f, -0.010312f, -0.071849f, 0.079992f, -0.219769f, 0.065632f, -0.056108f, 0.049259f, 0.254341f, -0.197427f, -0.247764f, -0.226995f, 0.010692f, -0.129947f, -0.433444f, -0.031289f, -0.439367f, 0.101169f, 0.127159f, 0.178268f, -0.177552f, -0.208865f, 0.026627f, 0.171726f, -0.430732f, 0.054849f, 0.010543f, -0.222772f, -0.441677f, -0.092406f, 0.233093f, -0.023459f, -0.131709f, 0.056419f, -0.101970f, 0.443160f, -0.051220f, -0.161660f, -0.026872f, 0.298843f, 0.090950f, 0.239371f, 0.104566f, 0.013641f, -0.027561f, -0.141297f, 0.158805f, -0.077730f, -0.184498f, -0.411073f, 0.223712f, 0.104149f, -0.050311f, -0.240924f, -0.173078f, -0.386849f, -0.601844f, 0.004386f, 0.102442f, -0.121817f, 0.075077f, 0.044718f, -0.017974f, -0.025919f, -0.379378f, 0.203195f, -0.070827f, 0.037208f, -0.061991f, 0.083694f, -0.167562f, -0.250861f, 0.245267f, 0.062729f, -0.323729f, -0.009623f, -0.096743f, -0.118776f, -0.191637f, -0.165571f, -0.076318f, 0.041381f, 0.137794f, 0.094753f, -0.117248f, 0.017190f, 0.254213f, 0.119562f, -0.251853f, -0.104855f, 0.087689f, -0.344489f, -0.291140f, 0.064728f, 0.164000f, -0.182253f, -0.049494f, 0.007583f, 0.082124f, -0.088479f, -0.114880f, -0.041741f, -0.213385f, 0.224161f, 0.052333f, -0.098206f, -0.140634f, 0.105671f, -0.148940f, 0.040485f, -0.040939f, 0.097132f, 0.120684f, -0.070881f, 0.012674f, -0.162536f, -0.001709f, -0.012502f, -0.037451f, -0.171168f, -0.210162f, -0.108942f, 0.002460f, -0.070270f, -0.066217f, -0.118176f, -0.139865f, -0.070094f, -0.384707f, 0.088355f, -0.162713f, 0.057453f, 0.077183f, -0.133099f, 0.125078f, -0.025005f, 0.085354f, 0.208833f, 0.159726f, -0.194690f, 0.130640f, 0.123951f, -0.235541f, -0.399420f, 0.002991f, -0.156590f, -0.048255f, -0.117912f, 0.128025f, -0.164056f, 0.087583f, 0.057873f, -0.078152f, 0.017903f, -0.226082f, 0.081680f, -0.048188f, -0.181477f, -0.034859f, -0.122908f, 0.075949f, -0.045461f, -0.096394f, -0.047444f, -0.069963f, -0.117412f, 0.135728f, 0.252139f, -0.089769f, -0.125309f, -0.157676f, -0.012032f, 0.045529f, -0.118249f, -0.167514f, -0.172816f, -0.156384f, -0.313246f, 0.159505f, 0.125589f, -0.181635f, -0.102336f, -0.069603f, -0.127430f, -0.208433f, 0.124715f, -0.000007f, 0.125824f, -0.125818f, -0.107809f, 0.089378f, -0.233586f, -0.205779f, -0.020782f, 0.053008f, -0.167439f, -0.064345f, 0.017740f, -0.168709f, -0.238679f, -0.126535f, -0.043448f, -0.021162f, -0.016446f, -0.229079f, 0.150454f, 0.006899f, 0.105595f, 0.134351f, 0.160199f, -0.374757f, -0.143777f, -0.001082f, -0.164000f, -0.201822f, -0.440636f, 0.124867f, -0.147397f, 0.109410f, 0.196705f, 0.180285f, -0.190923f, -0.158349f, -0.182418f, -0.051883f, 0.094790f, 0.130651f, -0.308936f, -0.112334f, -0.015164f, -0.031231f, -0.508451f, -0.201526f, -0.473475f, -0.289135f, -0.100056f, -0.085057f, 0.152457f, 0.046405f, -0.207591f, -0.150265f, 0.130069f, -0.041091f, 0.105078f, 0.079830f, 0.021489f, 0.089657f, -0.001020f, 0.192953f, -0.057274f, 0.013389f, -0.191763f, -0.028136f, -0.045007f, 0.154477f, -0.115188f, -0.103043f, -0.490781f, 0.154162f, -0.352787f, -0.020278f, -0.024249f, 0.105095f, -0.140820f, -0.436009f, -0.179769f, 0.158573f, -0.181142f, 0.086305f, -0.122204f, -0.001723f, 0.085941f, 0.092708f, 0.103669f, -0.268344f, 0.112104f, 0.275303f, 0.384189f, 0.215091f, -0.131937f, 0.179518f, -0.153096f, 0.102885f, 0.227268f, 0.217718f, -0.199376f, -0.714865f, 0.078095f, -0.154475f, 0.019438f, -0.102785f, 0.212510f, -0.091727f, -0.185439f, -0.153527f, 0.040222f, 0.015086f, -0.048922f, 0.203847f, -0.133157f, -0.581143f, -0.137947f, 0.068324f, 0.093096f, 0.026573f, 0.029476f, 0.021592f, -0.032272f, -0.026483f, 0.205488f, -0.310061f, 0.006528f, 0.138277f, 0.059857f, -0.222013f, -0.115970f, 0.115929f, 0.046553f, -0.130319f, 0.183093f, 0.070470f, -0.004225f, 0.107707f, 0.033929f, -0.150582f, 0.005425f, -0.074884f, 0.163302f, 0.009758f, 0.156883f, -0.051163f, -0.013404f, 0.046060f, 0.059638f, -0.184864f, -0.050502f, -0.080232f, -0.080024f, 0.226555f, -0.056414f, -0.195874f, 0.052380f, -0.138200f, 0.060493f, -0.026929f, -0.003467f, -0.115806f, -0.037866f, -0.046493f, 0.084834f, 0.154207f, -0.137984f, 0.009199f, -0.151272f, 0.082735f, 0.051374f, 0.070127f, 0.078970f, -0.158596f, 0.119704f, -0.166216f, -0.184942f, -0.019513f, 0.012962f, -0.106285f, -0.190101f, -0.155186f, 0.001241f, 0.076287f, 0.045005f, 0.081929f, -0.107595f, 0.020599f, 0.238129f, -0.001423f, 0.039630f, -0.097141f, -0.164064f, -0.079159f, 0.106727f, 0.092433f, 0.027453f, -0.234042f, -0.057116f, -0.028125f, -0.095772f, -0.021760f, 0.131069f, -0.214744f, -0.095456f, 0.152640f, 0.034904f, 0.222226f, 0.109265f, -0.086162f, 0.127889f, -0.101940f, 0.118146f, 0.136140f, -0.055111f, -0.200145f, -0.187470f, 0.190770f, 0.060417f, -0.099230f, -0.188750f, 0.130815f, 0.165680f, -0.186763f, -0.001469f, 0.096660f, -0.014037f, 0.071336f, 0.005073f, 0.088901f, -0.218079f, 0.114358f, -0.173028f, -0.207083f, 0.081726f, -0.132820f, 0.064560f, -0.083137f, 0.091670f, -0.023459f, 0.050449f, 0.014239f, -0.029680f, -0.185955f, 0.117052f, 0.081869f, 0.164995f, -0.181303f, 0.032998f, 0.222868f, -0.150401f, 0.003889f, 0.069116f, 0.091401f, -0.309163f, -0.048321f, -0.095415f, -0.112121f, 0.015844f, -0.078869f, -0.258218f, -0.033371f, -0.092192f, -0.073182f, 0.078827f, -0.146102f, -0.160045f, 0.178765f, 0.033014f, 0.115179f, -0.025625f, -0.067288f, 0.047773f, 0.062216f, -0.152029f, -0.026479f, 0.017810f, 0.085328f, 0.107554f, 0.090143f, -0.031965f, -0.073265f, -0.090567f, 0.144150f, 0.084588f, 0.208889f, 0.092510f, -0.221103f, -0.165676f, 0.012174f, -0.121091f, 0.085379f, 0.063366f, -0.016744f, -0.071863f, -0.169235f, -0.100731f, -0.008613f, -0.083288f, -0.114700f, 0.032351f, 0.126220f, -0.185204f, 0.057507f, -0.059576f, 0.047174f, -0.207447f, -0.050207f, -0.067587f, -0.142191f, -0.191348f, 0.134272f, 0.008018f, -0.144215f, 0.108926f, 0.144920f, 0.142646f, 0.057774f, 0.027698f, 0.102178f, -0.159483f, -0.138982f, -0.063248f, -0.002903f, 0.037961f, 0.027731f, -0.159384f, -0.190035f, -0.086019f, -0.099369f, 0.190006f, 0.052255f, -0.135152f, -0.143759f, -0.205226f, -0.024995f, 0.072438f, -0.160347f, 0.139484f, -0.201146f, 0.051668f, -0.080613f, -0.123430f, 0.060122f, 0.143513f, 0.278360f, -0.136605f, -0.186583f, -0.269724f, -0.071718f, 0.148129f, -0.188013f, 0.005510f, -0.016051f, -0.081787f, 0.001050f, -0.137336f, -0.045594f, 0.121603f, 0.001209f, -0.004705f, -0.155199f, 0.218785f, 0.116941f, -0.106458f, 0.090812f, 0.276558f, -0.176382f, 0.199603f, 0.296144f, -0.084584f, 0.089717f, -0.048475f, 0.009887f, -0.068730f, 0.176187f, 0.081375f, 0.246986f, 0.089362f, 0.135558f, -0.005879f, 0.039361f, -0.213525f, 0.071436f, -0.051517f, 0.008052f, 0.082639f, -0.165768f, 0.062489f, 0.010350f, -0.190052f, -0.038312f, 0.005465f, 0.031489f, 0.158977f, -0.088012f, -0.199338f, -0.035240f, 0.054934f, 0.012494f, 0.044014f, -0.022394f, 0.057319f, -0.130607f, 0.078214f, 0.017913f, -0.024473f, -0.073428f, 0.074789f, -0.089576f, 0.075658f, 0.131024f, -0.488330f, 0.005166f, 0.094016f, 0.030553f, -0.009189f, 0.076805f, 0.046918f, 0.138717f, 0.024063f, -0.151027f, -0.055354f, 0.022889f, -0.137839f, -0.146718f, 0.105881f, -0.212439f, -0.168826f, 0.152487f, -0.119236f, 0.091258f, -0.092291f, 0.092920f, -0.036602f, -0.090192f, 0.187059f, -0.198659f, -0.142903f, -0.111576f, 0.019128f, -0.208749f, -0.196509f, 0.113511f, -0.023172f, -0.063595f, 0.067926f, 0.138318f, -0.062147f, 0.361031f, 0.152232f, -0.100897f, 0.131556f, 0.115528f, 0.157323f, -0.117622f, -0.091543f, -0.129569f, 0.132798f, -0.312215f, -0.025263f, -0.130302f, 0.089485f, 0.018832f, -0.106737f, 0.076008f, -0.173810f, 0.063619f, -0.170796f, -0.172725f, 0.076367f, -0.064809f, 0.115458f, -0.183827f, -0.165777f, -0.113537f, 0.003013f, -0.050204f, 0.126145f, -0.370697f, 0.047640f, 0.156852f, 0.045954f, -0.091321f, 0.097699f, 0.234388f, -0.060406f, 0.043477f, -0.092145f, 0.095827f, 0.411777f, -0.096427f, -0.015284f, 0.150231f, -0.039563f, 0.170042f, 0.290161f, 0.037719f, -0.140240f, 0.007514f, 0.070492f, 0.125469f, 0.134350f, -0.015154f, -0.074767f, -0.172578f, 0.086782f, -0.153439f, 0.126069f, -0.059304f, 0.080306f, -0.310575f, -0.159906f, 0.119817f, 0.066297f, 0.036845f, 0.086278f, 0.029943f, -0.104454f, -0.172512f, 0.239530f, -0.199588f, 0.075685f, 0.042527f, 0.036135f, 0.066798f, 0.135899f, -0.101367f, -0.281207f, -0.281233f, -0.232760f, 0.121002f, -0.038107f, 0.023739f, -0.038996f, 0.051248f, 0.099255f, -0.122024f, -0.100465f, 0.145183f, -0.163818f, -0.086316f, 0.145374f, -0.310812f, 0.007062f, 0.012054f, -0.156309f, 0.020685f, 0.044149f, -0.010192f, -0.124354f, 0.125656f, -0.201862f, -0.044785f, -0.080987f, -0.028929f, -0.246144f, -0.163501f, 0.198284f, -0.084316f, 0.184812f, -0.065954f, -0.162897f, -0.036053f, 0.159680f, 0.029231f, -0.020416f, 0.064300f, 0.054806f, -0.257090f, -0.149777f, -0.018845f, -0.177063f, -0.035033f, -0.150375f, -0.235958f, 0.080753f, -0.027413f, -0.224680f, 0.002495f, 0.144396f, -0.084834f, 0.029513f, -0.020024f, 0.224285f, 0.131991f, -0.020301f, -0.133014f, -0.136617f, 0.172696f, -0.026566f, -0.048029f, -0.123618f, -0.292332f, 0.071681f, -0.134333f, -0.195534f, -0.250260f, -0.121347f, -0.264257f, 0.107314f, -0.070315f, 0.086654f, -0.311282f, -0.145729f, 0.115202f, 0.052538f, -0.257466f, 0.016790f, -0.228971f, -0.408713f, -0.251534f, -0.227475f, 0.113943f, 0.122463f, 0.128783f, -0.215165f, 0.120552f, 0.367630f, 0.098887f, 0.016725f, -0.181372f, -0.023230f, -0.187250f, 0.398874f, 0.194484f, -0.027711f, 0.066232f, -0.178091f, -0.182013f, 0.031661f, -0.111966f, 0.007243f, 0.244607f, 0.034171f, -0.029605f, 0.039603f, 0.061541f, -0.137936f, -0.645038f, -0.126211f, 0.126047f, 0.099878f, -0.163847f, -0.193993f, -0.048380f, -0.240634f, -0.261931f, 0.028290f, -0.033071f, 0.169155f, -0.200549f, -0.170129f, -0.127140f, -0.195610f, 0.287736f, -0.096384f, -0.097467f, -0.203077f, 0.125671f, 0.080972f, -0.386424f, -0.011900f, -0.253848f, 0.124646f, 0.208155f, -0.019626f, -0.048825f, -0.235213f, -0.016209f, 0.155905f, -0.095788f, -0.011185f, 0.078513f, -0.243112f, -0.109526f, -0.117786f, -0.164906f, 0.052157f, -0.087816f, -0.161684f, 0.110541f, -0.096227f, -0.198901f, 0.024872f, 0.030681f, 0.071161f, 0.045697f, -0.258660f, -0.188298f, 0.068130f, 0.173413f, 0.097964f, 0.044427f, -0.114855f, 0.100526f, -0.017599f, 0.179947f, 0.052431f, -0.202288f, 0.111437f, 0.117539f, -0.079857f, -0.370078f, -0.053744f, -0.026048f, -0.203597f, 0.059923f, -0.224377f, -0.215896f, -0.011084f, -0.173427f, -0.053180f, -0.220050f, 0.180524f, -0.104017f, 0.161090f, 0.151440f, 0.041002f, 0.224686f, -0.118587f, -0.058467f, 0.016441f, -0.083383f, -0.114955f, -0.164284f, -0.453203f, -0.028738f, 0.040693f, -0.019304f, -0.032662f, -0.170258f, 0.085241f, -0.167294f, -0.287357f, -0.262361f, -0.038905f, -0.078036f, -0.103969f, 0.083129f, 0.005915f, 0.137535f, 0.082432f, -0.121049f, -0.168881f, 0.084099f, -0.047090f, -0.176698f, 0.041108f, 0.054480f, -0.030315f, -0.019916f, 0.072900f, 0.127757f, -0.135481f, 0.294427f, -0.102391f, -0.157747f, -0.024498f, 0.106481f, -0.128675f, 0.065790f, -0.035194f, -0.173764f, -0.036050f, 0.053203f, 0.113446f, -0.151559f, -0.063883f, -0.096824f, 0.030729f, -0.196796f, -0.056572f, 0.037393f, -0.227760f, -0.324058f, 0.018629f, 0.017091f, -0.052485f, 0.017750f, 0.158760f, 0.056927f, -0.085434f, 0.172899f, 0.049569f, 0.005018f, 0.078282f, -0.176949f, -0.039737f, 0.221768f, 0.169868f, -0.083982f, -0.149257f, -0.280546f, -0.018355f, 0.285741f, 0.147825f, -0.225484f, -0.552132f, -0.039710f, -0.042779f, -0.164335f, 0.162815f, 0.091890f, -0.030886f, -0.145469f, 0.005200f, -0.132827f, -0.012381f, -0.006624f, -0.077043f, 0.044144f, -0.057928f, -0.053798f, -0.556989f, -0.031374f, -0.308566f, -0.112115f, -0.186194f, -0.180931f, 0.075488f, 0.144457f, 0.117357f, 0.020566f, 0.052779f, -0.250207f, 0.115069f, -0.121642f, -0.094763f, 0.263504f, -0.002004f, 0.164604f, -0.031303f, 0.144719f, -0.197077f, -0.147253f, 0.263935f, 0.125967f, 0.192434f, 0.135455f, -0.370561f, 0.002312f, -0.283571f, 0.045225f, -0.099988f, -0.168970f, 0.187464f, -0.429126f, 0.001071f, -0.058604f, -0.015367f, 0.071685f, 0.052173f, 0.005325f, 0.145543f, 0.039430f, -0.126217f, -0.045659f, 0.107076f, 0.087183f, 0.235704f, 0.200681f, 0.015124f, 0.217560f, 0.125474f, 0.117448f, -0.041717f, 0.188722f, -0.112192f, -0.700615f, -0.006068f, 0.109610f, -0.055178f, 0.033032f, 0.030115f, -0.049526f, -0.066797f, 0.085942f, -0.009731f, 0.022329f, 0.269677f, 0.352183f, -0.131634f, -0.381205f, 0.013743f, -0.149554f, -0.086907f, -0.201916f, 0.024519f, -0.035712f, 0.028400f, 0.004028f, 0.053671f, -0.161460f, -0.012003f, 0.085933f, -0.107487f, -0.097357f, -0.207613f, -0.061137f, 0.217282f, 0.199876f, 0.081150f, 0.050036f, 0.130607f, -0.129591f, 0.195109f, 0.088280f, 0.032231f, 0.023364f, 0.173038f, -0.133297f, -0.047344f, -0.150298f, -0.041165f, -0.146055f, -0.219497f, -0.033672f, -0.275716f, -0.027847f, 0.004586f, 0.015875f, -0.184946f, 0.017267f, -0.118305f, 0.064487f, -0.000122f, -0.051824f, 0.086392f, 0.056711f, -0.019442f, -0.048967f, 0.025932f, 0.122006f, -0.156024f, 0.104694f, -0.042471f, 0.047435f, -0.162157f, -0.199498f, -0.069374f, 0.029124f, 0.287851f, -0.011955f, -0.016646f, 0.058324f, 0.042999f, -0.142310f, 0.088754f, -0.222315f, -0.124867f, -0.210406f, 0.008309f, -0.029370f, -0.141825f, 0.144327f, 0.255915f, 0.073860f, -0.199841f, 0.124287f, 0.045961f, -0.244173f, -0.008356f, 0.000030f, -0.120796f, -0.171746f, -0.188671f, 0.057763f, 0.079096f, -0.104297f, 0.148994f, -0.108878f, 0.000197f, -0.091192f, -0.108564f, 0.268555f, -0.004858f, 0.199028f, 0.051542f, -0.200798f, 0.157598f, -0.036583f, -0.115168f, 0.002566f, 0.064327f, 0.169495f, -0.006306f, -0.045985f, -0.196897f, -0.091887f, 0.143435f, 0.010114f, 0.080203f, -0.113827f, -0.240297f, -0.267556f, 0.090397f, 0.093818f, -0.063922f, 0.087004f, -0.154576f, -0.037820f, 0.048583f, 0.017294f, -0.045458f, -0.049010f, 0.200912f, -0.079486f, 0.088787f, 0.199619f, -0.093051f, 0.144798f, -0.068457f, -0.185687f, 0.115324f, -0.207003f, 0.019239f, -0.049773f, -0.089564f, -0.195816f, 0.225232f, 0.025700f, -0.161106f, -0.118211f, -0.065698f, 0.037954f, 0.025280f, 0.033076f, -0.085974f, 0.027383f, 0.031652f, 0.008443f, 0.193945f, 0.101900f, 0.164975f, -0.116494f, -0.056805f, 0.002229f, 0.036557f, 0.177220f, -0.009799f, -0.099799f, 0.182949f, 0.131751f, -0.212433f, 0.129858f, 0.006538f, -0.173476f, 0.014784f, -0.034990f, 0.064874f, 0.098546f, 0.073166f, -0.041433f, -0.183362f, -0.071071f, -0.017879f, 0.090945f, -0.150301f, -0.057725f, 0.130665f, 0.143854f, -0.063212f, 0.003100f, -0.208145f, -0.055817f, 0.071020f, 0.065362f, -0.188726f, -0.195620f, -0.025998f, 0.004549f, 0.073136f, -0.049945f, 0.026086f, 0.032667f, -0.058679f, -0.012067f, -0.039478f, 0.165636f, 0.042891f, 0.003332f, 0.059358f, 0.071008f, -0.185670f, -0.059411f, -0.006372f, -0.163115f, -0.023801f, 0.127132f, 0.018133f, 0.102146f, -0.160982f, -0.013483f, -0.184370f, 0.055348f, -0.005221f, -0.035708f, 0.085430f, -0.016541f, 0.000882f, 0.055248f, -0.133173f, -0.031759f, -0.122926f, -0.039946f, -0.131880f, -0.124709f, -0.198462f, -0.081336f, -0.203634f, 0.169232f, 0.098459f, 0.082994f, -0.173410f, 0.113067f, -0.167812f, 0.102282f, 0.223419f, -0.085629f, -0.040892f, -0.076177f, -0.171607f, -0.208746f, 0.031039f, -0.038059f, 0.120408f, 0.061762f, -0.150485f, 0.001303f, 0.101922f, 0.087687f, -0.138870f, 0.098580f, 0.078073f, -0.099084f, 0.229437f, 0.084748f, -0.232216f, 0.087070f, -0.050301f, -0.202487f, -0.059692f, -0.197729f, -0.044007f, 0.066161f, -0.195224f, 0.092208f, 0.113704f, -0.132841f, 0.104847f, -0.111534f, 0.064451f, -0.081226f, 0.024180f, -0.084899f, 0.070838f, 0.080246f, 0.027980f, -0.146080f, 0.191886f, 0.072955f, 0.069729f, 0.024847f, -0.067054f, -0.058977f, 0.016744f, 0.198216f, 0.155139f, -0.160016f, 0.052181f, -0.225245f, -0.115755f, -0.164718f, -0.061283f, 0.134187f, -0.171811f, -0.273088f, -0.192529f, 0.204306f, -0.376288f, -0.032058f, -0.100679f, -0.246312f, 0.153273f, -0.033204f, 0.073331f, -0.057734f, 0.100394f, -0.077531f, 0.051822f, 0.151666f, -0.111481f, -0.143216f, -0.018298f, 0.063406f, -0.212586f, -0.026496f, 0.047385f, 0.154765f, 0.063631f, -0.039228f, 0.045253f, -0.115991f, -0.160915f, 0.091201f, -0.114241f, 0.194607f, 0.028763f, -0.116960f, 0.117487f, -0.122244f, -0.060676f, 0.018745f, 0.231501f, -0.091507f, -0.020443f, 0.145437f, -0.177740f, -0.133406f, -0.054029f, -0.203804f, 0.266194f, -0.063838f, -0.187342f, -0.070677f, -0.188008f, -0.283233f, -0.005717f, -0.126390f, -0.234632f, 0.016337f, 0.297163f, -0.113064f, 0.060245f, -0.236847f, -0.004266f, -0.092799f, 0.253964f, -0.000371f, 0.047106f, 0.108399f, -0.159528f, 0.153296f, 0.227709f, -0.048889f, 0.026355f, -0.310677f, -0.017973f, 0.118671f, -0.125066f, -0.287994f, 0.112346f, -0.034009f, -0.092232f, -0.048928f, -0.102375f, -0.066614f, 0.173392f, -0.099810f, -0.011957f, -0.104580f, 0.224550f, 0.056360f, 0.346205f, 0.043815f, -0.077118f, -0.043309f, -0.109835f, -0.074032f, -0.046449f, -0.108646f, 0.070215f, 0.128752f, 0.049651f, 0.067610f, -0.175011f, -0.015965f, 0.094318f, -0.397187f, 0.065285f, -0.033300f, -0.116915f, -0.037597f, 0.214413f, -0.203155f, 0.184430f, 0.090457f, 0.141671f, -0.059508f, -0.038087f, -0.144639f, 0.072236f, -0.054012f, -0.088214f, 0.173791f, -0.253621f, -0.344858f, -0.035930f, 0.127431f, -0.182719f, 0.223590f, -0.129862f, 0.149357f, 0.092557f, -0.145312f, 0.153380f, 0.197750f, -0.220197f, -0.206181f, 0.086349f, -0.243998f, 0.052999f, -0.071315f, -0.146606f, -0.114198f, 0.051556f, -0.094366f, -0.098999f, -0.062717f, 0.119518f, 0.166756f, -0.040225f, 0.060379f, 0.091023f, -0.169937f, -0.040639f, -0.107298f, -0.087994f, -0.001495f, -0.236745f, 0.041455f, -0.040936f, 0.034992f, 0.131287f, -0.179915f, -0.053841f, 0.018477f, -0.223168f, -0.204835f, -0.256443f, -0.134363f, -0.092721f, 0.087261f, -0.200059f, 0.143387f, -0.211328f, 0.097891f, 0.075931f, -0.048628f, -0.006082f, -0.096250f, 0.188757f, -0.002674f, 0.033842f, -0.215103f, -0.183001f, 0.049164f, 0.105346f, -0.134059f, 0.056255f, -0.063934f, 0.053622f, -0.234428f, -0.176056f, -0.292819f, 0.013218f, -0.369108f, -0.033089f, 0.239206f, 0.169383f, -0.069534f, -0.380865f, 0.138977f, 0.180091f, -0.280175f, -0.104719f, -0.038966f, -0.034255f, -0.204087f, 0.001877f, -0.022219f, -0.187035f, 0.019611f, -0.097475f, 0.096774f, 0.296396f, 0.058508f, -0.015220f, 0.130623f, 0.205800f, 0.044228f, 0.235186f, -0.260020f, -0.071745f, 0.035214f, -0.089191f, -0.037845f, -0.174644f, 0.141169f, -0.091448f, 0.180693f, -0.026242f, 0.050426f, 0.103494f, 0.148887f, -0.225630f, -0.783847f, 0.076810f, -0.156974f, -0.018210f, -0.156381f, -0.016596f, -0.026714f, -0.000243f, -0.136134f, 0.040957f, 0.133225f, 0.071969f, -0.060862f, 0.137935f, -0.050552f, -0.233361f, 0.076884f, -0.002309f, 0.000892f, 0.093151f, 0.046782f, -0.082038f, -0.291355f, -0.164034f, -0.168400f, 0.074330f, 0.289085f, 0.103410f, -0.119444f, -0.029462f, 0.043705f, 0.122064f, -0.021923f, -0.114203f, -0.052177f, 0.005071f, -0.088466f, 0.118927f, 0.073734f, 0.132950f, -0.119565f, -0.043664f, -0.048857f, 0.204644f, 0.099649f, 0.121547f, 0.090549f, 0.094833f, 0.032870f, 0.088877f, -0.038201f, 0.161755f, -0.011043f, -0.026778f, -0.046171f, 0.061284f, 0.051894f, -0.287589f, -0.025971f, -0.058496f, 0.065583f, 0.104215f, 0.122033f, 0.039741f, -0.188779f, 0.021230f, -0.056989f, -0.107479f, -0.157105f, -0.042218f, -0.023599f, -0.266724f, -0.277927f, 0.248290f, -0.237214f, -0.002750f, 0.093453f, -0.157837f, -0.214252f, -0.072777f, 0.030695f, 0.117864f, -0.142231f, 0.023468f, 0.035558f, 0.104973f, -0.146605f, -0.284595f, 0.160811f, -0.087076f, -0.006956f, -0.130486f, -0.080363f, -0.028405f, -0.041577f, -0.040176f, -0.082874f, 0.134549f, 0.092347f, 0.100420f, -0.132657f, -0.091043f, 0.085318f, -0.206781f, -0.141309f, -0.074374f, -0.201378f, 0.126054f, 0.170694f, -0.175632f, -0.048423f, 0.018616f, 0.094716f, -0.154016f, 0.187425f, -0.125439f, 0.068195f, -0.076339f, -0.011598f, -0.078021f, -0.162570f, -0.052370f, 0.173559f, -0.158497f, 0.082494f, 0.083997f, 0.100608f, -0.170436f, -0.060901f, 0.057897f, -0.015449f, 0.117034f, 0.152109f, 0.140659f, -0.037133f, -0.053289f, -0.237752f, -0.064455f, -0.040076f, -0.024412f, -0.048253f, -0.128006f, 0.027999f, -0.102807f, -0.140416f, -0.089990f, -0.127113f, -0.189056f, 0.121503f, -0.050643f, 0.164355f, 0.227826f, 0.182472f, -0.044260f, -0.186595f, -0.108048f, 0.259598f, -0.176276f, -0.163239f, -0.245077f, 0.137827f, -0.009073f, 0.107478f, -0.061750f, -0.012094f, 0.114147f, -0.314820f, 0.046828f, -0.205365f, -0.063276f, 0.039182f, -0.081228f, 0.157136f, -0.055163f, -0.101346f, -0.351836f, 0.097436f, -0.387095f, -0.167292f, -0.083750f, -0.203439f, 0.066039f, 0.062354f, -0.135151f, -0.079006f, -0.021129f, -0.165877f, -0.138105f, -0.220078f, -0.046721f, -0.056596f, 0.291201f, 0.203623f, 0.156611f, 0.148690f, 0.042700f, 0.057815f, 0.214788f, -0.009606f, 0.128701f, 0.137351f, -0.470740f, -0.155317f, -0.338515f, -0.146630f, 0.012080f, -0.000374f, 0.165009f, -0.435000f, -0.083689f, 0.137536f, 0.031695f, -0.054058f, 0.132728f, 0.115990f, 0.016367f, 0.317919f, 0.144123f, -0.287317f, 0.141077f, -0.024918f, 0.300410f, -0.135249f, 0.070986f, 0.029419f, 0.159530f, -0.168334f, 0.107499f, 0.284615f, -0.179675f, -0.795731f, -0.121416f, -0.123254f, -0.175078f, -0.081375f, 0.209904f, -0.068161f, -0.130189f, -0.050033f, 0.172561f, -0.200236f, 0.322205f, 0.271139f, -0.116729f, -0.259071f, -0.025751f, 0.107221f, 0.093390f, -0.005177f, 0.206532f, 0.024001f, -0.039137f, -0.181242f, 0.068091f, -0.337340f, 0.194461f, 0.208040f, 0.049779f, -0.205471f, 0.053478f, -0.044167f, 0.143145f, 0.113676f, 0.042025f, 0.278200f, 0.279920f, 0.060946f, 0.108551f, -0.207129f, 0.004256f, 0.121225f, 0.004655f, 0.165569f, -0.116100f, -0.038855f, 0.042154f, -0.102638f, 0.161868f, -0.029045f, 0.031739f, -0.123371f, -0.154258f, 0.194029f, -0.018532f, 0.001551f, 0.050371f, -0.075542f, 0.062907f, 0.130523f, -0.129762f, 0.141419f, -0.065957f, -0.050466f, -0.179344f, 0.204978f, -0.143217f, 0.117348f, -0.104900f, 0.167766f, -0.017691f, -0.212780f, -0.190321f, -0.150674f, 0.133424f, -0.187529f, -0.121074f, 0.075338f, 0.098779f, 0.093765f, -0.008099f, 0.002788f, 0.023610f, 0.029840f, -0.084627f, 0.085880f, -0.186751f, -0.055224f, -0.045830f, 0.031472f, -0.279867f, 0.150285f, 0.114614f, 0.040480f, -0.222358f, 0.134760f, 0.095297f, -0.107916f, 0.003899f, -0.215763f, 0.130749f, -0.117921f, 0.079371f, 0.065128f, -0.033075f, 0.072985f, 0.041079f, 0.241109f, 0.239191f, 0.042646f, 0.020296f, -0.230795f, 0.049963f, 0.051578f, -0.191816f, -0.152362f, -0.112661f, 0.006686f, -0.004986f, -0.227136f, -0.125398f, 0.179076f, 0.151654f, -0.176954f, 0.064097f, -0.130541f, -0.062551f, -0.121760f, 0.136110f, 0.119603f, 0.050830f, 0.108655f, 0.166446f, 0.136433f, -0.135653f, 0.023333f, 0.054499f, 0.132253f, 0.018715f, 0.098046f, 0.129596f, -0.008036f, -0.180859f, -0.194881f, -0.067483f, -0.205559f, -0.063874f, 0.110366f, -0.140056f, 0.277534f, 0.096266f, 0.024740f, 0.128608f, -0.113845f, -0.154816f, 0.136653f, -0.077023f, -0.214785f, 0.144209f, -0.006532f, 0.082122f, -0.164526f, -0.023814f, -0.051745f, -0.053623f, -0.166677f, -0.081099f, -0.067419f, -0.013243f, 0.089472f, 0.088510f, 0.139727f, 0.182792f, 0.059621f, -0.116911f, 0.025417f, 0.147568f, -0.146068f, 0.134292f, -0.168573f, 0.063233f, 0.034776f, 0.139862f, -0.066474f, 0.065209f, 0.096734f, -0.221540f, -0.003534f, -0.087527f, -0.051170f, -0.018156f, -0.172724f, 0.121586f, -0.174940f, -0.112324f, 0.150373f, -0.063696f, -0.014289f, 0.127335f, -0.113041f, -0.184141f, 0.155373f, -0.173556f, -0.053024f, -0.200098f, -0.021563f, -0.121407f, 0.044138f, -0.052895f, 0.042223f, -0.098325f, 0.121166f, -0.175983f, -0.170912f, -0.001212f, -0.064736f, -0.176355f, 0.009133f, -0.065151f, -0.158603f, 0.084405f, -0.075691f, 0.131988f, -0.099214f, 0.147815f, -0.018313f, 0.152994f, 0.052061f, -0.111532f, -0.001880f, -0.138956f, -0.065633f, 0.056987f, -0.094870f, 0.015270f, 0.044994f, -0.078802f, -0.120479f, 0.040684f, 0.124579f, -0.133715f, 0.049931f, -0.205112f, -0.082971f, -0.157128f, 0.100750f, -0.204643f, -0.056547f, 0.023702f, -0.007197f, 0.226340f, -0.051800f, -0.004838f, 0.034024f, 0.045163f, 0.142289f, -0.046507f, 0.215933f, -0.002454f, 0.057542f, 0.022604f, -0.146884f, -0.082727f, -0.148755f, 0.089229f, 0.006878f, 0.280202f, -0.126627f, 0.117065f, 0.268700f, -0.019332f, -0.110046f, -0.080669f, 0.134727f, 0.056866f, -0.190694f, -0.009903f, -0.086007f, 0.039314f, 0.075441f, 0.252509f, 0.062972f, 0.058243f, 0.103496f, 0.148593f, 0.148603f, -0.229547f, 0.136171f, -0.027119f, 0.064778f, 0.006466f, 0.038057f, 0.223527f, -0.158617f, 0.215786f, 0.087258f, 0.149974f, -0.206502f, -0.057121f, 0.140055f, 0.180107f, -0.164966f, -0.108045f, 0.065725f, -0.205762f, -0.208487f, -0.194957f, -0.019968f, 0.017321f, 0.106945f, 0.075091f, 0.085725f, -0.473411f, -0.001254f, 0.019044f, -0.025047f, 0.002740f, -0.016685f, -0.008495f, 0.025020f, -0.100818f, 0.096619f, -0.086668f, -0.042909f, 0.101824f, -0.117333f, -0.074558f, 0.006843f, -0.040031f, 0.000737f, -0.156466f, -0.168561f, -0.095781f, -0.014914f, -0.034431f, 0.096581f, 0.112168f, -0.144106f, 0.093641f, -0.120026f, 0.052034f, -0.353614f, 0.150405f, 0.097372f, 0.088020f, -0.264096f, -0.045994f, 0.264983f, 0.078425f, -0.090085f, -0.068968f, -0.199269f, 0.164392f, -0.089108f, -0.025202f, 0.114022f, 0.226323f, 0.097630f, 0.133343f, 0.312980f, -0.019288f, 0.143689f, 0.020822f, -0.132412f, 0.152540f, 0.076910f, 0.084342f, 0.067590f, -0.174619f, 0.052467f, 0.216769f, -0.271156f, -0.007448f, 0.125200f, 0.170918f, 0.189006f, 0.124551f, -0.117003f, 0.128099f, -0.088909f, -0.082920f, -0.013417f, -0.145489f, -0.110997f, -0.146003f, -0.055884f, -0.195469f, -0.168461f, -0.029447f, 0.113330f, 0.217019f, -0.145354f, -0.012109f, -0.173722f, -0.024359f, 0.087062f, 0.021464f, -0.261425f, -0.203231f, 0.181180f, -0.130165f, 0.007746f, -0.204118f, -0.042682f, 0.013317f, 0.076931f, -0.002298f, -0.229341f, 0.167150f, 0.073965f, 0.217899f, -0.487418f, -0.063165f, -0.181049f, -0.085468f, 0.010374f, 0.011374f, -0.145298f, 0.012160f, 0.043581f, -0.135404f, 0.038501f, 0.188700f, 0.125057f, -0.145549f, -0.101412f, 0.137687f, -0.051478f, -0.188825f, -0.105644f, 0.117452f, -0.183631f, 0.014991f, 0.230625f, -0.159581f, 0.058771f, -0.199400f, -0.048751f, -0.015234f, -0.087163f, 0.024478f, -0.202366f, -0.030187f, -0.291209f, -0.184802f, 0.076756f, 0.015232f, -0.073426f, -0.162391f, -0.033975f, 0.029997f, 0.154028f, 0.127914f, 0.155588f, -0.184781f, 0.032008f, 0.019752f, -0.136734f, 0.127934f, 0.000617f, 0.027153f, -0.291905f, -0.225263f, -0.005199f, 0.038931f, 0.082069f, -0.104117f, -0.076081f, -0.052759f, 0.105577f, -0.026107f, -0.163051f, 0.038584f, -0.218045f, -0.037165f, -0.284133f, 0.127027f, -0.006895f, 0.049692f, -0.030834f, 0.076473f, -0.238393f, 0.103502f, -0.073435f, -0.045881f, 0.092373f, -0.214437f, 0.186349f, 0.101623f, -0.157981f, -0.148764f, 0.199272f, 0.028330f, -0.014335f, -0.081307f, -0.136256f, -0.087003f, -0.249679f, -0.205115f, -0.086016f, -0.197139f, -0.113121f, -0.056726f, -0.057799f, -0.064580f, 0.220747f, 0.001630f, -0.217613f, -0.055771f, -0.072528f, -0.056984f, -0.117753f, 0.117301f, 0.098254f, -0.213278f, 0.105917f, 0.027790f, 0.025011f, 0.434452f, -0.138340f, -0.094072f, -0.107000f, 0.078518f, 0.130038f, -0.036701f, -0.283638f, -0.083269f, 0.167980f, -0.179813f, -0.036313f, 0.089947f, -0.058011f, -0.201642f, 0.132492f, -0.216885f, -0.188944f, 0.066811f, 0.155476f, -0.064558f, -0.592234f, 0.074169f, 0.125654f, -0.176045f, -0.044403f, -0.134521f, -0.159592f, -0.123026f, -0.419969f, 0.157239f, 0.072130f, -0.023597f, 0.161599f, -0.066140f, 0.107566f, -0.114916f, 0.168685f, 0.120722f, -0.072580f, -0.240229f, 0.125702f, -0.199446f, -0.133373f, -0.205762f, -0.045198f, 0.099302f, 0.218846f, 0.136877f, -0.299817f, -0.138493f, 0.147188f, 0.089354f, -0.041361f, 0.089885f, -0.108981f, -0.337917f, -0.273521f, -0.159423f, -0.189413f, -0.094382f, 0.168786f, -0.094483f, -0.185016f, -0.019165f, 0.095364f, 0.087101f, -0.035799f, 0.275729f, -0.067364f, -0.075821f, -0.225725f, -0.136796f, 0.152910f, 0.023278f, -0.170559f, -0.006703f, 0.139154f, -0.185358f, 0.081935f, 0.139686f, 0.151441f, -0.127582f, -0.117383f, -0.113312f, -0.185556f, 0.070790f, -0.031513f, -0.067584f, -0.118257f, -0.032806f, -0.191533f, 0.016200f, -0.191942f, 0.150021f, 0.113207f, 0.207690f, -0.051776f, -0.066272f, -0.185464f, -0.253063f, -0.065465f, 0.014605f, -0.111505f, -0.204754f, -0.039988f, -0.165558f, -0.152648f, -0.192482f, -0.016093f, -0.076370f, -0.115473f, -0.065576f, -0.171895f, -0.111278f, 0.228795f, -0.010420f, -0.226075f, -0.204321f, 0.048217f, 0.020678f, -0.120663f, 0.009019f, 0.188978f, -0.208408f, -0.076284f, -0.003913f, -0.058272f, 0.134957f, -0.155601f, -0.168156f, 0.095245f, -0.120786f, 0.086731f, -0.105745f, 0.219708f, -0.186769f, -0.102846f, 0.014643f, -0.079832f, 0.130392f, 0.076935f, -0.097156f, -0.071008f, -0.132373f, -0.011284f, 0.019277f, 0.189145f, -0.086925f, -0.315833f, 0.161903f, -0.037159f, -0.213354f, -0.169099f, -0.153079f, -0.202414f, -0.208292f, -0.065564f, 0.084674f, -0.138685f, 0.128894f, 0.041480f, -0.045578f, 0.110892f, 0.065781f, 0.127317f, 0.225274f, 0.063014f, 0.086523f, -0.090157f, 0.164784f, 0.155116f, 0.138264f, 0.090869f, 0.146026f, -0.258606f, -0.155903f, 0.045931f, 0.022474f, -0.167510f, -0.342691f, 0.190564f, 0.054795f, 0.057121f, -0.093725f, 0.228379f, 0.032266f, -0.164394f, 0.026046f, -0.075303f, 0.030767f, -0.164407f, -0.373435f, 0.094327f, 0.092220f, -0.072818f, -0.418890f, 0.052062f, -0.117767f, -0.012625f, 0.100475f, -0.133991f, 0.134675f, 0.002897f, 0.112821f, -0.143720f, 0.250946f, -0.376104f, 0.006807f, -0.098830f, -0.152626f, 0.070753f, 0.283395f, 0.099203f, 0.132303f, -0.058432f, -0.243467f, -0.131911f, 0.304906f, -0.044468f, 0.170295f, 0.165294f, -0.242369f, 0.109937f, -0.221399f, 0.250983f, 0.032152f, -0.017297f, 0.199312f, -0.370252f, -0.130323f, 0.074308f, -0.142046f, -0.051069f, 0.151093f, 0.306436f, -0.002022f, 0.339869f, 0.037589f, -0.249610f, 0.040328f, 0.042404f, 0.196706f, -0.023373f, 0.062630f, 0.068289f, 0.160714f, -0.204905f, -0.105612f, 0.252161f, -0.143851f, -0.931074f, 0.114712f, 0.096236f, -0.023122f, 0.131589f, 0.067712f, 0.140289f, 0.154439f, -0.186883f, 0.001040f, -0.150201f, 0.403733f, 0.231381f, 0.166830f, -0.666245f, -0.062627f, 0.085736f, -0.039703f, -0.185879f, -0.048646f, 0.015198f, 0.091026f, -0.198576f, 0.033841f, -0.362621f, -0.081755f, -0.069940f, -0.180610f, -0.111227f, -0.190533f, 0.106612f, -0.010888f, -0.033022f, 0.141518f, 0.250328f, 0.083187f, -0.095729f, 0.276433f, -0.064173f, 0.008330f, 0.042203f, -0.037301f, 0.280359f, 0.158371f, -0.113775f, -0.002940f, 0.009784f, -0.212917f, 0.077196f, -0.211399f, -0.044420f, -0.035247f, 0.093537f, -0.154769f, 0.004372f, -0.053738f, 0.256033f, 0.052876f, -0.102647f, 0.004146f, -0.115634f, 0.078386f, -0.018878f, -0.079507f, -0.077865f, 0.033676f, 0.157008f, -0.026499f, 0.165155f, 0.004999f, 0.000242f, -0.206769f, -0.109175f, 0.308549f, -0.121529f, -0.083235f, 0.011793f, 0.041152f, -0.138600f, -0.149306f, -0.051990f, 0.187342f, -0.127449f, -0.023226f, 0.199054f, -0.149826f, -0.008458f, 0.053863f, -0.055515f, -0.308388f, -0.048029f, -0.044157f, -0.068732f, -0.112095f, -0.082004f, -0.173854f, 0.125182f, -0.048361f, 0.099130f, 0.067780f, -0.011768f, 0.260558f, 0.090517f, -0.160431f, -0.189896f, -0.133862f, 0.032455f, -0.054110f, 0.134289f, -0.087094f, -0.116193f, -0.190518f, 0.143738f, 0.042098f, -0.312620f, -0.193385f, 0.239031f, -0.176114f, 0.104253f, -0.054309f, -0.008518f, -0.007407f, -0.354031f, -0.188992f, 0.050878f, -0.063169f, 0.041292f, 0.013551f, 0.184677f, -0.059991f, 0.127386f, 0.137330f, -0.214814f, -0.145656f, 0.091048f, -0.116954f, 0.144179f, 0.234037f, 0.107518f, -0.075885f, 0.013639f, -0.112364f, 0.036117f, -0.169480f, 0.012865f, -0.050402f, 0.100415f, -0.203584f, -0.020168f, 0.070896f, 0.036487f, 0.037954f, 0.090371f, -0.182659f, 0.086531f, 0.038735f, 0.040023f, -0.083894f, -0.001394f, -0.133025f, -0.157789f, 0.036040f, 0.000678f, 0.187218f, -0.044013f, -0.005452f, -0.303132f, -0.137107f, -0.011089f, -0.276033f, 0.094037f, -0.031345f, -0.122087f, -0.187924f, -0.022665f, -0.117714f, -0.183689f, 0.007888f, 0.058129f, -0.116602f, -0.180878f, 0.109393f, 0.110805f, 0.167518f, -0.103223f, 0.053694f, -0.172592f, -0.176403f, -0.053171f, -0.067703f, 0.074941f, -0.179410f, -0.159178f, 0.083888f, -0.074485f, 0.125599f, -0.091049f, -0.110067f, 0.116286f, -0.035478f, -0.141484f, -0.099038f, -0.084238f, 0.029612f, 0.043981f, -0.205588f, -0.115576f, 0.089514f, -0.196930f, -0.072117f, 0.078239f, 0.121332f, 0.072707f, 0.034401f, 0.135787f, 0.074951f, -0.024484f, 0.072967f, 0.046848f, -0.032194f, -0.077337f, 0.031705f, 0.132454f, 0.050006f, 0.013050f, 0.041430f, -0.122573f, -0.027777f, -0.196401f, -0.073039f, -0.127737f, -0.052416f, -0.127009f, 0.021486f, -0.018916f, 0.151413f, 0.101494f, -0.079519f, 0.109504f, 0.060317f, 0.063010f, 0.099366f, 0.140280f, 0.113937f, 0.039252f, -0.157898f, -0.017072f, -0.165809f, 0.216495f, 0.198898f, 0.055326f, 0.098253f, 0.054943f, -0.031000f, -0.073926f, 0.003367f, 0.017721f, 0.008749f, -0.209077f, 0.052511f, -0.078641f, -0.045411f, 0.079448f, -0.024794f, -0.182210f, 0.033524f, -0.176849f, 0.180174f, -0.079656f, -0.195722f, -0.010858f, -0.126269f, -0.161358f, 0.074918f, 0.025777f, -0.208972f, 0.141847f, 0.162392f, 0.031417f, 0.139038f, -0.126621f, -0.098560f, -0.128251f, -0.053998f, -0.169394f, 0.090600f, -0.172899f, -0.151864f, -0.014853f, -0.193125f, 0.147440f, 0.005878f, -0.034924f, 0.094949f, 0.119663f, 0.156363f, 0.087427f, -0.015851f, 0.014066f, -0.080010f, 0.107126f, -0.121918f, -0.071043f, -0.173571f, -0.181556f, -0.259868f, 0.236049f, 0.023280f, -0.016823f, 0.046930f, -0.173907f, -0.368290f, 0.237188f, 0.202863f, -0.110460f, -0.187775f, -0.137870f, 0.124489f, 0.246253f, -0.024844f, -0.078673f, 0.124576f, -0.000748f, 0.069110f, -0.175100f, -0.044188f, 0.117001f, -0.249991f, -0.007149f, 0.014013f, 0.114321f, 0.145892f, -0.167142f, 0.062577f, -0.046475f, 0.025667f, 0.116824f, 0.146760f, 0.085519f, -0.150509f, -0.184973f, -0.002232f, -0.182600f, 0.312304f, -0.397323f, 0.119059f, 0.151062f, -0.171865f, -0.204347f, -0.150517f, 0.004724f, -0.307806f, 0.028093f, 0.093769f, -0.102047f, 0.164979f, 0.048988f, 0.096892f, 0.777521f, 0.023388f, -0.018268f, 0.132029f, -0.123753f, -0.125131f, 0.311666f, -0.164039f, -0.082341f, -0.279826f, 0.155608f, 0.016286f, 0.088543f, 0.027526f, 0.212620f, -0.182885f, 0.013633f, 0.189477f, -0.125374f, 0.002018f, -0.244098f, 0.067507f, -0.214493f, 0.012708f, 0.074946f, 0.163145f, -0.045139f, -0.203707f, -0.013674f, -0.184529f, 0.043503f, -0.217683f, 0.105516f, -0.079479f, -0.044335f, -0.042065f, 0.038281f, 0.107677f, -0.550923f, -0.008970f, -0.175243f, 0.079312f, -0.177910f, 0.036863f, -0.083928f, 0.194972f, -0.158499f, -0.032709f, 0.095947f, 0.110507f, -0.168635f, 0.025195f, -0.486231f, 0.143841f, -0.072482f, -0.235625f, 0.150167f, -0.034263f, 0.088667f, 0.251714f, 0.009468f, -0.023275f, -0.076705f, -0.150444f, 0.286065f, 0.025009f, -0.109003f, 0.102283f, -0.108401f, -0.101253f, 0.194929f, 0.035947f, 0.014366f, 0.076811f, 0.038805f, 0.048849f, 0.001180f, -0.054809f, 0.142969f, 0.136451f, -0.232559f, 0.162039f, 0.087880f, -0.113654f, -0.068010f, -0.178639f, 0.047041f, -0.212299f, 0.185048f, -0.041239f, 0.055278f, -0.072453f, -0.035665f, -0.191513f, 0.064511f, -0.266654f, -0.084177f, -0.148308f, -0.105372f, 0.008842f, -0.140409f, 0.056546f, -0.453875f, -0.273328f, -0.116800f, 0.052953f, -0.120027f, 0.053969f, 0.124929f, 0.156612f, 0.109260f, 0.072690f, 0.096588f, 0.400328f, -0.436310f, 0.035317f, -0.053837f, -0.192057f, -0.293745f, 0.007908f, -0.012222f, -0.275918f, -0.123572f, 0.153243f, 0.121435f, 0.207669f, 0.066091f, 0.123821f, 0.343651f, -0.152114f, 0.052212f, -0.039547f, 0.069045f, -0.049652f, 0.121447f, -0.141871f, -0.043306f, 0.012492f, -0.323685f, -0.067156f, -0.403145f, -0.098110f, 0.123985f, 0.030773f, -0.029893f, -0.099447f, 0.178990f, -0.070673f, -0.218654f, -0.129892f, -0.110517f, -0.322855f, -0.333544f, -0.158445f, -0.074173f, -0.207826f, -0.092984f, -0.094288f, -0.023189f, 0.297066f, 0.145164f, -0.060759f, -0.066727f, -0.118919f, 0.166251f, -0.156397f, -0.538189f, 0.002114f, 0.175510f, -0.004803f, 0.022906f, 0.142384f, -0.175026f, -0.201551f, 0.115718f, 0.094046f, 0.029610f, 0.126938f, -0.055316f, -0.001195f, -0.885448f, 0.005616f, -0.129923f, -0.171402f, 0.103272f, 0.126448f, -0.036235f, -0.232273f, -0.144148f, 0.028107f, -0.001838f, 0.014856f, -0.040778f, 0.174841f, -0.090327f, -0.224424f, 0.125617f, 0.235989f, 0.153644f, -0.015191f, -0.006686f, -0.127949f, -0.146388f, -0.145541f, -0.335698f, -0.022316f, 0.081926f, -0.222185f, -0.039262f, -0.232938f, 0.229099f, 0.016630f, -0.179343f, 0.018146f, 0.135915f, -0.275419f, -0.334176f, -0.052085f, 0.136619f, 0.148815f, -0.178787f, -0.185551f, -0.150062f, 0.057603f, 0.046704f, -0.036991f, -0.159971f, 0.131265f, -0.155547f, -0.004373f, -0.112438f, -0.069798f, 0.124220f, -0.082814f, -0.199952f, 0.021029f, -0.086891f, -0.243944f, 0.302489f, -0.156902f, -0.080444f, -0.020745f, -0.160622f, -0.181738f, -0.245101f, -0.190836f, -0.051509f, -0.023646f, 0.107214f, -0.177463f, -0.058648f, -0.268307f, -0.225688f, 0.231728f, -0.073742f, -0.050205f, 0.014745f, 0.088260f, 0.022243f, -0.213376f, 0.126402f, 0.102233f, 0.032115f, -0.242324f, -0.130210f, 0.137945f, -0.349128f, -0.424587f, 0.023372f, -0.116974f, 0.061194f, 0.072728f, 0.176465f, -0.093662f, 0.236325f, -0.017726f, -0.062170f, -0.179028f, -0.025197f, -0.046633f, -0.035306f, -0.186404f, 0.111229f, -0.048874f, 0.018366f, -0.156409f, -0.117684f, 0.136122f, -0.020702f, 0.028894f, -0.128445f, -0.129881f, 0.125720f, 0.158502f, -0.083678f, -0.197460f, 0.106400f, 0.040094f, 0.069406f, -0.102012f, 0.040783f, -0.088484f, -0.040492f, -0.062000f, -0.185997f, -0.003958f, 0.048115f, -0.052490f, -0.304896f, -0.019302f, -0.080412f, 0.060066f, -0.055102f, -0.105510f, 0.027777f, 0.051846f, -0.180304f, 0.083100f, 0.156845f, 0.082934f, -0.129185f, -0.073843f, 0.161858f, -0.000905f, 0.018866f, 0.136456f, -0.158476f, -0.044616f, 0.104600f, 0.082269f, 0.304090f, 0.221588f, -0.069391f, -0.052447f, -0.261552f, -0.018965f, 0.094990f, -0.015584f, -0.259620f, -0.476733f, -0.096334f, 0.124551f, -0.165439f, 0.245292f, -0.071451f, -0.146663f, -0.266319f, 0.101888f, 0.137743f, 0.084463f, -0.022270f, -0.128797f, 0.093769f, 0.025052f, 0.078964f, -0.428912f, -0.055470f, -0.207517f, -0.233036f, -0.233897f, -0.240398f, 0.130794f, 0.021228f, -0.018837f, 0.093450f, 0.210537f, -0.310244f, 0.128303f, 0.085327f, 0.025560f, -0.066804f, 0.254922f, 0.137020f, 0.108650f, 0.206637f, -0.014785f, -0.043827f, 0.126815f, 0.131999f, 0.121808f, -0.030585f, -0.197767f, 0.093191f, -0.345337f, -0.027962f, -0.129635f, 0.022441f, -0.004002f, -0.319580f, 0.071006f, 0.072198f, -0.122671f, 0.126816f, -0.180646f, 0.052963f, -0.080317f, 0.153619f, -0.152664f, 0.112468f, -0.013061f, -0.098464f, 0.126458f, 0.286817f, 0.148755f, 0.085505f, 0.004391f, -0.188424f, -0.186791f, 0.271783f, 0.051674f, -0.919308f, 0.159687f, -0.030663f, -0.098467f, -0.153045f, 0.400539f, 0.006987f, -0.176338f, -0.173381f, 0.181109f, -0.054862f, 0.312482f, 0.333635f, -0.002080f, -0.705128f, -0.127846f, 0.005971f, 0.102358f, -0.217504f, -0.110716f, 0.206916f, 0.008348f, -0.027685f, 0.075096f, -0.358783f, 0.002759f, 0.061194f, 0.048786f, -0.126000f, 0.145381f, -0.009074f, -0.176740f, -0.143291f, -0.046990f, 0.337862f, 0.359685f, 0.042042f, 0.345518f, -0.145202f, 0.128952f, 0.135716f, 0.162952f, 0.251329f, -0.178208f, -0.290360f, 0.112680f, -0.049345f, -0.032075f, 0.154433f, -0.057938f, -0.013851f, -0.066990f, 0.054056f, -0.080124f, 0.074076f, -0.186772f, 0.098913f, 0.171305f, -0.107458f, -0.091189f, 0.065518f, 0.031986f, -0.285334f, -0.036510f, 0.131029f, -0.179027f, -0.140258f, -0.005988f, -0.246563f, -0.077485f, 0.080962f, -0.012410f, 0.093543f, 0.159407f, -0.039680f, 0.079295f, -0.002249f, 0.159714f, 0.070968f, 0.112451f, 0.118025f, -0.151451f, -0.144455f, -0.211330f, 0.189058f, 0.047675f, -0.171721f, 0.162451f, -0.082312f, 0.011763f, 0.118675f, 0.143727f, -0.222330f, -0.073563f, 0.135301f, -0.151904f, 0.093524f, -0.166338f, -0.182599f, -0.081950f, -0.211415f, 0.281431f, -0.312568f, 0.166352f, 0.112418f, -0.008199f, 0.084903f, -0.025791f, 0.191325f, -0.092380f, 0.071112f, -0.050079f, -0.183527f, -0.158754f, -0.110328f, 0.039946f, 0.225493f, 0.028655f, 0.009454f, 0.124986f, 0.187869f, 0.025773f, -0.079729f, -0.119739f, 0.028595f, -0.106693f, -0.007141f, -0.107540f, -0.085359f, -0.152179f, -0.245292f, -0.042452f, 0.070688f, -0.199499f, 0.165857f, -0.018822f, 0.121847f, -0.049210f, 0.074770f, 0.018695f, -0.167047f, -0.171841f, -0.180857f, -0.110928f, 0.090486f, -0.036410f, -0.087733f, -0.132749f, 0.161457f, -0.139326f, -0.149357f, -0.034400f, 0.018512f, -0.066407f, 0.019530f, 0.005847f, -0.063371f, 0.093343f, -0.194408f, -0.026089f, 0.059805f, -0.138437f, -0.135931f, -0.115941f, 0.050668f, -0.164772f, 0.259170f, 0.098442f, -0.000895f, 0.051114f, 0.173923f, 0.155517f, 0.119041f, 0.011151f, -0.066171f, -0.161111f, -0.024777f, -0.086266f, -0.175186f, -0.165148f, 0.159117f, -0.150832f, -0.158688f, -0.048165f, -0.079234f, -0.170603f, -0.092845f, 0.160438f, -0.063115f, -0.072863f, -0.226745f, -0.139372f, -0.094695f, -0.160024f, -0.087975f, -0.108534f, -0.068528f, -0.007260f, -0.117238f, -0.092959f, -0.117241f, 0.032367f, -0.158222f, -0.203388f, -0.145724f, -0.084123f, -0.023195f, 0.066108f, 0.149787f, -0.111705f, 0.030121f, 0.063764f, 0.077798f, 0.158406f, 0.087617f, 0.118337f, -0.163014f, -0.008589f, -0.149666f, 0.027378f, 0.024144f, -0.123260f, -0.056084f, 0.051690f, 0.126767f, 0.080475f, 0.021393f, 0.083112f, -0.008339f, 0.168423f, -0.211265f, -0.029165f, 0.061978f, -0.079149f, -0.092805f, 0.213563f, 0.219326f, 0.067623f, -0.062007f, 0.145821f, -0.051250f, 0.105715f, 0.047091f, -0.174846f, 0.197831f, -0.030655f, -0.011160f, -0.237176f, 0.170182f, 0.237316f, -0.030515f, 0.112814f, -0.072510f, -0.041916f, -0.012685f, 0.169165f, -0.059547f, -0.210957f, -0.101072f, -0.013674f, -0.151344f, -0.057333f, -0.205190f, -0.037127f, -0.018690f, 0.002828f, -0.139443f, 0.129807f, 0.254313f, -0.060503f, 0.068831f, -0.019656f, -0.207866f, -0.124646f, -0.174860f, -0.013536f, 0.168401f, -0.085931f, 0.123079f, -0.041061f, -0.121449f, -0.160394f, -0.131166f, 0.061547f, -0.137249f, -0.060037f, 0.038388f, 0.049634f, 0.042171f, 0.044689f, 0.148564f, 0.201841f, -0.029791f, -0.078758f, 0.014440f, -0.169118f, -0.132497f, -0.204832f, 0.185772f, -0.110116f, -0.124089f, 0.059044f, -0.121620f, -0.200077f, 0.015666f, -0.329430f, 0.010809f, -0.076953f, 0.033449f, -0.160980f, -0.149296f, -0.491665f, -0.172159f, -0.017344f, 0.082532f, -0.232956f, 0.047923f, 0.193064f, 0.273947f, -0.042674f, 0.372367f, 0.108961f, 0.089015f, -0.206719f, -0.010852f, -0.444370f, 0.065102f, 0.102349f, 0.104823f, 0.283269f, -0.046962f, 0.347021f, -0.068032f, 0.039349f, 0.238120f, -0.108657f, 0.035402f, -0.154499f, -0.170833f, 0.134121f, 0.074652f, 0.169004f, -0.189137f, 0.048464f, -0.378724f, 0.041485f, 0.167312f, -0.240662f, -0.573469f, 0.123689f, 0.165017f, -0.226358f, -0.032799f, 0.017217f, 0.061748f, 0.311909f, -0.104689f, 0.285669f, 0.816423f, -0.098724f, -0.096390f, 0.072070f, 0.276453f, -0.889667f, -0.231323f, 0.094322f, 0.028048f, -0.057105f, 0.087984f, 0.148996f, -0.038431f, 0.018546f, -0.041335f, -0.019561f, 0.101237f, 0.253818f, 0.154674f, -0.115154f, -0.076844f, -0.124751f, 0.026809f, -0.163839f, -0.060039f, -0.107403f, -0.035538f, -0.121996f, 0.127968f, -0.221285f, -0.187124f, -0.516655f, 0.057277f, 0.000752f, 0.119360f, -0.040833f, -0.048254f, -0.116084f, -0.573177f, -0.209376f, -0.101329f, 0.060710f, -0.156317f, -0.023178f, -0.071622f, -0.006197f, 0.108180f, -0.138893f, -0.174815f, 0.035451f, -0.144502f, 0.141329f, -0.363659f, -0.105006f, -0.226712f, 0.055771f, -0.054852f, -0.094133f, 0.047783f, 0.187193f, 0.102646f, 0.069419f, 0.168539f, -0.063813f, 0.113996f, 0.099048f, 0.061537f, 0.213148f, 0.087042f, -0.129195f, 0.258314f, 0.018047f, 0.010731f, 0.035640f, 0.170599f, -0.227599f, -0.028565f, 0.168925f, 0.090683f, -0.045751f, -0.075334f, -0.071762f, 0.153862f, 0.026575f, 0.091193f, -0.232157f, 0.029248f, 0.140350f, 0.204310f, -0.006126f, 0.255410f, -0.226406f, 0.145417f, 0.043045f, -0.048601f, -0.798822f, 0.083885f, -0.110710f, -0.066229f, 0.358714f, 0.006210f, 0.166553f, -0.701082f, 0.037356f, -0.061988f, -0.076387f, -0.053528f, -0.051601f, -0.123153f, -0.082576f, 0.022046f, 0.079936f, -0.083267f, 0.382199f, -0.187987f, 0.170479f, 0.085544f, -0.235439f, -0.239564f, 0.097862f, -0.166289f, -0.095920f, 0.120400f, 0.043761f, 0.075581f, 0.339550f, -0.015036f, -0.104796f, 0.686693f, -0.018578f, -0.140979f, 0.167141f, 0.046732f, -0.216929f, 0.121702f, -0.182763f, -0.232353f, -0.202536f, -0.294983f, -0.312572f, -0.098476f, -0.109091f, -0.016234f, 0.013706f, -0.000614f, 0.010875f, 0.151189f, 0.012241f, -0.092187f, -0.036107f, 0.058055f, -0.233657f, -0.078689f, 0.158333f, 0.074233f, 0.082440f, 0.022781f, -0.223572f, -0.161126f, 0.090121f, -0.187035f, -0.011945f, 0.066847f, -0.120861f, 0.124748f, -0.297171f, -0.584753f, -0.056601f, -0.073725f, -0.039032f, -0.108459f, 0.048721f, -0.141220f, 0.144906f, 0.160074f, -0.064097f, 0.102127f, -0.121684f, 0.102725f, -0.007407f, -0.672712f, 0.109736f, 0.185503f, 0.007042f, -0.061523f, 0.091461f, -0.150056f, -0.217978f, -0.360700f, -0.208304f, 0.176405f, -0.185257f, -0.054012f, -0.128517f, -0.034838f, -0.166872f, 0.122097f, 0.132521f, 0.041220f, -0.080512f, -0.199057f, 0.097336f, -0.120763f, -0.070836f, -0.080531f, 0.082183f, 0.253370f, -0.131488f, -0.125028f, -0.194229f, 0.011300f, 0.188454f, -0.049244f, -0.024877f, -0.176973f, -0.041063f, -0.040060f, -0.078227f, 0.005090f, -0.136185f, 0.145362f, -0.083940f, -0.063834f, 0.080151f, 0.095223f, -0.151285f, 0.092350f, 0.094971f, -0.094110f, 0.019648f, 0.067899f, 0.039041f, 0.082967f, -0.005434f, -0.071517f, -0.091806f, 0.033287f, -0.136196f, 0.219659f, 0.134628f, 0.101072f, 0.158672f, -0.017082f, -0.161361f, -0.236542f, 0.025309f, 0.087148f, -0.131372f, 0.141371f, 0.046887f, -0.199272f, -0.063166f, -0.080859f, 0.187927f, -0.104726f, 0.213898f, 0.010493f, 0.108172f, -0.102432f, -0.295904f, -0.040001f, 0.217348f, -0.165267f, -0.082894f, -0.070304f, 0.011187f, -0.367694f, -0.349420f, 0.170774f, -0.178568f, -0.058525f, -0.022401f, 0.191433f, 0.147085f, -0.026038f, -0.108657f, 0.062966f, 0.084478f, -0.205671f, -0.022855f, 0.023339f, -0.006902f, -0.172129f, -0.039002f, 0.148507f, 0.013381f, 0.025397f, -0.005534f, 0.100957f, -0.070201f, 0.020391f, 0.099797f, -0.107303f, 0.164579f, -0.015741f, 0.131312f, 0.028856f, 0.151287f, -0.097512f, -0.166319f, -0.097712f, -0.118649f, 0.170242f, -0.205390f, 0.150275f, -0.041777f, 0.080834f, -0.016652f, -0.312968f, 0.123254f, -0.039941f, -0.066924f, 0.113902f, 0.100487f, -0.227796f, -0.160678f, -0.155830f, 0.067821f, -0.117713f, 0.048836f, 0.073717f, 0.159300f, -0.198399f, -0.112294f, 0.124654f, 0.063264f, -0.038417f, 0.169227f, -0.162345f, -0.137806f, 0.007584f, 0.116730f, 0.194967f, 0.036025f, -0.349980f, -0.142003f, 0.228978f, 0.148178f, -0.029632f, -0.539572f, -0.143677f, -0.171004f, 0.088374f, -0.011635f, -0.069923f, -0.054446f, -0.182998f, -0.146785f, -0.024859f, 0.127564f, -0.170243f, -0.032766f, -0.160183f, 0.123214f, 0.114355f, -0.440357f, -0.186793f, -0.422380f, 0.042405f, 0.109851f, 0.034767f, -0.171099f, 0.147254f, 0.026219f, 0.025950f, 0.288135f, -0.237004f, 0.180003f, 0.114972f, -0.100594f, -0.003156f, 0.181345f, 0.246354f, -0.064347f, 0.058303f, 0.101585f, 0.150874f, 0.145380f, 0.128045f, -0.031966f, 0.186078f, -0.350651f, -0.156432f, -0.269344f, 0.099535f, -0.066331f, 0.155163f, -0.020460f, -0.278465f, -0.056978f, 0.178888f, -0.252659f, 0.151148f, 0.166126f, -0.010833f, -0.151378f, 0.195826f, -0.092919f, 0.074601f, -0.192930f, -0.062465f, 0.092345f, 0.006227f, 0.389016f, 0.207391f, 0.065790f, -0.036986f, 0.062509f, 0.307021f, -0.160878f, -0.750239f, 0.095461f, -0.032934f, 0.080671f, -0.132289f, 0.395791f, -0.101566f, 0.130186f, -0.198864f, 0.165566f, 0.123834f, 0.455251f, 0.116076f, 0.000804f, -0.510662f, 0.127114f, 0.164904f, -0.057677f, -0.016934f, 0.149449f, 0.101708f, -0.138859f, -0.097920f, -0.086977f, -0.200547f, 0.049306f, 0.166727f, -0.008351f, -0.135975f, -0.019199f, 0.146694f, -0.077754f, 0.035404f, -0.105084f, 0.218991f, 0.484459f, 0.023252f, 0.422968f, 0.044045f, 0.005958f, -0.089406f, 0.078564f, 0.402060f, 0.150487f, -0.193091f, -0.119431f, 0.066533f, 0.011381f, 0.119934f, -0.280844f, -0.178483f, -0.044275f, 0.048047f, -0.104004f, -0.223115f, -0.174399f, 0.058404f, 0.194186f, -0.021418f, -0.228748f, 0.124463f, 0.001555f, -0.018277f, 0.048272f, 0.087678f, 0.027800f, 0.105945f, -0.201038f, -0.150817f, 0.039547f, 0.137530f, 0.073466f, 0.131575f, 0.145243f, -0.187396f, 0.110086f, -0.272301f, -0.122905f, -0.028355f, -0.028203f, 0.026645f, -0.062019f, 0.109710f, -0.089639f, -0.107610f, 0.061871f, 0.062830f, 0.132524f, -0.105888f, -0.132766f, -0.024189f, 0.101084f, -0.025350f, 0.150900f, 0.039149f, -0.042612f, -0.204137f, -0.116495f, 0.145498f, 0.008710f, -0.205797f, 0.170417f, 0.122935f, 0.133225f, 0.090442f, -0.149630f, 0.068240f, -0.113341f, 0.001802f, 0.054107f, 0.016919f, -0.003164f, 0.086487f, -0.013964f, -0.045050f, -0.029620f, 0.180351f, -0.148265f, -0.129833f, -0.151767f, -0.084007f, 0.258472f, -0.122287f, -0.153283f, -0.133657f, -0.082370f, -0.133865f, 0.074452f, 0.080251f, -0.094704f, 0.096104f, -0.053057f, 0.069573f, 0.036726f, 0.085329f, 0.084222f, -0.021498f, 0.031817f, 0.002906f, 0.027777f, -0.078986f, -0.017775f, -0.144924f, -0.162996f, -0.084884f, -0.124036f, -0.045932f, 0.035986f, -0.020686f, -0.143833f, -0.051400f, -0.084984f, -0.211515f, 0.068074f, -0.086386f, -0.140016f, -0.062322f, 0.096191f, -0.142349f, 0.120608f, -0.167580f, -0.242168f, 0.030096f, 0.134476f, -0.093526f, -0.018617f, 0.123205f, 0.020666f, 0.070276f, 0.001048f, 0.218772f, 0.077037f, 0.034556f, -0.046697f, 0.136187f, 0.005460f, 0.131576f, -0.086603f, 0.094893f, -0.058614f, -0.025814f, -0.163837f, -0.007602f, -0.128828f, -0.077010f, 0.056374f, -0.261081f, -0.182518f, -0.192365f, -0.124167f, 0.075468f, -0.222379f, 0.010095f, -0.144383f, 0.051678f, -0.143191f, -0.054649f, 0.012395f, -0.164698f, 0.102915f, -0.096879f, 0.014024f, -0.024802f, 0.152031f, -0.021117f, 0.046421f, 0.054585f, 0.021053f, -0.097501f, 0.074439f, -0.184202f, -0.202663f, -0.082609f, -0.214349f, 0.035772f, -0.123032f, -0.102370f, 0.038183f, -0.158785f, 0.071875f, -0.124419f, 0.011237f, -0.170091f, 0.127915f, -0.034516f, 0.044675f, -0.119027f, -0.156102f, -0.244295f, -0.100912f, 0.057981f, -0.088921f, -0.037541f, -0.133060f, -0.058184f, 0.151849f, -0.084881f, 0.028344f, -0.051183f, -0.041792f, -0.166988f, 0.067356f, -0.114973f, 0.100161f, 0.091269f, -0.039888f, -0.192896f, -0.020551f, -0.053775f, 0.244328f, -0.063983f, 0.043776f, -0.119754f, -0.053521f, 0.007743f, 0.004188f, 0.125949f, -0.011167f, -0.143798f, 0.034794f, -0.146991f, 0.173921f, 0.017232f, 0.004620f, -0.005917f, 0.182118f, -0.081427f, 0.000994f, -0.039478f, 0.069540f, -0.028437f, -0.184267f, -0.126641f, 0.122233f, 0.070135f, -0.204996f, 0.097133f, -0.007639f, -0.166218f, 0.093782f, -0.070920f, 0.090279f, 0.050953f, -0.023186f, 0.125243f, -0.194008f, 0.046119f, -0.136310f, -0.212166f, 0.107374f, -0.089485f, 0.073303f, -0.227323f, 0.103272f, -0.047456f, -0.057930f, -0.207164f, -0.095170f, 0.179552f, 0.194715f, 0.035563f, -0.309998f, -0.144417f, -0.172082f, 0.474884f, -0.025980f, 0.621277f, -0.092700f, 0.000057f, 0.001791f, 0.472299f, -0.106993f, -1.158761f, -0.062900f, 0.114287f, 0.010467f, -0.115664f, 0.210032f, 0.677796f, -0.194016f, 0.519038f, -0.171876f, -0.001108f, -0.029961f, 0.182019f, -1.573456f, 0.119513f, -0.221420f, 0.159457f, 0.059879f, -0.184616f, 0.064377f, -0.075156f, -0.076214f, 0.483054f, -0.042299f, -0.058657f, -0.099461f, -0.079771f, 0.408716f, -0.352647f, -0.154829f, -0.109007f, -0.836619f, 0.209137f, 0.332318f, 0.766320f, 0.010139f, -0.366703f, -0.220426f, -0.090716f, 0.435672f, -0.089333f, 0.333688f, 0.240176f, 0.014050f, 0.353899f, 0.050707f, 0.197126f, 0.019029f, -0.086565f, -0.026993f, 0.318954f, -2.583958f, -1.510318f, -0.014358f, -0.107329f, -0.103089f, -0.000476f, -0.010502f, 0.055359f, 0.170545f, -0.164164f, 0.102246f, 0.220813f, -0.008421f, -0.431778f, 0.035055f, -0.110548f, -0.013967f, 0.058479f, 0.171430f, -0.080307f, 0.030214f, 0.061563f, -0.073031f, 0.085171f, -0.042708f, -0.206658f, -1.511465f, -0.216728f, -0.284247f, 0.161098f, 0.007376f, -0.165431f, -0.193019f, -0.908868f, -0.208721f, 0.002276f, 0.149330f, -0.148309f, 0.038833f, 0.099675f, 0.287077f, -0.288425f, -0.097906f, -0.034552f, -0.108344f, 0.100985f, 0.251025f, -0.252646f, -0.110907f, 0.073150f, 0.027915f, -0.012586f, 0.216482f, -0.143488f, 0.310651f, 0.081129f, -0.097277f, -0.149530f, -0.442382f, -0.048274f, -0.101204f, 0.033569f, -0.097039f, -0.140364f, -0.172952f, -0.155999f, -0.172667f, -0.050534f, -0.132663f, 0.284851f, 0.003758f, 0.149080f, 0.025626f, -0.051380f, -0.114336f, 0.017785f, 0.194423f, -0.171177f, -0.133215f, 0.016017f, -0.040394f, -0.155132f, 0.023782f, 0.473217f, 0.108915f, 0.402406f, 0.029542f, -0.173486f, -0.017303f, -0.119115f, -1.436820f, -0.080521f, -0.179717f, -0.023260f, 0.068846f, -0.082395f, -0.015291f, -0.577491f, -0.245469f, 0.086742f, 0.131821f, -0.170385f, -0.206247f, -0.038178f, 0.307110f, -0.076346f, 0.140643f, -0.191710f, -0.303125f, -0.054610f, 0.089046f, 0.028729f, -0.073003f, -0.238883f, 0.064613f, 0.071158f, -0.077360f, -0.181145f, 0.167600f, 0.316247f, -0.250314f, 0.139542f, -0.289290f, 0.459859f, 0.135230f, -0.177718f, -0.087626f, 0.128370f, -0.406227f, -0.399995f, -0.260820f, -0.299640f, -0.212883f, -0.200768f, -0.210918f, 0.001771f, -0.072878f, 0.007826f, -0.066582f, 0.107627f, -0.340236f, 0.000458f, 0.003729f, -0.222118f, 0.109011f, -0.087773f, -0.198883f, -0.294647f, 0.110702f, -0.073656f, -0.274861f, -0.094713f, -0.101693f, 0.168803f, -0.083678f, -0.067781f, 0.081932f, 0.004721f, -0.239902f, -0.066463f, -0.404452f, -0.821822f, -0.018860f, -0.106239f, -0.170978f, -0.044042f, 0.136606f, 0.135311f, 0.035375f, 0.233718f, 0.049360f, -0.248974f, -0.054113f, -0.028134f, -0.004226f, -0.930955f, 0.162291f, 0.224270f, 0.084439f, 0.065618f, -0.093204f, 0.024412f, -0.063642f, -0.197698f, 0.007778f, -0.139541f, -0.309975f, 0.064624f, 0.119633f, -0.142666f, -0.056436f, -0.050925f, 0.300766f, 0.232649f, -0.123213f, -0.000626f, 0.062186f, -0.190152f, -0.035809f, -0.087762f, -0.090863f, 0.143110f, -0.166439f, -0.156195f, 0.082384f, 0.050330f, 0.054249f, -0.100602f, -0.095035f, 0.093986f, -0.280058f, -0.120356f, 0.004268f, 0.005430f, 0.116488f, -0.112546f, -0.190916f, -0.092014f, 0.331091f, -0.186531f, 0.107473f, 0.097055f, 0.088890f, 0.094823f, 0.037713f, -0.123302f, -0.121019f, -0.003832f, 0.140786f, -0.026589f, -0.077568f, -0.051137f, 0.107586f, 0.302308f, 0.057853f, -0.012488f, 0.090138f, 0.040708f, 0.106071f, -0.383032f, -0.120423f, 0.046763f, 0.137016f, 0.112757f, -0.054700f, -0.142340f, -0.115680f, -0.159507f, 0.021347f, -0.181978f, 0.114440f, 0.021402f, -0.220046f, -0.154031f, 0.029968f, -0.119542f, 0.111560f, 0.170445f, -0.233682f, -0.193241f, -0.067533f, -0.276519f, -0.262969f, 0.022184f, 0.034488f, 0.004786f, -0.059659f, -0.065654f, 0.111189f, 0.205599f, 0.120323f, -0.200428f, -0.193806f, -0.135755f, -0.216720f, 0.202414f, 0.136345f, -0.225309f, -0.210441f, -0.192050f, -0.080972f, -0.102606f, 0.146095f, 0.137414f, 0.145921f, -0.109102f, 0.075450f, -0.043092f, 0.133277f, -0.031742f, -0.199214f, 0.166666f, -0.178798f, -0.077002f, 0.043213f, -0.166053f, -0.034236f, 0.103377f, 0.105926f, 0.111873f, -0.070206f, -0.033817f, 0.233602f, -0.205856f, -0.002351f, 0.121739f, -0.044906f, -0.189704f, 0.191525f, -0.226170f, 0.150763f, -0.202825f, -0.053258f, -0.134172f, -0.044802f, 0.076047f, 0.165746f, 0.098537f, 0.020719f, -0.112894f, 0.041923f, 0.186355f, 0.184714f, -0.176812f, -0.115182f, 0.234483f, 0.150566f, 0.133874f, -0.052914f, -0.383554f, 0.072518f, 0.231898f, 0.222031f, -0.204957f, -0.241613f, 0.055540f, 0.031963f, -0.189035f, -0.031151f, 0.017996f, -0.126578f, -0.257337f, -0.185682f, -0.207219f, -0.043101f, -0.141609f, -0.013461f, 0.071047f, -0.101554f, -0.005147f, -0.487320f, -0.176101f, -0.402056f, -0.066086f, -0.040858f, -0.061357f, -0.095389f, -0.084538f, -0.160564f, 0.031033f, 0.172702f, -0.257457f, 0.079513f, 0.127951f, -0.212005f, 0.015463f, 0.029502f, 0.018051f, -0.145927f, 0.198155f, 0.050566f, 0.120220f, 0.261078f, 0.115006f, 0.026016f, -0.056316f, -0.136864f, 0.112415f, -0.311193f, -0.095958f, -0.133806f, 0.054507f, 0.161389f, -0.426356f, -0.172572f, 0.099264f, 0.110665f, -0.031900f, 0.078791f, 0.187563f, 0.056465f, 0.099125f, 0.084135f, 0.282095f, 0.104513f, 0.053031f, 0.442773f, 0.305515f, 0.591894f, 0.011504f, 0.151252f, 0.073619f, -0.037847f, 0.182222f, 0.048146f, -0.729853f, -0.130460f, 0.182255f, -0.100905f, -0.130986f, 0.377992f, 0.056588f, -0.173298f, 0.053530f, 0.530658f, 0.066698f, 0.476677f, 0.330340f, 0.209611f, -0.822277f, -0.187218f, -0.001587f, -0.116038f, 0.084490f, 0.072699f, 0.155191f, 0.044599f, 0.009104f, 0.141803f, -0.480192f, -0.075108f, 0.167999f, -0.044756f, -0.415818f, -0.144598f, -0.035084f, -0.217712f, -0.132729f, -0.210388f, 0.351642f, 0.421636f, -0.034946f, 0.216219f, 0.039780f, -0.030008f, -0.051544f, -0.155022f, 0.470523f, 0.060029f, -0.040900f, -0.101250f, -0.193963f, 0.074032f, -0.171563f, -0.025301f, -0.180529f, -0.193434f, -0.057933f, 0.075116f, 0.023883f, 0.030173f, 0.167503f, -0.074286f, -0.059930f, -0.030519f, -0.178910f, 0.068827f, -0.146914f, 0.096551f, -0.039894f, 0.065876f, -0.110924f, 0.177936f, 0.011295f, -0.221891f, -0.158895f, 0.119776f, -0.136883f, 0.280009f, 0.043459f, -0.185811f, -0.157555f, 0.133062f, 0.107265f, 0.082799f, -0.053397f, -0.124432f, -0.142885f, -0.334665f, 0.218829f, -0.107732f, -0.191288f, 0.063001f, 0.084171f, -0.086309f, 0.207334f, -0.124468f, -0.050349f, -0.101177f, -0.091126f, -0.205028f, -0.022849f, -0.076388f, -0.107491f, -0.093486f, -0.136383f, 0.157558f, 0.062382f, -0.148611f, -0.061199f, -0.155715f, -0.050086f, -0.041928f, 0.057143f, -0.103000f, -0.061464f, -0.106894f, 0.063500f, 0.003908f, -0.216945f, 0.035530f, 0.290661f, -0.140555f, 0.001375f, 0.093620f, 0.035900f, 0.165642f, -0.126108f, -0.169669f, -0.063094f, 0.140831f, 0.107265f, 0.014086f, 0.198251f, 0.103884f, -0.034576f, -0.186879f, -0.154822f, -0.221902f, 0.014369f, 0.144072f, 0.069656f, 0.146006f, 0.012484f, 0.031062f, -0.153715f, -0.039270f, -0.152008f, 0.001642f, -0.075461f, -0.183511f, -0.037090f, -0.160691f, 0.006504f, -0.146954f, -0.038668f, 0.054176f, -0.230981f, -0.103801f, 0.097837f, -0.074741f, -0.036391f, 0.145158f, -0.201438f, -0.236714f, -0.087520f, -0.211798f, -0.124871f, -0.018563f, 0.035527f, -0.083470f, 0.030699f, 0.132717f, -0.011602f, -0.061724f, 0.181658f, -0.151447f, 0.015794f, -0.162426f, -0.166561f, -0.099290f, -0.117739f, 0.173066f, 0.118274f, 0.169868f, 0.090346f, 0.116917f, -0.183818f, -0.107054f, 0.181847f, -0.039140f, 0.024306f, -0.075545f, -0.144467f, 0.166218f, -0.046731f, 0.070273f, 0.103874f, 0.101451f, 0.013745f, -0.048846f, 0.062451f, 0.078307f, -0.144202f, -0.169022f, -0.137377f, 0.113213f, -0.136541f, -0.179661f, -0.219069f, 0.123976f, 0.043314f, -0.026532f, 0.139145f, -0.210981f, 0.119909f, -0.005864f, 0.106102f, 0.074458f, -0.213954f, 0.127950f, -0.039394f, -0.064974f, 0.147978f, -0.163579f, -0.094891f, 0.060720f, 0.149922f, -0.195067f, -0.193421f, -0.001190f, 0.075244f, 0.003275f, 0.055727f, 0.036500f, 0.116748f, -0.003383f, -0.008353f, 0.109561f, 0.034764f, -0.079954f, 0.129794f, 0.118639f, -0.125906f, -0.079961f, -0.069938f, -0.080792f, 0.018535f, 0.159649f, 0.037874f, -0.024613f, -0.105006f, -0.052897f, 0.195974f, -0.015519f, 0.052782f, -0.102268f, -0.204118f, -0.093888f, 0.008451f, 0.093762f, -0.004237f, -0.181551f, -0.157539f, -0.021460f, -0.107810f, -0.069269f, 0.095687f, 0.072506f, -0.196179f, 0.031277f, -0.122069f, 0.230047f, 0.001983f, -0.215150f, 0.175751f, 0.175525f, -0.195427f, -0.065215f, -0.168625f, -0.023275f, 0.229284f, -0.188843f, 0.024694f, -0.082634f, 0.212618f, 0.009854f, -0.026365f, 0.012408f, 0.022594f, 0.069448f, -0.025093f, 0.102106f, -0.028227f, 0.124309f, -0.005502f, -0.017936f, -0.026248f, -0.101479f, -0.074388f, -0.022677f, -0.119874f, -0.083872f, 0.281530f, -0.041794f, 0.128840f, -0.076954f, -0.233946f, -0.166570f, 1.070488f, 0.502251f, 1.188497f, 0.169470f, -0.715301f, 0.156375f, 1.787472f, -0.353069f, -3.563274f, -0.104656f, 0.614431f, -0.307564f, 0.102495f, 0.602845f, 1.193626f, -0.015462f, 0.425278f, -0.184561f, -0.011511f, -0.206147f, 0.226859f, -2.973472f, -0.129107f, -0.023271f, 0.003959f, -0.170113f, 0.000809f, -0.699597f, -0.776971f, -0.149718f, 0.837379f, 0.057033f, 0.112534f, -0.144455f, 0.158442f, 1.029413f, -1.493955f, 0.174107f, 0.065396f, -2.744520f, 1.287557f, 0.979452f, 1.318831f, -0.202140f, 1.205804f, 0.097167f, -0.172574f, 1.574665f, 0.009378f, 0.859208f, 1.012731f, -0.922547f, 0.280791f, -0.700578f, -2.154481f, -0.138035f, -0.145210f, 0.485023f, -0.306497f, -4.991921f, -4.113035f, -0.150150f, -0.048038f, -0.080495f, -0.125845f, 0.327979f, -0.200570f, -0.112604f, -0.355496f, 0.110284f, 0.364438f, 0.067751f, -0.716161f, -0.181839f, 0.061582f, -0.047680f, -0.080085f, -0.023239f, -0.075209f, -0.103172f, 0.157321f, -0.312337f, -0.181227f, -0.011706f, -0.206818f, -2.478358f, -0.035793f, -0.118121f, 0.092933f, -0.302179f, 0.154645f, -1.004360f, -1.110705f, 0.063715f, 0.489736f, -0.105901f, 0.123610f, -0.187977f, -0.009804f, 0.197009f, -0.651348f, 0.047676f, -0.148010f, -0.357484f, 0.453812f, 0.079678f, -0.136871f, -0.136850f, 0.553015f, -0.217513f, 0.057687f, 0.167183f, 0.150798f, 0.056887f, 0.043369f, -0.653318f, 0.189429f, -1.120471f, -0.499358f, 0.174435f, -0.186613f, 0.218762f, -0.322068f, -1.055335f, -0.602480f, -0.236295f, -0.175531f, 0.029625f, 0.638882f, 0.257134f, 0.723870f, 0.008360f, -0.357627f, -0.017547f, 1.054054f, 0.304962f, -1.175871f, -0.083408f, 0.329784f, -0.273298f, 0.023471f, 0.116022f, 0.526510f, -0.187488f, 0.295722f, -0.180393f, -0.028167f, 0.029994f, -0.048314f, -2.478591f, -0.185919f, 0.003937f, -0.102006f, -0.175612f, -0.172183f, -1.012485f, -0.924143f, -0.089023f, 0.415003f, -0.085424f, 0.143367f, 0.070874f, 0.037178f, 0.540953f, -0.778057f, -0.120202f, -0.222363f, -0.912493f, 0.935001f, 0.489808f, 0.319821f, -0.070821f, 0.857700f, -0.238835f, -0.188998f, 0.960184f, 0.098596f, 0.672496f, 0.551468f, -0.503680f, 0.303245f, -0.766374f, -0.868844f, -0.180711f, 0.177223f, 0.154131f, -0.016177f, -1.426515f, -1.236961f, -0.229883f, -0.277785f, -0.135759f, -0.088269f, -0.030749f, -0.155899f, -0.152875f, -0.229932f, -0.180321f, 0.257172f, -0.250152f, 0.046030f, -0.100136f, -0.294490f, -0.079588f, 0.045137f, 0.002827f, -0.215559f, 0.133268f, -0.140021f, -0.275584f, 0.011456f, 0.123752f, -0.111555f, -0.489952f, -0.000103f, 0.105090f, 0.019654f, -0.143506f, -0.133186f, -0.824526f, -1.068339f, -0.288879f, 0.133999f, -0.159869f, 0.035317f, 0.114764f, -0.072729f, 0.028397f, -0.139107f, -0.192558f, -0.148317f, 0.062074f, 0.132196f, 0.274158f, -0.565373f, -0.177266f, 0.251740f, 0.114685f, -0.026554f, 0.122880f, -0.015054f, 0.102789f, -0.091402f, -0.437268f, 0.070392f, -0.578939f, 0.227112f, -0.189336f, 0.025494f, 0.024852f, 0.020504f, 0.228250f, -0.011947f, 0.074229f, -0.091585f, 0.069579f, -0.171657f, 0.006388f, -0.108220f, -0.189089f, 0.033470f, 0.003702f, -0.018001f, -0.242672f, 0.239738f, -0.121334f, -0.110508f, -0.108455f, -0.016623f, -0.249605f, 0.037799f, 0.154573f, -0.093534f, -0.176541f, -0.141977f, -0.048975f, 0.099008f, 0.231723f, -0.133779f, -0.205060f, 0.143470f, 0.093767f, 0.041256f, 0.088457f, -0.193495f, 0.110557f, -0.162809f, -0.205804f, 0.065922f, -0.167720f, 0.149049f, -0.164251f, 0.050115f, -0.003928f, 0.071637f, 0.121175f, -0.076856f, 0.021990f, -0.426834f, -0.175592f, -0.204666f, 0.011763f, -0.204266f, 0.082015f, -0.184666f, -0.208416f, -0.064317f, -0.092378f, 0.048258f, 0.226458f, -0.267405f, -0.146225f, -0.011869f, -0.222609f, 0.132773f, 0.056907f, -0.044726f, -0.027613f, -0.165751f, -0.081472f, -0.261084f, -0.329675f, 0.012783f, -0.106870f, -0.052322f, -0.170272f, 0.072392f, 0.195637f, 0.081576f, -0.182255f, -0.101908f, -0.194011f, -0.014089f, -0.133935f, 0.122838f, -0.112157f, -0.091945f, -0.213311f, -0.188945f, 0.071791f, -0.139888f, 0.221089f, 0.001151f, -0.010210f, 0.007364f, 0.063223f, -0.096091f, -0.105105f, 0.047131f, 0.075158f, -0.190197f, -0.199700f, -0.121748f, 0.141257f, 0.153246f, -0.121975f, 0.167731f, -0.083640f, -0.168245f, 0.160240f, 0.104045f, 0.112352f, -0.451901f, -0.112797f, -0.033955f, 0.055110f, -0.085367f, 0.157680f, -0.005142f, 0.184952f, -0.072023f, 0.082402f, -0.066572f, 0.005810f, -0.036430f, 0.042266f, 0.109097f, -0.052053f, 0.104087f, 0.140204f, 0.049512f, 0.145369f, -0.136451f, -0.175199f, 0.115493f, -0.125210f, 0.186132f, -0.061136f, -0.231695f, 0.087380f, 0.197070f, 0.223867f, 0.013574f, -0.409014f, 0.203248f, -0.096415f, -0.080938f, 0.267768f, 0.115957f, 0.138384f, -0.343410f, 0.111119f, -0.111171f, 0.067541f, 0.154065f, -0.103798f, -0.132467f, 0.109457f, 0.037338f, -0.386004f, 0.088478f, -0.111287f, -0.207895f, -0.050810f, 0.016739f, -0.133183f, 0.056342f, -0.148770f, -0.039420f, 0.023907f, -0.404527f, -0.118293f, -0.154882f, -0.132454f, -0.051085f, 0.202106f, 0.117299f, -0.100632f, -0.035820f, -0.201916f, -0.026990f, 0.065113f, 0.015076f, 0.243658f, 0.238980f, -0.469495f, 0.125047f, -0.433627f, 0.051004f, -0.072645f, -0.119823f, -0.089578f, -0.499621f, -0.022002f, -0.002336f, -0.122287f, 0.007220f, -0.017620f, 0.177845f, -0.246250f, 0.164363f, 0.098676f, 0.240343f, 0.122463f, -0.158902f, 0.453837f, 0.210982f, 0.622908f, -0.012008f, -0.196297f, 0.024119f, 0.040569f, 0.142581f, 0.049651f, -0.573161f, 0.138809f, 0.091392f, -0.030102f, 0.077332f, 0.422586f, -0.145157f, 0.074148f, -0.094750f, 0.610293f, 0.149849f, 0.462349f, 0.524428f, 0.082963f, -1.261558f, 0.107122f, 0.070048f, -0.089683f, -0.201225f, -0.023372f, 0.492097f, -0.116923f, 0.057166f, 0.068136f, -0.523409f, -0.141005f, 0.138243f, 0.081972f, -0.743478f, 0.078156f, 0.028827f, -0.314263f, -0.172937f, -0.215687f, 0.218524f, 0.403674f, -0.095483f, 0.286507f, 0.069359f, 0.040139f, -0.054359f, 0.016320f, 0.255136f, -0.130171f, -0.103821f, -0.081766f, 0.081076f, -0.098177f, -0.059666f, -0.087616f, -0.074269f, 0.076561f, 0.180248f, -0.002605f, -0.127117f, -0.142876f, -0.070895f, 0.016465f, -0.157881f, 0.115761f, -0.080612f, 0.066372f, 0.068276f, -0.103799f, -0.022048f, 0.045598f, -0.081924f, 0.022283f, 0.008383f, -0.069849f, 0.007447f, -0.024864f, -0.071740f, 0.035657f, 0.125757f, 0.064306f, -0.181976f, -0.032397f, -0.002898f, -0.030013f, -0.089470f, -0.037751f, -0.107742f, -0.047103f, -0.052607f, -0.114797f, -0.036487f, -0.074194f, -0.069946f, -0.169247f, -0.050627f, -0.133721f, 0.007082f, 0.052511f, 0.076910f, -0.194491f, 0.028904f, -0.244329f, -0.096136f, -0.037049f, -0.316001f, -0.048108f, 0.101103f, -0.163082f, -0.143013f, 0.039160f, 0.103521f, -0.097431f, 0.015422f, -0.021447f, 0.140743f, -0.087408f, -0.184019f, -0.114657f, -0.056650f, 0.164678f, 0.228980f, 0.055060f, -0.208586f, -0.097129f, -0.070065f, 0.156841f, -0.010585f, -0.048198f, 0.131204f, -0.243702f, -0.190758f, -0.066890f, -0.075135f, 0.121021f, 0.167119f, 0.146536f, -0.012561f, -0.183563f, -0.020357f, 0.123162f, -0.125218f, 0.213994f, 0.011451f, 0.032360f, 0.002309f, -0.075233f, 0.150933f, 0.031719f, -0.098535f, -0.126951f, 0.137068f, -0.030251f, 0.204412f, -0.165750f, 0.104998f, -0.020974f, -0.059400f, -0.326886f, 0.044407f, -0.090318f, -0.083971f, -0.034704f, -0.168724f, 0.085524f, -0.111319f, 0.027326f, -0.051339f, 0.243064f, -0.196280f, 0.002533f, -0.214333f, -0.182447f, -0.101047f, 0.045254f, 0.097315f, 0.133586f, 0.136564f, -0.131847f, 0.003708f, 0.057499f, 0.060930f, -0.053393f, -0.109039f, -0.181184f, -0.034297f, 0.140544f, 0.025851f, 0.252078f, 0.151616f, 0.068672f, -0.006796f, -0.032548f, 0.138868f, -0.018424f, -0.118872f, -0.206865f, -0.020475f, 0.176361f, -0.050690f, 0.112299f, 0.093808f, 0.134109f, 0.005281f, -0.188255f, -0.047613f, 0.105233f, 0.176590f, 0.137438f, -0.244536f, -0.153033f, -0.136592f, -0.177691f, -0.060908f, 0.095401f, -0.123937f, -0.173933f, 0.092830f, 0.140846f, -0.197758f, -0.069554f, 0.148431f, -0.171252f, -0.107012f, -0.020137f, 0.119919f, 0.061551f, -0.034776f, -0.118569f, 0.090257f, -0.115667f, 0.014702f, 0.067955f, -0.128780f, 0.132090f, 0.036861f, 0.078247f, -0.084765f, -0.012478f, -0.085477f, -0.083279f, 0.062378f, -0.049374f, 0.088795f, -0.164000f, -0.092576f, -0.119871f, -0.121283f, -0.039227f, 0.326763f, -0.151862f, 0.060652f, -0.134223f, 0.139688f, -0.088325f, 0.062332f, 0.067307f, -0.035687f, -0.053631f, 0.116453f, 0.022901f, 0.055775f, -0.079091f, -0.043020f, 0.007065f, 0.010940f, 0.192134f, -0.084470f, 0.089754f, -0.072739f, 0.232223f, -0.039159f, -0.008882f, 0.234338f, -0.193121f, 0.106599f, 0.064402f, -0.065018f, 0.106915f, -0.139371f, 0.010227f, 0.199408f, 0.021893f, -0.168529f, 0.058710f, 0.173907f, -0.098977f, 0.183537f, 0.016516f, 0.097995f, 0.143407f, -0.147729f, -0.209497f, -0.025950f, -0.216079f, -0.019847f, 0.263273f, 0.082574f, 0.158222f, 0.008265f, 0.064814f, -0.025631f, -0.110659f, 0.289632f, 0.179731f, 0.028229f };
static const float emlearnModel_layer_1_biases[32] = { 0.252394f, -0.252328f, -0.006061f, -0.038600f, 0.122256f, -0.225194f, 0.177668f, 0.023913f, -0.317975f, 0.051262f, -0.133576f, -0.184630f, 0.375742f, -0.031995f, -0.103724f, 0.307798f, 0.126915f, 0.078910f, -0.100111f, -0.257860f, -0.242736f, -0.214984f, 0.374868f, 0.165368f, 0.089530f, -0.193115f, -0.218306f, 0.026234f, 0.163864f, 0.134198f, -0.239999f, 0.012222f };
static const float emlearnModel_layer_1_weights[2048] = { 0.160196f, 0.021831f, 0.093702f, -0.228971f, 0.012103f, -0.003728f, -0.041851f, -0.001414f, 0.038139f, 0.170509f, 0.040419f, -0.050934f, 0.289670f, -0.156063f, 0.033954f, -0.220395f, 0.162527f, -0.268381f, 0.103015f, -0.088146f, -0.157222f, 0.112063f, 0.084832f, -0.039911f, 0.174447f, -0.140425f, 0.191790f, -0.164088f, 0.000902f, -0.057662f, 0.141041f, -0.231951f, -0.235005f, -0.072080f, -0.039659f, 0.197492f, -0.110943f, -0.083903f, -0.279807f, -0.269259f, 0.171324f, 0.075107f, 0.137411f, -0.207443f, -0.015168f, 0.187883f, 0.000595f, 0.062546f, -0.242905f, 0.163753f, -0.089039f, -0.026906f, 0.002370f, 0.067305f, -0.167010f, -0.037828f, 0.228767f, 0.159206f, 0.068379f, -0.144727f, 0.132958f, -0.219791f, 0.028636f, -0.087584f, 0.103556f, 0.105697f, -0.048106f, 0.180720f, -0.059117f, -0.036227f, -0.181906f, -0.138288f, 0.077428f, 0.157988f, 0.045364f, -0.293135f, -0.051638f, -0.290068f, -0.197600f, 0.124419f, -0.016240f, -0.118738f, -0.098723f, -0.026627f, 0.007926f, -0.071718f, -0.098809f, 0.042029f, 0.200635f, -0.057563f, 0.109109f, -0.110782f, 0.032329f, 0.062979f, 0.064044f, -0.158957f, -0.025570f, -0.325814f, 0.088746f, -0.140695f, -0.065339f, 0.060037f, -0.056769f, 0.064538f, 0.211079f, -0.010775f, -0.031767f, -0.087979f, 0.046082f, 0.024647f, -0.083538f, -0.222712f, -0.096426f, 0.072029f, 0.099315f, 0.129477f, -0.084363f, -0.039957f, 0.004129f, 0.126079f, 0.023041f, -0.038000f, -0.296331f, -0.118119f, 0.161869f, 0.006623f, -0.060340f, -0.233383f, 0.132381f, -0.202467f, -0.016314f, -0.002366f, -0.130695f, 0.054185f, 0.036938f, -0.032532f, 0.043015f, -0.024532f, 0.078920f, -0.046851f, -0.040569f, -0.074572f, -0.015037f, -0.399016f, -0.156569f, -0.056734f, -0.034179f, 0.068772f, -0.252273f, -0.201223f, -0.105117f, 0.106558f, 0.091377f, -0.025979f, -0.053578f, -0.012774f, -0.034255f, 0.002410f, -0.013912f, -0.113282f, 0.015339f, -0.309669f, -0.109429f, -0.483787f, -0.278353f, -0.028139f, 0.069903f, 0.066060f, 0.242039f, -0.008942f, -0.029525f, -0.050329f, 0.048149f, -0.109318f, 0.074104f, -0.146705f, 0.201454f, 0.101218f, -0.222995f, 0.037773f, 0.016242f, -0.272712f, 0.072507f, 0.011550f, 0.111326f, -0.042228f, -0.185962f, 0.125420f, 0.145926f, 0.042995f, -0.253358f, -0.146113f, -0.185165f, 0.184740f, -0.137407f, 0.138105f, -0.167398f, -0.220397f, 0.232691f, -0.183276f, 0.186868f, -0.180489f, 0.116499f, 0.183110f, -0.118172f, 0.192088f, -0.150004f, -0.021202f, -0.177242f, 0.117515f, 0.143487f, 0.046391f, -0.112985f, 0.146601f, -0.132280f, 0.236854f, -0.187153f, 0.155525f, 0.233146f, -0.087180f, -0.081818f, -0.083193f, -0.037584f, 0.099736f, 0.024643f, -0.032615f, -0.245090f, -0.175623f, -0.303959f, -0.035395f, -0.428480f, -0.196376f, -0.124947f, -0.021595f, -0.189705f, -0.012346f, -0.093067f, -0.070443f, 0.074698f, 0.022363f, -0.053894f, -0.048741f, -0.139341f, -0.025264f, -0.252328f, 0.393152f, -0.209078f, -0.090325f, -0.444916f, 0.074824f, -0.121740f, -0.014639f, -0.101700f, -0.012690f, -0.291643f, 0.070354f, 0.069814f, 0.042882f, -0.107228f, 0.039474f, 0.105975f, 0.221875f, 0.049517f, -0.176345f, -0.120346f, -0.207668f, -0.121417f, 0.063387f, 0.236815f, 0.178697f, -0.103234f, 0.217563f, -0.076736f, -0.055174f, 0.073526f, -0.068387f, -0.211287f, 0.108999f, -0.139243f, -0.166295f, 0.153606f, -0.043462f, -0.130567f, 0.050468f, -0.045076f, -0.236989f, 0.076946f, -0.102158f, -0.378514f, -0.047836f, -0.053886f, 0.110392f, -0.585326f, -0.105027f, 0.146497f, -0.437851f, -0.108386f, -0.024247f, 0.097349f, 0.254558f, -0.099640f, -0.528208f, -0.383396f, -0.039900f, -0.402431f, 0.301179f, -0.089734f, 0.065971f, -0.131253f, -0.563668f, -0.910714f, -1.116448f, -0.612762f, -0.129061f, -0.049371f, -1.424902f, 0.332392f, 0.274784f, -0.150372f, 0.073499f, -0.006672f, 0.091877f, -0.227869f, -0.115739f, -0.115631f, 0.298266f, 0.035963f, -0.321833f, 0.112660f, -0.010169f, -0.031679f, -0.095310f, 0.007525f, -0.020598f, 0.060525f, -0.100111f, -0.014487f, -0.096506f, -0.010193f, -0.244890f, -0.195344f, 0.132032f, -0.089534f, 0.054768f, -0.424474f, -0.044312f, -0.179505f, -0.293548f, 0.008602f, -0.120197f, -0.233572f, -0.776928f, -0.206740f, -0.086588f, 0.013426f, -0.135962f, -0.004880f, -0.249177f, -0.056142f, -0.360748f, 0.043124f, -0.001569f, -0.654880f, 0.020301f, 0.025367f, -0.064461f, 0.029580f, 0.011909f, -0.137866f, -0.158349f, -0.299947f, -0.085250f, -0.019913f, -0.117595f, -0.495880f, -0.019310f, -0.357884f, 0.222854f, -0.106935f, -0.488563f, -0.081791f, -0.725472f, -0.018739f, -0.160271f, -0.139604f, -0.142241f, -0.262796f, -0.236965f, -0.272219f, -0.042195f, -0.403940f, -0.112042f, 0.125010f, -0.031633f, 0.075860f, 0.041816f, -0.093710f, -0.024943f, 0.208766f, 0.291826f, -0.345028f, -0.051503f, 0.052334f, -0.108142f, -0.022118f, 0.025329f, -0.110081f, -0.257308f, -0.390356f, 0.073203f, 0.018194f, -0.030112f, -0.218170f, 0.006328f, -0.016168f, 0.193626f, 0.156046f, -0.022748f, -0.213669f, 0.162061f, -0.064622f, 0.082718f, -0.157956f, -0.299237f, 0.091762f, 0.023667f, -0.200039f, -0.051995f, 0.075488f, -0.025777f, 0.071614f, -0.083194f, -0.152241f, 0.013692f, -0.130443f, -0.009985f, 0.148245f, 0.108024f, -0.009346f, -0.115690f, -0.163318f, -0.030545f, 0.178947f, -0.147773f, 0.117851f, 0.032407f, -0.256819f, -0.189847f, -0.164719f, 0.038415f, 0.054526f, 0.133280f, 0.128133f, 0.233294f, -0.000733f, 0.122604f, 0.223672f, 0.173568f, -0.217457f, -0.017112f, 0.161397f, 0.145553f, -0.192712f, -0.111156f, -0.221520f, 0.167906f, 0.193229f, 0.050293f, 0.084598f, -0.052491f, -0.204413f, -0.093894f, -0.184464f, 0.198240f, 0.109855f, 0.138753f, -0.259700f, -0.223362f, -0.087654f, -0.238848f, -0.124196f, -0.130452f, 0.030678f, -0.119998f, 0.210698f, -0.105802f, 0.117214f, -0.216374f, 0.110547f, -0.002107f, 0.230933f, -0.161939f, 0.144678f, 0.081753f, -0.158896f, -0.241831f, -0.160658f, 0.077605f, -0.017389f, -0.085864f, -0.031342f, -0.116596f, 0.036892f, 0.147546f, 0.107309f, 0.195196f, 0.022566f, -0.211357f, -0.173019f, 0.142807f, -0.238200f, 0.067402f, 0.089571f, -0.101179f, -0.130881f, -0.153910f, 0.168671f, -0.067662f, -0.061810f, 0.072688f, -0.064048f, 0.012816f, 0.015311f, 0.001634f, 0.101060f, -0.039713f, 0.105146f, -0.255458f, 0.038231f, -0.008503f, 0.139126f, 0.148319f, -0.160928f, -0.053177f, -0.053739f, -0.058006f, -0.045087f, 0.063474f, -0.263240f, 0.020546f, 0.134390f, 0.034520f, -0.041344f, -0.227603f, -0.088604f, 0.019697f, -0.053077f, 0.366317f, 0.043036f, 0.198917f, 0.027724f, -0.056591f, 0.231268f, -0.006450f, -0.048275f, -0.072026f, 0.031742f, -0.001890f, 0.053712f, -0.140237f, -0.091127f, 0.095363f, -0.180900f, 0.082696f, -0.164747f, 0.136179f, -0.007631f, 0.088454f, 0.011183f, -0.186503f, 0.102124f, -0.068996f, 0.165823f, 0.003033f, -0.182586f, -0.112730f, 0.068613f, -0.143482f, -0.013739f, -0.039110f, -0.117524f, 0.134463f, -0.204048f, -0.102620f, -0.094896f, 0.078011f, 0.019397f, -0.075012f, 0.156664f, 0.131987f, 0.088130f, -0.060893f, -0.065175f, 0.243528f, 0.144768f, 0.007436f, 0.060859f, -0.096873f, 0.110335f, -0.080962f, -0.110345f, -0.036938f, 0.169821f, 0.182815f, -0.230932f, -0.041714f, -0.132700f, 0.158976f, -0.103798f, -0.301149f, -0.100866f, -0.231135f, -0.004271f, -0.025569f, -1.105479f, -0.060271f, -0.056564f, -0.150819f, -0.060581f, -0.073626f, -0.210047f, -0.047422f, 0.063685f, 0.215438f, 0.076135f, -0.024783f, -0.194221f, 0.137932f, -0.200692f, -0.050449f, 0.048541f, -0.360275f, 0.065583f, -0.066095f, -0.147366f, 0.305212f, -0.035474f, 0.043182f, -0.021998f, 0.122268f, 0.234277f, -0.013048f, 0.088413f, -0.168121f, 0.171099f, 0.173499f, -0.110889f, 0.052144f, 0.051911f, -0.017577f, -0.145381f, -0.001713f, -0.132028f, 0.055634f, 0.029106f, 0.041307f, -0.103740f, 0.147966f, -0.028658f, -0.031632f, 0.200774f, -0.176666f, 0.025087f, -0.056476f, 0.212915f, -0.063598f, 0.102671f, -0.047444f, -0.077876f, 0.106005f, -0.020368f, -0.016906f, -0.068625f, 0.150606f, 0.202868f, -0.046763f, -0.031395f, 0.103021f, -0.129607f, -0.039073f, 0.011572f, -0.005894f, -0.202956f, -0.109030f, -0.012240f, 0.191782f, -0.091697f, 0.187104f, 0.079924f, -0.173041f, -0.095285f, -0.144594f, 0.194732f, 0.050236f, -0.043169f, -0.110539f, -0.000614f, -0.010901f, 0.178555f, -0.009593f, 0.052113f, 0.073816f, 0.070475f, -0.189570f, -0.194502f, -0.232556f, 0.048951f, -0.022834f, 0.089663f, -0.162011f, 0.150803f, -0.059518f, 0.195366f, -0.150935f, -0.209006f, 0.067785f, 0.027879f, -0.048780f, 0.202152f, 0.245033f, 0.037135f, 0.184676f, -0.037852f, 0.131338f, -0.090837f, -0.242874f, -0.077501f, -0.169282f, -0.131519f, -0.196338f, 0.275911f, 0.113322f, -0.196341f, 0.045873f, 0.188279f, -0.229505f, -0.104196f, 0.014394f, -0.229528f, 0.026698f, -0.246217f, 0.057015f, -0.214983f, -0.128754f, 0.165931f, -0.045408f, 0.113830f, -0.113504f, 0.072699f, -0.261122f, 0.126515f, -0.003333f, -0.071713f, 0.225969f, -0.031203f, -0.210832f, 0.041109f, 0.137295f, 0.099371f, 0.158766f, -0.143604f, 0.209388f, -0.093625f, 0.157620f, 0.101409f, 0.199405f, -0.028588f, 0.254907f, -0.413651f, 0.000099f, 0.018393f, -0.121221f, -0.008141f, -0.355729f, -0.048768f, 0.089767f, 0.171351f, 0.021010f, -0.022198f, -0.356241f, 0.070820f, 0.090431f, 0.077976f, 0.075683f, -0.291810f, -0.698069f, 0.066036f, -0.012802f, -0.006477f, 0.121356f, -0.140602f, -0.107319f, -0.069090f, -0.022439f, 0.095466f, -0.045066f, -0.383798f, -0.184741f, 0.150246f, -0.502101f, 0.211079f, 0.034133f, 0.088405f, 0.024298f, -0.216418f, 0.002593f, -0.085536f, 0.209998f, -0.031024f, -0.156514f, 0.153335f, -0.156341f, 0.014585f, 0.102127f, -0.179006f, -0.045746f, 0.106956f, -0.074807f, -0.078775f, 0.085684f, -0.165529f, -0.202328f, 0.147135f, -0.026579f, 0.174161f, 0.207687f, 0.162521f, 0.029661f, 0.110985f, -0.114103f, 0.112986f, 0.153606f, 0.072144f, 0.109040f, -0.013018f, 0.085574f, 0.020737f, 0.241137f, -0.177543f, -0.108788f, -0.097154f, 0.210219f, -0.017530f, -0.211336f, -0.056019f, -0.224379f, 0.049030f, 0.161558f, -0.066590f, -0.100352f, -0.208296f, 0.201818f, 0.159859f, -0.032254f, -0.132125f, 0.014140f, -0.139613f, -0.048590f, 0.030813f, -0.145060f, -0.136638f, -0.191124f, 0.232112f, -0.036327f, -0.091818f, -0.088245f, -0.128291f, -0.230594f, 0.117120f, 0.169762f, 0.031161f, -0.020553f, -0.119763f, 0.105227f, 0.045701f, -0.062221f, -0.206580f, 0.165117f, 0.043386f, -0.260150f, -0.195644f, -0.101822f, 0.241399f, 0.183452f, -0.230230f, -0.170436f, 0.200228f, -0.109131f, 0.267546f, -0.135268f, -0.240623f, 0.124833f, -0.016700f, 0.004972f, -0.234377f, -0.218215f, -0.036848f, -0.135844f, -0.052555f, -0.066078f, -0.023551f, 0.421934f, -0.236478f, -0.076661f, 0.190416f, 0.000178f, -0.013683f, 0.039822f, -0.162993f, -0.018917f, 0.386142f, -1.031985f, -0.084869f, -0.130391f, -0.401299f, 0.149366f, -0.014465f, 0.000389f, -0.021617f, -0.169926f, -0.158607f, 0.401070f, -0.076463f, -0.023762f, -0.178136f, 0.016570f, -0.282893f, 0.307208f, -0.104287f, -0.128726f, 0.104392f, 0.050471f, -0.180964f, 0.169415f, 0.146403f, 0.136116f, -0.041593f, -0.056678f, 0.080796f, -0.132394f, -0.175498f, -0.080215f, -0.070266f, 0.022498f, -0.065398f, 0.168633f, -0.143091f, -0.017984f, -0.084875f, -0.078340f, 0.035321f, 0.224000f, -0.003112f, 0.016510f, 0.000601f, 0.178909f, -0.062251f, -0.246576f, -0.123670f, 0.107142f, -0.274016f, -0.128481f, -0.088846f, -0.102899f, -0.031729f, 0.015175f, -0.156343f, -0.063146f, 0.204690f, 0.062370f, -0.187507f, -0.564503f, 0.157443f, -0.188142f, 0.366252f, 0.242250f, -0.076584f, -0.708137f, 0.082540f, 0.280663f, -0.125614f, 0.060287f, -0.059310f, -0.022341f, -0.058054f, -0.091425f, -0.048662f, -0.201392f, -0.733210f, -0.321501f, 0.070778f, -0.056084f, -0.305438f, -0.056067f, -0.169225f, -0.046802f, -0.209527f, 0.040971f, 0.218252f, 0.018074f, 0.211270f, 0.027139f, 0.017445f, 0.022195f, 0.154586f, -0.079795f, 0.177321f, -0.113989f, 0.150422f, -0.030921f, 0.127455f, 0.172400f, -0.087832f, 0.240315f, -0.061166f, 0.102803f, -0.204919f, -0.091482f, -0.073005f, -0.045375f, 0.038921f, -0.070864f, -0.246994f, -0.713611f, -0.086188f, -0.018359f, -0.153317f, 0.048869f, -0.217007f, 0.134947f, 0.157373f, -0.228002f, 0.113004f, -0.049046f, 0.026429f, 0.013234f, -0.130704f, 0.025761f, -0.048135f, 0.134934f, -0.227982f, 0.138697f, 0.020030f, -0.059549f, 0.154739f, -0.055868f, 0.056276f, -0.164395f, -0.236804f, 0.169029f, 0.021940f, 0.102934f, -0.072093f, -0.059023f, -0.193230f, -0.063734f, -0.036774f, -0.022652f, 0.047498f, -0.104314f, -0.298484f, 0.040135f, -0.521454f, 0.076582f, -0.143461f, -0.226808f, -0.168885f, -0.182127f, -0.245044f, 0.076938f, -0.052188f, 0.040221f, -0.079098f, -0.018383f, -0.292318f, -0.048712f, 0.001964f, -0.229833f, 0.109163f, -0.264461f, -0.170798f, -0.009158f, -0.046743f, -0.224005f, -0.003193f, 0.002590f, 0.009870f, 0.121569f, -0.129046f, 0.136062f, 0.075084f, 0.197759f, -0.014015f, -0.212136f, 0.003306f, -0.113533f, 0.031718f, 0.144411f, -0.229425f, -0.088932f, -0.204359f, -0.192006f, -0.053722f, -0.024097f, 0.195388f, 0.075527f, 0.029518f, -0.167997f, 0.082254f, 0.029287f, -0.033442f, 0.161307f, -0.047927f, 0.086402f, 0.047414f, 0.163951f, -0.072662f, 0.159610f, 0.204490f, -0.050114f, 0.116620f, 0.170921f, -0.017198f, -0.131057f, -0.211571f, -0.166186f, 0.187612f, -0.125648f, 0.227790f, -0.146815f, -0.047235f, 0.244013f, -0.207993f, -0.239071f, -0.160806f, -0.213091f, 0.084270f, -0.002983f, 0.187828f, -0.084619f, 0.158778f, 0.008336f, 0.240937f, 0.009566f, -0.110120f, -0.049216f, -0.146988f, 0.229833f, -0.196616f, -0.040477f, 0.203522f, -0.025520f, -0.190271f, -0.050311f, 0.133540f, -0.075143f, 0.019886f, 0.228349f, -0.164393f, -0.054955f, -0.195307f, -0.213004f, -0.015841f, -0.073871f, 0.110980f, -0.216509f, 0.067955f, -0.147268f, -0.112402f, 0.160705f, 0.152687f, -0.129784f, -0.100999f, -0.204926f, 0.166516f, 0.063519f, 0.202829f, -0.085111f, -0.162948f, 0.003263f, 0.190366f, 0.215402f, 0.113697f, 0.039063f, 0.182427f, 0.007598f, -0.234970f, -0.203047f, 0.028871f, -0.062204f, -0.161795f, -0.023641f, -0.239215f, 0.236734f, 0.276297f, -0.010009f, 0.154846f, 0.093479f, -0.156395f, 0.220388f, 0.083071f, 0.034717f, 0.166540f, 0.188392f, -0.189668f, 0.122521f, 0.101101f, -0.235280f, -0.126840f, 0.012831f, 0.053660f, 0.004114f, -0.218943f, -0.201989f, 0.205587f, 0.174326f, -0.034884f, 0.041936f, -0.217343f, 0.129245f, -0.234754f, -0.111817f, -0.142680f, 0.230165f, 0.213154f, -0.015145f, -0.137908f, -0.149156f, -0.067340f, 0.049336f, -0.177518f, -0.348609f, -0.017472f, 0.043540f, -0.326458f, -0.016937f, -0.041364f, 0.002924f, 0.161781f, 0.064386f, 0.088594f, 0.075415f, -0.102655f, -0.427187f, 0.040315f, 0.019548f, 0.048611f, -0.077164f, -0.125204f, 0.053257f, -0.010030f, -0.054782f, -0.159435f, -0.213701f, 0.028757f, -0.143746f, 0.050812f, -0.017462f, 0.013636f, -0.056323f, -0.058225f, 0.065543f, 0.190921f, -0.010362f, -0.211556f, 0.058539f, -0.151385f, 0.058760f, -0.071145f, -0.101522f, -0.707137f, -0.144927f, -0.454773f, -0.076512f, -0.036208f, -0.266756f, -0.087186f, -0.123406f, -0.032797f, -0.014503f, -0.112689f, -0.075478f, -0.032687f, 0.164154f, 0.158814f, 0.125158f, 0.086849f, 0.151152f, -0.217302f, -0.056271f, -0.137039f, -0.052428f, -0.134542f, -0.254737f, 0.094695f, -0.013550f, -0.164655f, -0.013633f, 0.138109f, -0.254510f, 0.012449f, 0.092161f, 0.067620f, 0.184204f, -0.085678f, -0.027365f, 0.188975f, -0.146335f, -0.009922f, -0.142224f, 0.199173f, -0.168693f, 0.189205f, 0.077731f, 0.024577f, 0.121372f, -0.009641f, 0.175483f, -0.061997f, 0.231461f, -0.093302f, 0.176274f, -0.023465f, -0.088964f, -0.067874f, 0.056491f, 0.041758f, -0.082526f, -0.250893f, -0.094210f, 0.104239f, 0.177904f, 0.191337f, -0.142312f, 0.189910f, -0.134892f, -0.048539f, 0.040035f, -0.111435f, -0.199148f, 0.024180f, 0.004338f, 0.123059f, 0.215786f, -0.020751f, -0.236999f, -0.055194f, -0.346607f, -0.582889f, -0.149258f, -0.117903f, -0.259602f, -0.016543f, 0.003637f, -0.362421f, 0.021515f, 0.017054f, -0.154341f, 0.018719f, 0.013272f, -0.043945f, -0.126717f, -0.264289f, 0.034247f, -0.013873f, -0.176739f, -0.190751f, 0.013769f, -0.552799f, 0.109359f, -0.056871f, -0.537066f, -0.024123f, -0.130351f, -0.214828f, -0.243232f, -0.116922f, -0.120052f, 0.178814f, 0.049941f, 0.034408f, -0.036384f, -0.334452f, 0.039977f, -0.396793f, -0.063673f, -0.287559f, -0.292981f, -0.190291f, -0.049304f, -0.070514f, -0.117276f, 0.203165f, 0.080303f, 0.030010f, 0.119372f, -0.149836f, -0.384346f, -0.014214f, -0.246169f, -0.187794f, 0.129560f, -0.213940f, 0.069688f, -0.019387f, 0.029089f, -0.272913f, 0.167788f, 0.163053f, -0.104801f, -0.241685f, -0.023747f, 0.135918f, -0.228317f, -0.141120f, -0.621860f, 0.139205f, -0.015089f, -0.135555f, -0.156820f, -0.033502f, 0.163708f, -0.576556f, -0.167146f, -0.409953f, 0.036326f, -0.028571f, -0.141522f, -0.026739f, -0.041013f, 0.277165f, -0.054102f, -0.214869f, 0.107497f, -0.092739f, 0.190112f, 0.064863f, 0.053591f, -0.078763f, -0.081172f, 0.232755f, -0.130711f, -0.221573f, -0.226573f, -0.157629f, 0.056027f, 0.295496f, -0.344724f, 0.107867f, 0.003972f, 0.096632f, 0.168449f, 0.027880f, 0.022234f, 0.053708f, -0.261152f, -0.215054f, 0.102939f, -0.182526f, 0.066633f, -0.164173f, 0.041387f, 0.046522f, 0.107554f, -0.315252f, -0.353291f, -0.046618f, -0.033525f, 0.162870f, -0.017584f, -0.068817f, -0.333729f, 0.098424f, -0.000655f, -0.008081f, -0.099929f, 0.071164f, 0.153588f, -0.133318f, 0.063675f, -0.044919f, -0.179340f, -0.034397f, -0.197656f, -0.001822f, -0.064950f, 0.065547f, -0.143926f, 0.148447f, -0.100698f, -0.256520f, -0.255617f, -0.172484f, 0.083326f, -0.182526f, -0.128879f, -0.091396f, -0.160149f, 0.144824f, -0.261242f, -0.073551f, -0.234977f, 0.130206f, 0.138791f, 0.335446f, -0.223967f, -0.359474f, -0.039266f, 0.006533f, 0.061611f, -0.176219f, 0.057652f, -0.272637f, -0.049523f, -0.382556f, -0.100488f, -0.168828f, -0.048521f, -0.148052f, -0.133480f, -0.230101f, 0.067952f, -0.053669f, -0.423061f, -0.007821f, -0.411416f, 0.012046f, -0.019408f, 0.182257f, 0.090912f, 0.105485f, -0.126040f, 0.023290f, -0.074943f, -0.079005f, 0.095859f, -0.171240f, -0.008001f, 0.032405f, 0.203456f, 0.127894f, 0.021627f, -0.086983f, -0.148678f, 0.211118f, 0.077519f, 0.183201f, -0.098202f, 0.101789f, 0.027154f, -0.140407f, 0.022107f, 0.101997f, -0.068969f, -0.039101f, -0.063112f, 0.041968f, -0.129872f, -0.061706f, -0.069907f, 0.137477f, 0.064312f, -0.072590f, -0.214248f, -0.029329f, -0.121133f, 0.007632f, -0.171924f, 0.135804f, 0.071181f, 0.126179f, -0.002600f, 0.129276f, 0.122294f, -0.194495f, 0.013945f, -0.151590f, 0.107760f, -0.185821f, 0.191677f, -0.214887f, -0.155490f, 0.151515f, -0.049422f, -0.226934f, 0.177131f, -0.009839f, -0.191452f, -0.041984f, 0.117021f, -0.018130f, 0.206859f, -0.126172f, -0.224728f, -0.127444f, 0.053079f, 0.115074f, 0.238923f, -0.004053f, -0.013077f, 0.044051f, 0.028046f, -0.320246f, -0.085041f, -0.334573f, 0.014334f, -0.061109f, -0.333108f, -0.128816f, -0.010303f, 0.341809f, -0.182720f, -0.078915f, 0.437013f, -0.439547f, -0.013681f, 0.220132f, 0.120699f, -0.048171f, 0.034074f, -0.276956f, -0.964866f, -1.661168f, 0.060974f, -0.671031f, -0.070851f, -0.091350f, -0.059790f, 0.103578f, -1.025554f, -0.159228f, 0.135100f, 0.130172f, 0.169646f, -0.105980f, -0.198034f, -0.038330f, -0.170950f, 0.189873f, -0.138393f, -0.103528f, -0.027589f, -0.102448f, 0.169204f, 0.037142f, -0.119689f, 0.129708f, -0.197042f, -0.150555f, -0.226883f, -0.110837f, -0.114104f, -0.279399f, -0.085738f, -0.136081f, 0.027680f, 0.004828f, -0.021351f, 0.168043f, -0.073124f, -0.023893f, 0.001330f, -0.236812f, -0.238841f, -0.111782f, -0.213256f, 0.267000f, -0.043214f, 0.186237f, -0.377200f, -0.120771f, 0.206185f, 0.188311f, -0.056327f, -0.263790f, -0.076460f, -0.137912f, -0.206125f, -0.797963f, -0.157470f, 0.275584f, 0.077539f, 0.059306f, -0.060875f, 0.089580f, -0.490023f, 0.114692f, 0.002801f, -0.125887f, 0.144501f, -0.210703f, 0.247054f, 0.066034f, -0.086646f, -0.049143f, -0.000415f, 0.076172f, -0.204870f, -0.106177f, -0.031156f, 0.102229f, 0.216458f, 0.128358f, -0.202936f, 0.183608f, 0.001289f, 0.035375f, -0.036713f, 0.019806f, -0.022384f, 0.057942f, -0.160547f, 0.028989f, 0.052548f, 0.009746f, 0.030052f, -0.130674f, 0.044469f, -0.086567f, 0.133592f, -0.199887f, -0.082462f, -0.162497f, -0.226241f, 0.100340f, 0.049479f, -0.065937f, -0.167156f, -0.632054f, -0.154137f, -0.118617f, -0.302513f, -0.267093f, 0.007134f, -0.286585f, -0.019511f, 0.065786f, 0.007182f, 0.004405f, -0.238572f, -0.075725f, -0.019865f, 0.384719f, 0.185581f, -0.569296f, -0.252878f, -0.207698f, 0.197871f, -0.249683f, -0.035011f, -0.518010f, -0.207648f, -0.357844f, -0.526267f, -0.060103f, -0.079546f, -0.559778f, -0.113095f, -0.196614f, 0.114917f, 0.108773f, 0.047523f, 0.013121f, -0.077531f, -0.149820f, -0.244396f, -0.033569f, -0.224507f, -0.012633f, 0.009873f, -0.009944f, -0.060631f, -0.030266f, 0.025351f, 0.026650f, -0.100396f, 0.081719f, 0.056418f, -0.010823f, -0.265777f, 0.089976f, -0.244697f, 0.135486f, -0.087481f, -0.048289f, 0.036815f, -0.150123f, -0.087849f, 0.051889f, 0.097386f, -0.099701f, -0.108137f, -0.501819f, -0.137262f, -0.241671f, 0.096621f, -0.295975f, -0.032630f, -0.172097f, 0.011188f, -0.017178f, 0.008236f, 0.080171f, -0.362546f, 0.010343f, -0.402171f, 0.152469f, 0.149261f, -0.236311f, -0.326861f, -0.108748f, 0.180425f, 0.055339f, -0.018263f, -0.311057f, -0.210140f, 0.052653f, 0.240469f, 0.025962f, -0.189900f, -0.368431f, -0.231142f, 0.064008f, -0.095524f, -0.173961f, -0.160148f, -0.375644f, -0.364520f, -0.285010f, -0.177898f, -0.353230f, -0.147926f, -0.308413f, -0.028520f, -1.015109f, -0.422333f, 0.087586f, -0.133383f, 0.149480f, 0.096961f, -0.085607f, -0.651481f, -0.424522f, 0.267458f, -0.272639f, -0.218415f, -0.278244f, -0.229876f, -0.201377f, 0.359244f, -0.243846f, -0.171517f, -0.500032f, -0.223141f, -0.271053f, -0.548302f, -0.007776f, 0.016571f, -0.129323f, -0.050042f, -0.259920f, -0.108590f, -0.066413f, 0.224447f, -0.152064f, 0.140237f, 0.127569f, -0.123033f, 0.224207f, 0.208925f, -0.047461f, -0.184202f, 0.243954f, -0.009296f, -0.008514f, 0.045415f, 0.032084f, 0.141472f, 0.082198f, -0.104345f, -0.079012f, -0.027116f, 0.194003f, 0.021788f, 0.236836f, -0.179628f, -0.094356f, -0.131572f, -0.129296f, -0.041327f, -0.003935f, 0.140123f, 0.007029f, 0.016943f, -0.182083f, -0.249445f, 0.054730f, 0.105824f, -0.042188f, 0.103787f, -0.014244f, 0.154664f, 0.170218f, 0.075603f, 0.215436f, 0.207439f, 0.102238f, -0.230530f, -0.197247f, 0.205514f, -0.066511f, -0.053908f, -0.152074f, -0.232621f, -0.024970f, 0.171395f, 0.141972f, -0.049955f, 0.181690f, 0.195128f, 0.213519f, -0.241830f, 0.119659f, 0.042563f, 0.046829f, 0.060107f, -0.024649f, 0.060724f, 0.044464f, 0.016638f, -0.179228f, -0.073514f, 0.023098f, -0.142084f, 0.128797f, -0.116999f, -0.258043f, 0.094275f, -0.045185f, 0.046941f, -0.107422f, -0.175482f, -0.077541f, 0.126170f, -0.049977f, 0.139065f, -0.128188f, -0.113406f, 0.080763f, -0.204437f, 0.203893f, -0.093450f, -0.066748f, -0.014542f, -0.076592f, -0.148363f, -0.076739f, -0.047950f, -0.818891f, -0.043400f, 0.127884f, -0.034317f, -0.001756f, -0.053766f, -0.147265f, -0.017325f, 0.219218f, 0.085657f, -0.054737f, -0.005080f, -0.361635f, -0.038513f, -0.169245f, -0.020699f, -0.087503f, -0.504435f, -0.339116f, -0.301502f, -0.029483f, -0.027460f, -0.126577f, -0.005711f, -0.197815f, 0.138186f, -0.381186f, -0.005341f, -0.139376f, -0.255408f, -0.226928f, -0.198621f, -0.251646f, -0.213487f, -0.176923f, 0.010296f, -0.651869f, -0.083622f, 0.055526f, -0.349678f, 0.059643f, 0.121063f, -0.366823f, -0.594473f, -0.203751f, 0.070971f, 0.041186f, -0.070676f, -0.723657f, -0.065819f, -0.590391f, 0.259617f, -0.108805f, -0.555893f, -0.256074f, -0.908382f, -0.003658f, -0.223517f, -0.137278f, -0.026920f, -0.075696f, -0.239900f, -0.374071f, -0.112672f, -0.151876f, -0.378337f, -0.382680f, 0.005436f, -0.529586f, 0.011419f, 0.064289f, -0.182819f, 0.069402f, 0.077986f, -0.083640f, -0.397087f, -0.213983f, -0.216973f, 0.080176f, -0.131525f, -0.333121f, -0.042670f, -0.579062f, 0.197180f, -0.050640f, -0.679943f, -0.194772f, -0.734164f, 0.167248f, -0.617012f };
static const float emlearnModel_layer_2_biases[8] = { 0.205708f, 0.199616f, 0.196142f, 0.193187f, 0.195879f, 0.181282f, 0.181943f, 0.167885f };
static const float emlearnModel_layer_2_weights[256] = { 0.029911f, 0.071064f, 0.099635f, 0.107478f, 0.095315f, 0.095975f, 0.081276f, 0.071940f, 0.297499f, -0.094091f, -0.312934f, 0.201728f, 0.205325f, -0.221553f, -0.322317f, 0.200717f, 0.185390f, 0.186716f, 0.155811f, 0.129353f, 0.102828f, 0.073844f, 0.078999f, 0.078935f, -0.000218f, 0.009099f, 0.011665f, 0.027068f, 0.039603f, 0.058447f, 0.066670f, 0.087253f, 0.196593f, 0.201882f, 0.187786f, 0.192302f, 0.189809f, 0.174424f, 0.164051f, 0.142774f, 0.032665f, -0.013577f, -0.048592f, -0.101102f, -0.121856f, -0.140787f, -0.128704f, -0.099026f, -0.175062f, -0.108636f, -0.065315f, -0.053734f, -0.002032f, 0.024354f, 0.075277f, 0.114558f, 0.308905f, 0.310571f, 0.283258f, 0.265715f, 0.245901f, 0.236617f, 0.228509f, 0.228651f, -0.082366f, -0.076617f, -0.075906f, -0.069625f, -0.053591f, -0.075402f, -0.074174f, -0.102715f, -0.244430f, 0.083827f, -0.066414f, -0.113097f, 0.309676f, -0.176122f, 0.191079f, -0.196084f, 0.089934f, 0.085404f, 0.083109f, 0.084578f, 0.072255f, 0.067174f, 0.054812f, 0.047921f, 0.211595f, 0.166558f, 0.138126f, 0.132084f, 0.085822f, 0.055733f, 0.031104f, -0.006156f, -0.336249f, -0.300762f, -0.209871f, -0.149397f, -0.145793f, -0.003320f, 0.012878f, 0.153491f, 0.255603f, 0.223934f, 0.195878f, 0.176255f, 0.166013f, 0.158058f, 0.152276f, 0.148231f, -0.143164f, -0.136020f, -0.126342f, -0.124215f, -0.121226f, -0.106227f, -0.103308f, -0.083309f, 0.028735f, -0.008578f, -0.044791f, -0.075134f, -0.113351f, -0.134400f, -0.173741f, -0.207354f, 0.096472f, 0.109906f, 0.106049f, 0.108255f, 0.106649f, 0.104738f, 0.096264f, 0.091414f, 0.185899f, 0.206573f, 0.223681f, 0.141043f, 0.131683f, 0.125560f, 0.131218f, 0.179387f, -0.044031f, -0.022271f, -0.027844f, -0.016594f, -0.017006f, -0.012450f, -0.014405f, -0.007915f, 0.063803f, 0.024958f, -0.002800f, -0.004323f, 0.001398f, 0.000487f, -0.010312f, -0.020250f, 0.110606f, 0.061037f, -0.197706f, -0.187615f, -0.182190f, -0.201800f, 0.116428f, -0.178235f, -0.150656f, -0.152226f, -0.137837f, -0.124376f, -0.109927f, -0.080537f, -0.049755f, -0.043634f, 0.460943f, 0.433756f, 0.405791f, 0.381839f, 0.365398f, 0.346659f, 0.331053f, 0.322135f, 0.079094f, 0.081425f, 0.087347f, 0.086407f, 0.093984f, 0.094313f, 0.103381f, 0.106961f, 0.346673f, 0.326099f, 0.332144f, 0.331372f, 0.339906f, 0.313281f, 0.288582f, 0.231172f, -0.023317f, -0.032525f, -0.035524f, -0.031632f, -0.047491f, -0.053132f, -0.077726f, -0.097103f, 0.050634f, -0.331704f, 0.082681f, 0.283497f, -0.212485f, -0.036848f, 0.106728f, -0.039136f, 0.150577f, 0.129735f, 0.113028f, 0.095765f, 0.084348f, 0.061765f, 0.042003f, 0.022807f, 0.127546f, 0.120350f, 0.110868f, 0.182559f, 0.188607f, 0.195037f, 0.184415f, 0.139735f, 0.218140f, 0.207317f, 0.192228f, 0.174721f, 0.149468f, 0.128398f, 0.106308f, 0.084700f, 0.051763f, -0.249294f, -0.146805f, 0.201268f, 0.213194f, 0.177841f, -0.058873f, 0.006573f, 0.233672f, 0.192417f, 0.142953f, 0.103444f, 0.049809f, 0.007164f, -0.048783f, -0.098637f };
static float emlearnModel_buf1[96];
static float emlearnModel_buf2[96];
static const EmlNetLayer emlearnModel_layers[3] = { 
{ 64, 96, emlearnModel_layer_0_weights, emlearnModel_layer_0_biases, EmlNetActivationRelu }, 
{ 32, 64, emlearnModel_layer_1_weights, emlearnModel_layer_1_biases, EmlNetActivationRelu }, 
{ 8, 32, emlearnModel_layer_2_weights, emlearnModel_layer_2_biases, EmlNetActivationRelu } };
static EmlNet emlearnModel = { 3, emlearnModel_layers, emlearnModel_buf1, emlearnModel_buf2, 96 };

    int32_t
    emlearnModel_predict(const float *features, int32_t n_features)
    {
        return eml_net_predict(&emlearnModel, features, n_features);
    }
    

    int32_t
