
#include <eml_net.h>
static const float emlearnModel_layer_0_biases[64] = { -0.106961f, -0.036669f, -0.015806f, -0.046524f, -0.039254f, -0.062046f, -0.025796f, -0.037465f, -0.033911f, -0.099093f, 0.057752f, -0.032309f, -0.081173f, -0.037463f, -0.136188f, 0.060991f, -0.017614f, 0.000000f, -0.069235f, 0.000000f, -0.032921f, 0.000000f, -0.044912f, 0.036662f, -0.034535f, 0.109414f, 0.131328f, -0.202259f, -0.127238f, 0.007778f, -0.030795f, -0.005614f, -0.019777f, 0.081138f, 0.022672f, -0.135996f, -0.013567f, 0.000000f, -0.046476f, 0.000244f, -0.020423f, -0.119315f, -0.147862f, -0.047213f, 0.178474f, -0.073638f, -0.080731f, 0.139908f, 0.086189f, 0.000000f, -0.054663f, -0.055036f, -0.040687f, 0.000000f, 0.069762f, -0.019280f, 0.187786f, 0.000000f, 0.084765f, -0.180295f, -0.146662f, 0.017172f, -0.038386f, 0.138990f };
static const float emlearnModel_layer_0_weights[6144] = { -0.610165f, -0.200944f, 0.164607f, 0.004833f, -0.004726f, 0.061653f, -0.020708f, 0.125007f, 0.162829f, 0.039919f, -0.468093f, -0.091297f, -0.135853f, 0.031326f, 0.164979f, -0.535432f, 0.123851f, 0.041896f, -0.041270f, 0.081817f, -0.055792f, -0.079701f, -0.034593f, 0.003036f, -0.118680f, 0.131022f, -0.288837f, 0.150452f, -0.062718f, -0.450447f, 0.032327f, -0.219070f, -0.345828f, -0.101835f, 0.140549f, 0.150172f, -0.113381f, 0.089279f, 0.018319f, -0.195399f, 0.122347f, -0.103533f, -0.000844f, -0.135352f, -0.085658f, -0.008902f, 0.041767f, 0.064232f, -0.216635f, -0.052442f, 0.269328f, 0.063670f, -0.130977f, 0.189215f, -0.252625f, 0.174938f, -0.002751f, 0.036171f, -0.194325f, 0.120403f, -0.118314f, 0.150883f, -0.201449f, -0.065953f, -0.178199f, -0.205408f, 0.051384f, -0.212561f, -0.057859f, -0.167668f, -0.163876f, -0.105817f, -0.025135f, 0.427825f, -0.249788f, -0.200793f, -0.183957f, -0.050697f, 0.041528f, -0.398226f, -0.083205f, 0.101053f, 0.097655f, -0.028343f, -0.160929f, -0.061096f, -0.208696f, 0.161888f, 0.066089f, 0.084019f, -0.006261f, -0.251595f, 0.054490f, -0.270067f, 0.155815f, -0.025649f, 0.019495f, 0.050559f, 0.363476f, -0.037000f, -0.137865f, 0.100085f, -0.242190f, -0.035767f, 0.166255f, -0.458374f, 0.046891f, 0.038586f, -0.067613f, 0.069586f, 0.162983f, 0.008551f, -0.263278f, 0.014928f, 0.258831f, 0.029761f, -0.155055f, -0.097530f, -0.043751f, -0.184843f, 0.105043f, 0.006163f, 0.041434f, -0.042474f, 0.000311f, 0.200956f, 0.080642f, 0.106661f, -0.301992f, -0.097676f, 0.037918f, 0.133506f, 0.051171f, -0.110252f, -0.188355f, -0.019785f, -0.025118f, 0.501275f, -0.167790f, 0.023093f, 0.034621f, -0.040735f, -0.043783f, -0.445384f, -0.035249f, -0.119518f, 0.092902f, -0.016388f, -0.031397f, -0.075353f, 0.127781f, 0.041107f, -0.033594f, 0.305990f, -0.046885f, -0.016171f, -0.020973f, -0.460732f, -0.199534f, 0.244016f, -0.154350f, 0.069271f, 0.187951f, -0.150026f, -0.077613f, -0.055176f, -0.182498f, -0.041395f, 0.103739f, -0.273751f, -0.052704f, 0.066278f, -0.051172f, -0.195401f, -0.028896f, 0.113485f, -0.316814f, -0.050539f, 0.094986f, -0.025499f, -0.094033f, -0.030112f, -0.231671f, -0.041549f, 0.321438f, -0.035518f, 0.148699f, -0.210139f, 0.087922f, 0.211633f, 0.129803f, -0.026816f, -0.348370f, 0.093401f, -0.050028f, -0.178351f, 0.109544f, -0.034556f, -0.003940f, 0.135136f, -0.142502f, 0.334646f, 0.143773f, 0.113240f, -0.353232f, -0.019578f, -0.086614f, -0.105936f, 0.068004f, -0.147905f, 0.148895f, 0.156858f, -0.168923f, -0.114780f, 0.100560f, 0.163273f, 0.020693f, 0.089985f, 0.227353f, -0.499985f, -0.094894f, 0.054523f, 0.143041f, -0.224568f, -0.188208f, -0.138035f, 0.240172f, -0.038163f, 0.008028f, -0.004832f, -0.355006f, -0.084484f, -0.011957f, -0.389721f, -0.053709f, -0.146644f, 0.227068f, 0.096194f, -0.131991f, 0.199338f, -0.056531f, -0.083922f, 0.157937f, 0.034336f, -0.204329f, 0.126860f, -0.002458f, 0.032383f, 0.480661f, 0.105279f, 0.317509f, -0.005378f, -0.132450f, 0.209854f, 0.153808f, 0.179775f, -0.137460f, 0.079653f, -0.034692f, -0.072237f, -0.012742f, -0.196966f, -0.196229f, 0.072311f, -0.164832f, -0.049329f, 0.068856f, -0.027612f, -0.369789f, -0.102495f, -0.021955f, 0.180183f, 0.145096f, -0.102919f, -0.118202f, -0.089483f, -0.208821f, 0.177811f, -0.087261f, -0.151048f, -0.030178f, 0.230564f, 0.077118f, -0.157408f, -0.204884f, 0.029672f, 0.159433f, -0.215726f, -0.300545f, 0.058678f, 0.044970f, 0.090189f, 0.103463f, -0.035677f, -0.313703f, 0.149707f, -0.153818f, -0.167503f, -0.167323f, 0.059055f, 0.142681f, -0.178727f, -0.126907f, 0.212473f, 0.158948f, -0.090462f, 0.050736f, 0.070486f, 0.148793f, -0.020558f, 0.121702f, 0.160611f, 0.313450f, 0.083234f, 0.095445f, -0.102120f, -0.189141f, -0.132276f, -0.147759f, 0.242903f, -0.203188f, 0.088433f, 0.133459f, -0.056101f, -0.182195f, -0.136162f, 0.063655f, -0.234601f, -0.093396f, -0.177292f, -0.027418f, 0.093933f, -0.305064f, 0.079731f, -0.107992f, 0.111761f, 0.069092f, -0.051007f, 0.039868f, -0.150747f, -0.100682f, -0.172652f, -0.039733f, 0.095831f, 0.074525f, -0.022827f, -0.051505f, -0.272621f, -0.136385f, -0.042394f, 0.104695f, -0.379231f, -0.140215f, -0.128540f, -0.086878f, -0.053896f, -0.161779f, -0.105021f, 0.005819f, 0.018279f, 0.105179f, 0.151910f, 0.059304f, 0.146318f, 0.075307f, 0.136948f, -0.069824f, -0.071873f, -0.025218f, -0.018748f, 0.260002f, -0.021260f, 0.116756f, -0.042155f, 0.093223f, -0.059719f, -0.021955f, -0.172038f, 0.152532f, -0.149537f, 0.026905f, -0.094259f, 0.031260f, 0.076167f, 0.077378f, 0.037094f, 0.012440f, -0.091244f, -0.065787f, -0.046133f, 0.068683f, -0.062689f, -0.012526f, -0.316535f, -0.141726f, 0.135797f, 0.061793f, -0.190773f, -0.091302f, -0.115573f, 0.017796f, -0.078138f, -0.232625f, -0.074857f, -0.196860f, 0.125681f, 0.105343f, -0.288553f, -0.126463f, -0.586894f, -0.170345f, 0.066925f, 0.135357f, 0.170857f, -0.135136f, 0.224889f, -0.049085f, 0.077679f, -0.442209f, -0.043359f, -0.015816f, 0.063890f, -0.064124f, -0.151257f, 0.090495f, 0.045381f, 0.034533f, 0.143562f, -0.392951f, -0.090368f, -0.049950f, -0.346885f, 0.004303f, -0.157651f, -0.089944f, 0.055872f, -0.035345f, -0.064393f, 0.236345f, 0.122624f, -0.623006f, 0.022362f, -0.057640f, 0.285775f, 0.218789f, -0.584323f, -0.005346f, -0.384772f, 0.253986f, 0.003855f, -0.149642f, -0.203607f, 0.140780f, -0.043599f, 0.049100f, 0.136822f, -0.050551f, 0.077046f, -0.066236f, -0.100432f, 0.195797f, -0.103332f, 0.129274f, -0.253881f, 0.016458f, -0.059297f, -0.136321f, 0.152190f, 0.107440f, 0.176432f, -0.005753f, -0.561710f, -0.055214f, 0.028912f, -0.237547f, 0.142624f, 0.216394f, 0.102599f, 0.118441f, 0.324186f, 0.214536f, -0.043046f, 0.064154f, 0.155766f, -0.046727f, 0.163389f, 0.191885f, 0.165758f, 0.165044f, 0.238031f, 0.126118f, 0.012630f, -0.193127f, -0.050185f, 0.076529f, -0.011574f, -0.231048f, -0.069644f, 0.153934f, -0.109591f, 0.101446f, 0.031425f, -0.044563f, 0.152189f, -0.014314f, -0.178966f, -0.525975f, 0.117769f, 0.171072f, 0.240909f, -0.095142f, -0.202287f, 0.082446f, 0.017591f, -0.157354f, 0.047465f, -0.162470f, -0.088927f, 0.133681f, 0.064616f, 0.083097f, 0.057963f, 0.183456f, 0.019878f, -0.141071f, 0.010213f, -0.206242f, 0.190011f, 0.029238f, -0.157162f, 0.155397f, -0.103936f, 0.118880f, -0.076769f, -0.188952f, 0.142860f, 0.148896f, 0.171995f, 0.307627f, -0.133596f, -0.064251f, -0.116008f, -0.159301f, -0.024089f, 0.115641f, 0.129442f, 0.066198f, -0.147751f, 0.047301f, -0.024058f, 0.154428f, -0.174792f, 0.097552f, 0.025162f, -0.220763f, 0.119481f, 0.048946f, -0.106343f, -0.160772f, 0.120614f, 0.011116f, -0.010962f, -0.063450f, -0.101075f, -0.135176f, -0.108633f, -0.010295f, -0.077669f, 0.203594f, -0.112788f, -0.043426f, -0.161222f, -0.250899f, 0.073482f, -0.055928f, 0.171408f, -0.222336f, 0.096370f, 0.042771f, -0.029484f, 0.086368f, -0.011101f, -0.131993f, 0.103948f, -0.001161f, -0.120417f, 0.208354f, 0.108623f, -0.239843f, -0.124308f, -0.015045f, 0.021348f, -0.197722f, -0.176675f, -0.180821f, -0.113965f, -0.198787f, -0.017000f, 0.121294f, -0.083574f, 0.159616f, 0.249487f, -0.123463f, -0.281695f, -0.147327f, 0.187248f, -0.065391f, -0.012350f, -0.028521f, 0.000699f, -0.122623f, -0.121361f, -0.203042f, 0.045419f, -0.087162f, 0.180020f, -0.152009f, -0.258047f, -0.182655f, -0.119061f, 0.230855f, -0.254410f, 0.074721f, 0.172614f, 0.192539f, 0.058464f, 0.107204f, 0.006804f, -0.187431f, -0.085599f, 0.065149f, 0.148885f, 0.133919f, 0.100666f, -0.095869f, -0.270227f, -0.016988f, -0.133570f, -0.052894f, 0.086085f, -0.114811f, 0.143338f, 0.032375f, 0.104038f, 0.141236f, -0.077067f, -0.195825f, -0.161035f, -0.182425f, 0.027993f, 0.007836f, 0.037191f, 0.175046f, 0.027604f, 0.163618f, -0.141621f, -0.070443f, 0.177549f, -0.111077f, -0.100563f, 0.077655f, -0.025379f, 0.006272f, -0.167270f, 0.163342f, -0.001458f, -0.122465f, -0.111128f, -0.160390f, -0.011896f, -0.217367f, -0.167152f, -0.010025f, -0.033326f, 0.046949f, -0.054833f, -0.168253f, 0.006387f, -0.025551f, -0.030106f, -0.075452f, 0.075442f, 0.161769f, -0.159902f, -0.087300f, -0.022507f, 0.058159f, -0.077710f, -0.028572f, -0.044999f, -0.051829f, -0.233069f, -0.142885f, -0.127992f, 0.100136f, -0.161675f, 0.060195f, -0.043852f, 0.040548f, 0.177768f, -0.049841f, 0.100743f, 0.017265f, 0.029074f, -0.191810f, -0.041940f, -0.087748f, 0.076426f, -0.155336f, -0.179225f, -0.101851f, 0.049429f, 0.009633f, 0.349170f, 0.013770f, 0.147985f, -0.012775f, 0.149000f, 0.034057f, -0.094652f, -0.026768f, -0.027684f, -0.027221f, -0.146975f, 0.013929f, -0.167250f, -0.119128f, 0.240138f, 0.050776f, 0.118021f, 0.135107f, -0.133249f, 0.092168f, 0.083224f, -0.004890f, -0.019010f, -0.235034f, 0.121751f, 0.124948f, 0.082045f, -0.023586f, 0.173859f, -0.230330f, 0.183929f, 0.023760f, -0.240775f, 0.120950f, -0.167116f, 0.258494f, 0.170479f, -0.026662f, 0.084606f, 0.100227f, -0.027219f, -0.028649f, -0.004239f, 0.151591f, -0.014763f, 0.196986f, -0.173180f, 0.345945f, 0.010551f, 0.132869f, -0.319511f, -0.025052f, 0.244100f, -0.152878f, 0.050935f, -0.501878f, -0.179177f, -0.162824f, -0.191663f, -0.153445f, 0.119199f, 0.113813f, 0.017094f, 0.023522f, 0.211896f, -0.479943f, 0.135279f, -0.264530f, -0.063689f, -0.060880f, -0.435423f, 0.108692f, -0.010647f, -0.202453f, 0.157229f, 0.009724f, -0.024241f, -0.061023f, -0.286983f, -0.178744f, 0.225877f, -0.242286f, 0.041358f, 0.203893f, -0.443562f, -0.186861f, -0.272646f, -0.508422f, 0.077605f, 0.033362f, 0.115468f, -0.143048f, -0.043704f, -0.219923f, -0.059104f, 0.100550f, -0.007007f, 0.216982f, -0.180543f, -0.081851f, -0.202937f, 0.076394f, -0.217956f, -0.132345f, -0.136729f, -0.010256f, 0.114565f, -0.019123f, 0.047350f, -0.237000f, -0.191169f, 0.017279f, -0.156462f, -0.057680f, 0.254153f, -0.002723f, 0.116059f, -0.056827f, -0.044384f, 0.067488f, 0.051108f, 0.141841f, -0.180150f, -0.012276f, 0.137028f, 0.094865f, -0.055863f, 0.024913f, 0.457614f, -0.266332f, 0.047145f, -0.188068f, -0.102864f, 0.089375f, -0.425635f, -0.057856f, 0.006904f, 0.075680f, -0.053615f, -0.081113f, -0.048959f, 0.077011f, 0.067928f, -0.083006f, 0.085425f, 0.258228f, -0.275922f, 0.017457f, -0.083956f, -0.048740f, -0.006610f, 0.254306f, -0.243219f, 0.111643f, -0.017922f, 0.042261f, -0.151138f, 0.075225f, 0.035242f, -0.197447f, -0.195351f, -0.050268f, -0.126365f, 0.209038f, 0.073072f, -0.019039f, -0.004376f, -0.117535f, -0.167463f, 0.054235f, 0.059635f, -0.133923f, 0.098704f, -0.211868f, 0.042876f, 0.081551f, 0.164837f, 0.004571f, 0.184316f, -0.120266f, 0.081676f, -0.199615f, 0.068881f, -0.156859f, -0.063719f, -0.031218f, -0.039380f, 0.087063f, 0.064409f, -0.064091f, -0.133266f, 0.124122f, 0.401004f, -0.044817f, -0.085356f, 0.042048f, -0.207696f, -0.026504f, -0.241793f, -0.141560f, 0.101189f, -0.186499f, 0.109707f, 0.030378f, -0.006385f, -0.191551f, 0.088756f, -0.064488f, 0.068903f, -0.179099f, -0.092022f, 0.179571f, -0.297514f, 0.107204f, 0.245987f, -0.008527f, 0.023573f, -0.025851f, -0.014380f, 0.135451f, 0.015056f, -0.163541f, -0.325432f, 0.089511f, 0.164663f, 0.020639f, -0.138479f, 0.089131f, 0.166130f, -0.108511f, -0.077192f, -0.281086f, -0.076233f, 0.059291f, -0.161775f, 0.109291f, -0.151908f, -0.095662f, -0.183034f, 0.100722f, -0.092330f, -0.024574f, 0.042085f, 0.022007f, 0.066583f, 0.127665f, -0.127090f, -0.397063f, -0.228132f, 0.145630f, 0.124214f, 0.064632f, -0.171813f, -0.070905f, 0.142367f, -0.167807f, 0.246588f, -0.060226f, -0.202261f, -0.222828f, 0.015626f, 0.109687f, -0.157558f, 0.165655f, -0.138789f, -0.122231f, -0.168091f, -0.021600f, -0.092807f, -0.133921f, 0.132089f, -0.085009f, 0.289839f, 0.199576f, -0.156403f, -0.076060f, -0.140148f, -0.136114f, -0.426968f, 0.009310f, -0.040920f, 0.091553f, 0.059464f, -0.059566f, -0.108916f, -0.144168f, -0.068167f, -0.037015f, -0.254962f, 0.002091f, -0.226148f, 0.235385f, 0.167221f, 0.100233f, 0.259376f, -0.241597f, 0.083084f, 0.061314f, 0.117371f, -0.152738f, 0.020659f, -0.014030f, -0.101841f, 0.052836f, 0.057192f, 0.188411f, -0.273042f, -0.060682f, 0.406327f, -0.060068f, 0.063025f, -0.367510f, 0.070834f, -0.177329f, 0.115054f, 0.030129f, 0.059244f, -0.178822f, 0.043428f, 0.074425f, -0.133707f, -0.028487f, 0.039820f, -0.324539f, 0.028049f, 0.084032f, 0.140524f, -0.153881f, -0.133843f, -0.012692f, -0.184451f, -0.175335f, -0.185543f, 0.011397f, 0.028141f, 0.130538f, 0.101991f, 0.246531f, -0.136191f, -0.247686f, -0.116226f, 0.103586f, -0.226730f, -0.170874f, 0.072437f, 0.024804f, -0.109660f, -0.116447f, -0.123943f, -0.033752f, 0.183425f, -0.186329f, -0.167751f, -0.050150f, 0.121430f, 0.235060f, 0.016097f, -0.117260f, 0.027785f, 0.068410f, 0.189202f, 0.103172f, -0.214735f, 0.111726f, 0.156286f, -0.124450f, -0.036835f, 0.032416f, -0.149633f, 0.215585f, 0.011430f, -0.249939f, 0.100556f, -0.184648f, 0.112300f, 0.126025f, -0.092975f, 0.101128f, -0.044361f, 0.068980f, 0.102906f, 0.116091f, -0.007058f, -0.197904f, -0.219258f, 0.073705f, 0.074491f, -0.359144f, -0.147283f, -0.031055f, -0.165492f, -0.147706f, 0.021440f, -0.076453f, -0.047226f, -0.122772f, 0.179580f, -0.210246f, -0.035996f, -0.176711f, -0.066669f, -0.038138f, -0.161899f, -0.094516f, -0.027826f, -0.154201f, -0.036200f, -0.185118f, 0.043762f, -0.074410f, -0.038227f, -0.191047f, 0.032236f, -0.048217f, 0.155766f, 0.072282f, 0.084919f, 0.047360f, 0.025040f, -0.123777f, 0.214479f, 0.138531f, 0.073913f, -0.197079f, 0.014097f, 0.023253f, 0.165202f, -0.071076f, -0.125131f, -0.044484f, -0.107427f, 0.130575f, -0.071833f, 0.238055f, -0.013570f, 0.021531f, 0.129062f, -0.151312f, -0.106805f, -0.187970f, -0.113447f, -0.088160f, -0.113770f, -0.021910f, -0.025352f, -0.043591f, -0.176103f, -0.076593f, -0.361298f, -0.074608f, -0.076550f, 0.054341f, 0.120566f, 0.171292f, 0.031286f, 0.094327f, -0.073898f, -0.309643f, 0.157949f, -0.172177f, -0.097543f, -0.057958f, -0.354881f, 0.143653f, -0.595309f, -0.332073f, 0.292602f, 0.065624f, -0.030428f, -0.025480f, -0.016103f, -0.000383f, 0.046366f, -0.365450f, 0.189041f, 0.070515f, 0.012785f, 0.184518f, -0.153019f, -0.187232f, 0.134967f, 0.058709f, -0.149973f, -0.453703f, 0.126777f, 0.111288f, -0.405855f, -0.136464f, 0.141438f, -0.032914f, 0.148484f, -0.228519f, -0.020189f, -0.076374f, 0.107549f, -0.594772f, -0.044478f, -0.299285f, 0.191034f, 0.095379f, -0.377380f, 0.111579f, -0.382264f, 0.341068f, -0.202411f, -0.141862f, -0.140749f, -0.145971f, -0.106451f, -0.179582f, -0.039594f, -0.002768f, 0.309908f, -0.196745f, 0.009417f, 0.334214f, -0.024912f, 0.204812f, -0.249031f, -0.021463f, -0.154664f, -0.071706f, 0.062693f, -0.183409f, -0.152943f, -0.182188f, -0.682712f, -0.189085f, 0.063866f, -0.334614f, 0.127879f, 0.262307f, 0.045895f, 0.137529f, 0.236320f, 0.388201f, 0.145190f, 0.240329f, 0.187166f, -0.017545f, 0.127530f, 0.140514f, -0.006227f, -0.034028f, 0.347443f, 0.101954f, 0.112377f, -0.192320f, -0.372647f, 0.008838f, -0.105336f, -0.102150f, 0.184784f, 0.139198f, -0.083699f, -0.146718f, -0.190876f, -0.347774f, -0.131297f, 0.106986f, -0.129420f, -0.568661f, 0.155068f, 0.360124f, 0.152172f, 0.008702f, 0.116006f, -0.170022f, -0.164598f, -0.147674f, 0.038897f, 0.077292f, 0.022002f, 0.151688f, -0.049461f, 0.043324f, 0.026227f, 0.085120f, -0.003263f, -0.144939f, -0.133038f, -0.064935f, 0.105378f, 0.084023f, 0.145578f, -0.140384f, 0.045781f, 0.119799f, 0.092541f, -0.145782f, 0.175931f, -0.070748f, 0.242429f, 0.151679f, -0.024140f, -0.076482f, 0.016090f, -0.021074f, -0.049273f, -0.240820f, 0.170547f, 0.148714f, -0.057226f, -0.049148f, -0.175409f, 0.064232f, 0.185073f, 0.076825f, -0.213874f, -0.174850f, 0.065921f, 0.043302f, -0.012398f, -0.168166f, 0.191650f, 0.206895f, -0.041066f, 0.035085f, -0.178881f, -0.205752f, 0.130963f, -0.037572f, 0.078112f, 0.040694f, -0.013896f, -0.003449f, -0.280103f, 0.038503f, 0.082751f, -0.120367f, 0.002593f, -0.130284f, -0.198714f, -0.040032f, -0.102147f, -0.184597f, 0.073835f, 0.085213f, -0.113634f, -0.027440f, -0.120467f, 0.093256f, -0.177383f, -0.058060f, 0.074933f, -0.005611f, 0.037628f, -0.048387f, 0.088704f, 0.043216f, 0.122470f, -0.113600f, -0.051478f, -0.121225f, 0.130276f, -0.112336f, -0.095003f, -0.083540f, -0.259249f, -0.230242f, 0.104387f, -0.092935f, 0.017688f, -0.048974f, 0.175704f, 0.053456f, -0.119897f, -0.035138f, 0.173840f, 0.043935f, -0.136712f, -0.201233f, -0.038325f, -0.183631f, 0.094290f, 0.062791f, -0.020878f, 0.062456f, 0.088071f, 0.056724f, -0.025712f, 0.064934f, -0.194930f, -0.115768f, 0.125911f, 0.184847f, -0.158046f, 0.191314f, -0.007520f, 0.112105f, -0.397014f, -0.118618f, 0.015526f, 0.126107f, 0.192941f, -0.071743f, -0.136205f, 0.031893f, -0.123727f, 0.055062f, -0.043781f, 0.144004f, -0.172907f, -0.150732f, 0.100208f, -0.164370f, 0.101383f, -0.153591f, 0.093823f, -0.151760f, -0.074898f, -0.018440f, 0.098254f, -0.042066f, -0.047280f, 0.070338f, -0.052988f, 0.131935f, 0.068096f, 0.004110f, -0.163047f, 0.032933f, -0.123090f, -0.031198f, -0.084880f, 0.064375f, -0.058192f, 0.179053f, 0.053675f, 0.132677f, 0.057072f, 0.149220f, -0.034646f, 0.095845f, -0.112860f, -0.185743f, -0.035011f, -0.024488f, 0.040285f, 0.127224f, -0.117863f, -0.254812f, -0.056645f, -0.177441f, 0.063640f, 0.223566f, -0.016726f, -0.076501f, -0.025454f, -0.185098f, -0.033909f, 0.107667f, -0.073174f, 0.011749f, -0.045379f, -0.220232f, -0.011313f, 0.136469f, 0.124513f, -0.065253f, -0.137722f, 0.041660f, 0.146867f, -0.158845f, 0.046518f, 0.148023f, -0.173404f, -0.195011f, 0.083323f, -0.001057f, 0.146222f, -0.137224f, 0.143463f, -0.064479f, 0.105855f, -0.157097f, -0.127763f, 0.094472f, -0.111757f, 0.048712f, -0.069251f, -0.052203f, 0.118646f, -0.044561f, -0.020649f, 0.080193f, 0.030148f, 0.145334f, -0.140134f, 0.121793f, -0.269160f, 0.075315f, 0.061438f, 0.151274f, 0.049716f, 0.166723f, -0.166418f, -0.009901f, 0.005970f, 0.151095f, 0.073226f, -0.046839f, 0.054931f, 0.323299f, -0.044040f, -0.096915f, 0.207137f, 0.219969f, -0.147379f, 0.086309f, -0.048970f, -0.026751f, -0.035231f, 0.169595f, -0.191237f, 0.036418f, 0.013524f, 0.133558f, -0.087420f, -0.023174f, 0.011195f, -0.117353f, 0.217632f, -0.303120f, -0.133036f, 0.100171f, -0.203950f, 0.131033f, -0.084746f, -0.094895f, 0.238851f, 0.119929f, 0.094238f, -0.455754f, -0.136007f, -0.230758f, 0.138418f, 0.284910f, -0.234130f, -0.098448f, -0.057280f, 0.042112f, -0.152457f, 0.105424f, -0.184107f, -0.183698f, 0.064386f, 0.067772f, -0.117871f, -0.277967f, 0.040698f, 0.248240f, -0.662748f, -0.009942f, -0.039498f, -0.568360f, -0.405766f, -0.052574f, 0.399441f, 0.011893f, 0.055864f, -0.172746f, -0.140739f, -0.110900f, 0.047023f, -0.066507f, -0.022273f, -0.140931f, 0.169005f, 0.194224f, -0.296596f, 0.258761f, -0.025014f, 0.070496f, 0.003454f, 0.105109f, -0.068959f, -0.156481f, -0.026349f, -0.210779f, -0.189307f, -0.064510f, -0.006807f, 0.141848f, -0.119717f, -0.186260f, -0.083639f, 0.156468f, -0.096719f, 0.168661f, -0.036244f, 0.121298f, -0.130345f, 0.054067f, -0.034047f, -0.081682f, 0.392518f, 0.020898f, 0.018893f, 0.009332f, 0.100544f, -0.080717f, -0.293429f, 0.127656f, -0.067207f, -0.160514f, -0.003864f, 0.116535f, 0.035681f, -0.199814f, 0.010994f, 0.143631f, 0.144284f, -0.126300f, -0.209226f, 0.202189f, -0.065213f, 0.097289f, -0.004680f, 0.130340f, 0.055134f, 0.216524f, 0.050190f, -0.061753f, -0.035655f, -0.241876f, -0.291715f, -0.119067f, -0.195250f, 0.017096f, -0.112879f, -0.136084f, 0.000324f, 0.139886f, -0.207343f, -0.393236f, -0.068638f, -0.009576f, 0.186683f, 0.076516f, -0.158061f, 0.114801f, -0.155687f, 0.025304f, -0.105562f, -0.004959f, 0.220303f, -0.023002f, 0.121204f, 0.056548f, 0.024737f, 0.047527f, -0.103307f, 0.102694f, 0.047002f, 0.010983f, 0.046530f, 0.095099f, 0.173222f, -0.050124f, 0.234607f, -0.268675f, 0.175662f, 0.070172f, 0.126022f, 0.139597f, -0.497739f, -0.022507f, 0.103671f, -0.110166f, -0.033482f, -0.112786f, 0.088145f, -0.169916f, 0.111788f, 0.018587f, 0.131154f, -0.256340f, 0.167805f, -0.026121f, -0.281929f, 0.057073f, 0.180196f, 0.130824f, -0.219556f, 0.178954f, 0.046082f, -0.135116f, -0.168883f, -0.004382f, -0.252408f, -0.135821f, 0.029711f, 0.160476f, 0.135672f, -0.095109f, 0.213006f, 0.097778f, -0.147348f, -0.227074f, -0.026119f, 0.058113f, -0.057571f, -0.188876f, 0.157427f, -0.152161f, -0.001542f, 0.223113f, 0.027418f, 0.043441f, 0.152382f, 0.249016f, 0.133083f, -0.043797f, -0.100405f, -0.085284f, -0.077964f, -0.153000f, 0.137840f, -0.102971f, -0.019331f, -0.186222f, -0.122136f, 0.049251f, 0.090742f, -0.060327f, -0.223999f, -0.168076f, -0.146241f, -0.019365f, 0.039020f, 0.026912f, -0.030536f, -0.141790f, -0.008704f, -0.023229f, 0.174834f, 0.143770f, 0.246535f, 0.001871f, 0.004038f, 0.026400f, -0.221051f, -0.121219f, -0.136932f, -0.043668f, -0.657166f, -0.056055f, 0.091395f, 0.080347f, -0.141463f, 0.087373f, 0.041945f, -0.028115f, 0.207501f, -0.140458f, -0.424698f, 0.068191f, 0.149042f, 0.271950f, 0.011179f, -0.247294f, 0.031770f, -0.111057f, 0.009585f, 0.369675f, -0.127032f, -0.155621f, 0.052624f, 0.066929f, 0.012620f, -0.010040f, 0.059410f, -0.011738f, -0.037736f, -0.084994f, -0.076487f, 0.060650f, 0.158705f, -0.276548f, 0.059458f, 0.128204f, 0.055531f, 0.001006f, -0.190245f, -0.009077f, -0.090095f, 0.107037f, 0.110546f, -0.099706f, -0.214642f, -0.169371f, 0.021768f, 0.059836f, -0.045828f, -0.175432f, -0.084652f, 0.184277f, -0.014366f, 0.043745f, -0.186211f, 0.009804f, -0.066308f, 0.121616f, 0.022761f, -0.074762f, -0.217441f, -0.184847f, 0.088702f, 0.146039f, -0.279694f, -0.105856f, -0.092934f, 0.066551f, -0.098802f, -0.108961f, -0.168034f, 0.014726f, -0.043449f, -0.000894f, -0.412412f, -0.196037f, -0.225227f, 0.226932f, -0.114443f, 0.026575f, 0.275028f, 0.020644f, -0.179187f, 0.082906f, 0.085247f, -0.151336f, -0.173510f, 0.160410f, -0.178094f, 0.077225f, -0.001234f, -0.074875f, -0.005522f, -0.138815f, 0.156724f, 0.045048f, 0.045740f, -0.108138f, -0.205515f, 0.168070f, -0.226954f, -0.095703f, -0.056396f, 0.175465f, -0.128851f, 0.019754f, 0.049238f, 0.027496f, 0.116396f, -0.359833f, -0.092060f, -0.007162f, 0.190831f, -0.178456f, -0.136909f, 0.061728f, -0.031712f, -0.102436f, -0.146729f, 0.084441f, 0.067559f, -0.028004f, 0.030711f, 0.058563f, 0.033702f, 0.094208f, 0.100974f, 0.050924f, -0.084287f, 0.161719f, 0.023495f, -0.028356f, -0.001744f, -0.002246f, -0.179636f, -0.023771f, -0.171725f, -0.185500f, -0.008435f, -0.010256f, -0.089528f, -0.025936f, 0.202118f, -0.091061f, 0.056301f, 0.016561f, -0.098821f, -0.010234f, 0.170912f, -0.185010f, 0.148980f, 0.124142f, 0.025854f, 0.044715f, -0.148497f, 0.083422f, -0.220748f, -0.074182f, -0.122014f, -0.145939f, 0.091842f, -0.134626f, -0.013503f, 0.039407f, -0.087568f, 0.138856f, -0.232263f, -0.200585f, 0.054380f, -0.079454f, -0.398919f, -0.010209f, 0.137592f, 0.062748f, 0.018647f, 0.160253f, 0.063910f, -0.057950f, 0.107569f, 0.052101f, -0.034182f, -0.105017f, -0.039221f, 0.120483f, -0.151496f, -0.090850f, -0.334249f, -0.319678f, -0.033590f, 0.348333f, 0.102049f, 0.039855f, 0.287934f, -0.037251f, -0.134300f, -0.421691f, 0.011342f, -0.110190f, -0.172759f, 0.226653f, -0.142559f, -0.128336f, 0.200234f, 0.051358f, -0.108450f, -0.317367f, -0.115885f, 0.077515f, -0.439743f, 0.051207f, -0.023194f, -0.274824f, 0.103345f, -0.071093f, -0.147270f, -0.101962f, -0.133515f, -0.612023f, -0.179258f, -0.468369f, 0.170529f, 0.210119f, -0.390555f, -0.066418f, -0.364094f, 0.273388f, -0.135640f, 0.120762f, 0.115925f, -0.114252f, 0.082777f, 0.012889f, 0.133467f, 0.137713f, 0.334589f, -0.346057f, -0.102255f, 0.382267f, 0.105605f, -0.019639f, -0.121934f, -0.203312f, -0.137565f, 0.069357f, -0.185895f, -0.154371f, -0.132585f, 0.091409f, -0.503639f, 0.089392f, 0.334460f, -0.073592f, 0.049164f, 0.086886f, 0.222234f, -0.211668f, -0.008407f, 0.291349f, -0.107348f, -0.003949f, 0.003528f, -0.179426f, 0.149362f, 0.052706f, -0.188869f, 0.064119f, 0.194354f, 0.176756f, -0.011200f, 0.040452f, -0.379929f, 0.019192f, 0.204779f, -0.018431f, 0.052200f, 0.175395f, -0.250991f, -0.183492f, -0.104068f, -0.154560f, 0.104768f, 0.060071f, 0.133456f, -0.821244f, -0.021458f, 0.237473f, 0.335591f, 0.125729f, -0.119890f, -0.158596f, -0.112340f, -0.154135f, 0.129828f, -0.119309f, 0.038867f, 0.024167f, 0.011795f, 0.130280f, -0.119819f, 0.229185f, -0.089960f, -0.075404f, 0.028388f, -0.055334f, -0.009041f, -0.030924f, -0.030012f, -0.224755f, -0.159636f, -0.045698f, 0.075044f, -0.032868f, 0.178349f, -0.202290f, 0.204533f, 0.107001f, -0.138206f, -0.080027f, -0.063259f, 0.007609f, 0.170094f, 0.136206f, 0.146087f, 0.154895f, -0.138062f, 0.025494f, -0.180760f, -0.011509f, 0.027449f, -0.187074f, 0.000940f, 0.030836f, 0.052691f, -0.000532f, -0.063411f, 0.044932f, 0.094904f, 0.123799f, -0.016661f, -0.190912f, -0.092654f, -0.040902f, -0.085090f, 0.046918f, -0.039191f, 0.213594f, 0.016117f, 0.020456f, -0.539523f, -0.193056f, 0.141059f, 0.040549f, 0.051345f, -0.025270f, 0.105617f, 0.019482f, 0.028225f, -0.193033f, -0.173991f, 0.128515f, -0.218243f, 0.114647f, -0.074001f, -0.001974f, 0.154483f, -0.146369f, -0.113380f, -0.211103f, 0.094587f, -0.124635f, 0.049425f, -0.026641f, 0.098090f, 0.087306f, -0.081543f, -0.104891f, -0.155053f, -0.203500f, 0.041985f, 0.411407f, -0.141369f, -0.240882f, 0.066323f, -0.015603f, -0.132934f, -0.055359f, 0.106709f, 0.139762f, -0.049253f, 0.011557f, -0.166360f, -0.204406f, -0.189250f, 0.098050f, -0.178199f, -0.136609f, 0.069399f, 0.275408f, -0.208047f, -0.089894f, 0.273644f, 0.197426f, 0.120179f, 0.104782f, 0.032853f, -0.173983f, 0.179762f, 0.067421f, 0.081631f, 0.024491f, 0.172024f, -0.005283f, 0.074735f, -0.176176f, 0.069548f, -0.120707f, 0.193583f, -0.010329f, -0.063800f, -0.064871f, -0.171715f, -0.112928f, -0.207228f, 0.024266f, -0.156482f, -0.070688f, 0.083770f, 0.016307f, -0.191714f, -0.080475f, 0.003225f, 0.175078f, 0.060717f, 0.046781f, 0.026756f, 0.017348f, -0.057590f, 0.005394f, 0.155870f, -0.155682f, -0.163463f, -0.119910f, -0.056770f, -0.144919f, -0.099363f, 0.060753f, 0.097729f, 0.084275f, 0.008579f, -0.057127f, 0.038069f, -0.197983f, -0.162278f, 0.108151f, 0.186855f, 0.102356f, 0.054210f, -0.066741f, -0.143965f, -0.186261f, -0.018084f, -0.130065f, 0.076120f, 0.058623f, 0.191426f, -0.005995f, -0.067604f, 0.021370f, 0.029675f, -0.063430f, 0.050994f, -0.136511f, -0.058619f, -0.087221f, -0.075250f, 0.022299f, 0.158735f, 0.102345f, -0.129371f, 0.100536f, -0.094741f, -0.076903f, 0.109787f, -0.182067f, 0.054221f, 0.024392f, 0.060686f, -0.158106f, 0.066350f, 0.125114f, 0.240446f, -0.016063f, 0.103377f, -0.043772f, -0.218482f, 0.062250f, 0.161547f, -0.037705f, -0.125465f, 0.063730f, -0.077041f, 0.025891f, 0.173005f, -0.159238f, 0.280875f, -0.059684f, 0.217582f, 0.098074f, -0.085932f, 0.148068f, -0.024748f, 0.144014f, -0.004579f, 0.067937f, -0.143051f, 0.258962f, 0.021014f, -0.061985f, -0.163763f, 0.135234f, -0.013986f, 0.054485f, 0.032615f, -0.039922f, 0.098630f, 0.327378f, 0.142498f, 0.204505f, 0.091659f, -0.074201f, 0.161279f, 0.115842f, 0.081255f, 0.135739f, -0.109304f, 0.093481f, -0.164156f, 0.324359f, -0.059384f, 0.115389f, -0.284782f, -0.044223f, 0.087375f, -0.054140f, 0.117438f, -0.367854f, 0.075286f, -0.084096f, 0.106292f, -0.217178f, 0.098339f, 0.176360f, 0.212630f, 0.153484f, -0.121135f, -0.112075f, -0.203280f, -0.168429f, -0.166054f, -0.040167f, 0.074435f, -0.183049f, 0.173748f, -0.093275f, -0.035847f, -0.073974f, 0.054069f, -0.081839f, -0.100474f, 0.149201f, -0.171361f, -0.423906f, 0.300406f, 0.159897f, -0.479094f, 0.066818f, 0.081429f, -0.584088f, -0.249183f, -0.255743f, -0.017246f, -0.081292f, -0.086863f, -0.025937f, -0.010448f, -0.104453f, 0.210116f, -0.119692f, -0.001198f, -0.238041f, 0.029485f, -0.154195f, -0.134466f, 0.182162f, 0.140644f, -0.180303f, 0.017352f, -0.023954f, 0.193370f, 0.182615f, -0.088396f, -0.162880f, 0.063677f, 0.177498f, 0.239548f, -0.087083f, -0.116314f, -0.226221f, -0.220622f, -0.041773f, 0.107420f, 0.102223f, -0.117673f, -0.104979f, -0.162770f, -0.144240f, 0.190134f, -0.218998f, 0.356747f, 0.057009f, -0.045215f, 0.010514f, 0.144917f, 0.047923f, -0.049960f, 0.059702f, -0.127965f, -0.187386f, 0.101461f, 0.100004f, -0.148459f, -0.006079f, -0.083649f, 0.141451f, -0.113949f, 0.034277f, -0.144106f, -0.053324f, -0.261262f, -0.097879f, -0.216695f, 0.118107f, -0.022679f, 0.270003f, -0.014740f, 0.099991f, -0.098921f, 0.121992f, 0.025726f, 0.154917f, -0.281431f, 0.065655f, -0.066465f, 0.031147f, -0.125978f, -0.040802f, -0.054563f, -0.045741f, -0.008042f, -0.193598f, 0.176480f, -0.151896f, -0.156333f, 0.209208f, -0.095391f, 0.229364f, -0.154254f, 0.098725f, 0.224459f, 0.183990f, -0.110492f, -0.213685f, -0.246203f, 0.004764f, 0.043551f, 0.150155f, 0.048984f, 0.055815f, -0.198446f, -0.194995f, 0.002406f, -0.208809f, -0.115094f, -0.099309f, -0.077875f, 0.144039f, -0.132428f, 0.022806f, -0.238765f, -0.101816f, -0.193017f, 0.154920f, 0.017424f, 0.157437f, -0.045360f, -0.204991f, 0.060689f, -0.020951f, 0.057753f, 0.065658f, -0.075334f, -0.033852f, -0.207668f, 0.132152f, 0.356963f, -0.065623f, 0.043965f, -0.093987f, -0.183170f, -0.045613f, -0.129432f, 0.014129f, -0.113281f, 0.054960f, 0.080496f, -0.139319f, -0.171003f, 0.211108f, -0.019152f, -0.027064f, -0.121389f, -0.031579f, 0.165038f, -0.143645f, 0.018173f, -0.179469f, 0.190641f, -0.106823f, -0.006939f, -0.047433f, -0.044563f, -0.035096f, 0.169558f, 0.087612f, 0.081950f, -0.157007f, -0.192530f, -0.063636f, -0.121522f, -0.030512f, 0.101286f, 0.063007f, 0.047707f, -0.153772f, 0.062551f, 0.012000f, 0.065407f, 0.069793f, -0.079032f, -0.096499f, -0.025009f, 0.027017f, -0.056997f, -0.142805f, 0.004201f, 0.138423f, 0.136602f, 0.043688f, 0.003150f, -0.233724f, -0.146800f, -0.206534f, 0.205131f, 0.180415f, -0.197799f, -0.101014f, 0.189363f, 0.072857f, -0.606911f, -0.118293f, 0.046041f, -0.003098f, 0.104909f, -0.002346f, -0.120893f, -0.154969f, 0.177950f, -0.204058f, -0.179045f, -0.163068f, -0.004482f, 0.016831f, 0.108589f, -0.204890f, -0.018101f, -0.198653f, -0.118116f, 0.396183f, 0.112381f, 0.110054f, -0.139545f, 0.069240f, -0.003796f, -0.033664f, 0.182126f, 0.070521f, -0.022062f, -0.286701f, -0.008292f, 0.026044f, 0.064798f, -0.314995f, 0.004416f, -0.208701f, 0.122396f, -0.236477f, 0.030809f, 0.037796f, 0.108834f, -0.014376f, -0.108440f, -0.077314f, -0.024748f, -0.045689f, -0.143246f, -0.012257f, -0.001309f, -0.169880f, 0.155282f, 0.019067f, -0.086109f, 0.095947f, -0.184362f, 0.031241f, 0.102701f, -0.229375f, -0.063694f, 0.226807f, -0.060514f, -0.219059f, 0.169651f, -0.079583f, -0.489487f, -0.256301f, 0.056624f, -0.027366f, -0.013936f, 0.086464f, 0.073545f, -0.220209f, 0.161478f, 0.042650f, -0.114486f, 0.024831f, 0.128160f, 0.199109f, 0.035579f, -0.011712f, 0.129983f, 0.079720f, 0.019952f, 0.264354f, 0.083797f, 0.021757f, -0.178729f, 0.049423f, -0.051346f, 0.206558f, -0.085724f, 0.144757f, -0.082118f, -0.359739f, 0.024118f, -0.145077f, 0.238789f, 0.010965f, 0.156615f, 0.087370f, 0.008870f, -0.009467f, -0.079550f, -0.195934f, -0.124361f, 0.020771f, -0.053138f, 0.112246f, -0.112122f, -0.326337f, 0.070604f, -0.014983f, -0.118883f, 0.137021f, 0.190345f, -0.073235f, -0.132046f, 0.117767f, -0.170254f, -0.168601f, 0.169721f, 0.031721f, 0.053301f, 0.187113f, -0.136011f, 0.117874f, 0.138193f, 0.187777f, -0.397860f, -0.103573f, -0.055525f, 0.180158f, 0.092473f, 0.022684f, 0.089476f, -0.183885f, 0.174079f, -0.191336f, 0.232214f, -0.250194f, -0.204002f, -0.169806f, -0.176918f, -0.085728f, 0.022545f, 0.079773f, 0.136971f, -0.025778f, -0.050535f, -0.185774f, -0.040109f, 0.004373f, -0.163103f, -0.155099f, 0.062575f, 0.141990f, -0.116753f, -0.165678f, 0.111845f, 0.167130f, 0.012459f, -0.012904f, -0.212901f, -0.106751f, -0.138517f, 0.040630f, -0.019245f, -0.161121f, -0.079417f, 0.135756f, -0.540441f, -0.283157f, 0.042950f, -0.004690f, -0.065498f, -0.025379f, 0.077499f, 0.009347f, -0.099608f, -0.179086f, 0.030580f, -0.017643f, 0.000609f, -0.027015f, -0.410246f, -0.187448f, -0.564474f, -0.403478f, 0.016181f, 0.040013f, 0.054216f, -0.077709f, 0.251611f, -0.211005f, 0.131472f, -0.558898f, 0.143793f, -0.181436f, 0.043152f, 0.141617f, -0.058815f, -0.052454f, -0.065900f, 0.103403f, -0.122494f, -0.226112f, -0.120714f, -0.018149f, -0.337892f, 0.108582f, -0.172135f, -0.255421f, -0.197338f, -0.071099f, -0.112407f, -0.098718f, -0.152754f, -0.347016f, -0.011351f, -0.237075f, 0.215974f, 0.099961f, -0.284110f, -0.227863f, -0.327650f, 0.059985f, 0.157481f, 0.123789f, -0.101525f, 0.054596f, -0.102396f, -0.039937f, 0.124131f, 0.039578f, 0.282212f, -0.357400f, -0.205802f, 0.150489f, -0.077812f, -0.001989f, -0.008632f, 0.026484f, -0.135992f, -0.243360f, 0.089222f, 0.100545f, 0.136888f, 0.085530f, -0.599652f, 0.076505f, 0.220034f, -0.141421f, 0.259809f, 0.184021f, 0.250426f, -0.120983f, 0.055959f, 0.294486f, 0.003259f, 0.264480f, -0.109714f, -0.189277f, -0.103419f, -0.051862f, 0.088138f, -0.144548f, 0.292964f, -0.039658f, -0.170283f, -0.092854f, -0.593464f, 0.056168f, 0.171680f, -0.173547f, 0.105836f, 0.278412f, -0.296299f, 0.089337f, -0.175023f, -0.282911f, 0.126661f, 0.319831f, 0.087415f, -0.648140f, 0.072171f, -0.006717f, 0.485819f, 0.001084f, 0.063641f, 0.015972f, -0.015116f, -0.091534f, 0.081602f, -0.148425f, -0.118092f, 0.021506f, 0.098701f, -0.081732f, 0.122018f, -0.118292f, -0.155436f, 0.068736f, 0.153655f, -0.052154f, 0.193178f, -0.050980f, -0.065978f, -0.267563f, -0.186245f, -0.058299f, -0.019476f, 0.075210f, 0.210441f, 0.025119f, -0.031188f, 0.088208f, -0.108091f, -0.105465f, 0.040833f, -0.093043f, -0.067307f, -0.028039f, 0.124586f, -0.071200f, -0.087443f, -0.058885f, -0.139141f, -0.248475f, -0.140695f, 0.123512f, -0.331652f, -0.016523f, -0.061834f, -0.031738f, -0.195153f, -0.222807f, 0.061265f, -0.001250f, -0.154313f, -0.121387f, -0.223890f, -0.174437f, 0.110175f, 0.032813f, -0.146263f, 0.100460f, -0.171922f, 0.022163f, 0.084512f, -0.127407f, 0.110653f, -0.151403f, 0.192355f, -0.288630f, -0.003140f, 0.119797f, -0.265226f, 0.118240f, 0.015473f, 0.167129f, 0.135690f, 0.075174f, -0.000724f, -0.025512f, -0.174809f, 0.048774f, 0.074758f, -0.122144f, 0.123366f, 0.015291f, -0.007359f, 0.138047f, 0.102279f, -0.179119f, 0.149625f, -0.194557f, -0.030718f, -0.115114f, -0.000120f, 0.223394f, -0.118187f, -0.138648f, -0.134912f, -0.062754f, 0.161597f, 0.053451f, 0.208928f, 0.151937f, -0.125679f, 0.009026f, -0.089893f, -0.091987f, 0.018117f, -0.175915f, -0.106499f, -0.231206f, -0.042006f, 0.207025f, -0.045223f, -0.141069f, 0.320970f, 0.186530f, -0.007161f, -0.084556f, 0.012636f, -0.085610f, 0.052428f, -0.095789f, -0.179219f, 0.126188f, -0.181688f, 0.203237f, -0.096466f, -0.050019f, 0.255773f, -0.072327f, 0.180451f, -0.061371f, 0.109760f, 0.019370f, -0.043234f, 0.122087f, -0.083816f, -0.044778f, 0.036227f, 0.101741f, -0.176791f, -0.191875f, -0.121471f, 0.162389f, 0.139676f, -0.196838f, -0.139462f, -0.165228f, -0.025414f, 0.073863f, -0.144080f, -0.103718f, -0.145891f, -0.060130f, -0.170537f, -0.057700f, -0.032286f, 0.122375f, -0.079781f, -0.189324f, 0.094082f, -0.144826f, -0.054881f, 0.094280f, -0.141588f, 0.154378f, -0.203092f, -0.059441f, 0.027289f, -0.204667f, -0.096119f, 0.153587f, 0.067437f, -0.164846f, -0.104660f, 0.123722f, 0.005839f, -0.008026f, 0.145406f, 0.092471f, -0.176546f, -0.033957f, -0.037670f, -0.198356f, -0.042657f, 0.098589f, 0.058662f, -0.108437f, -0.091354f, 0.028203f, -0.061287f, 0.093428f, -0.185296f, 0.116685f, -0.067390f, -0.085994f, 0.092511f, -0.056772f, 0.138080f, 0.020341f, 0.014679f, -0.017226f, 0.084988f, -0.052039f, 0.256410f, 0.207334f, 0.032996f, 0.178087f, -0.044943f, 0.112072f, -0.178754f, -0.084217f, -0.175735f, 0.029982f, 0.066576f, 0.155614f, 0.131308f, 0.032104f, 0.167282f, 0.136464f, 0.152182f, 0.213579f, 0.116833f, -0.146488f, -0.134064f, -0.107413f, 0.074028f, -0.180666f, 0.167269f, 0.086789f, -0.029927f, -0.187772f, 0.093582f, -0.071790f, 0.148400f, 0.122710f, -0.023053f, -0.169808f, 0.012685f, 0.213280f, -0.191061f, -0.127963f, -0.071087f, 0.070999f, -0.111869f, 0.031582f, -0.035696f, 0.043167f, 0.016156f, 0.054129f, -0.173065f, 0.233159f, -0.114723f, 0.178008f, -0.169435f, -0.162213f, 0.247644f, -0.214597f, -0.018725f, -0.131960f, -0.072390f, -0.102917f, 0.104157f, 0.082312f, -0.056223f, 0.101296f, 0.202992f, -0.102289f, -0.031479f, -0.244438f, 0.019139f, -0.033196f, -0.046000f, -0.462374f, 0.002720f, 0.018706f, -0.028953f, -0.013060f, -0.183948f, 0.005708f, 0.146198f, -0.204088f, 0.030939f, 0.088524f, 0.075290f, -0.249248f, 0.076102f, -0.118170f, -0.879511f, 0.142929f, -0.074774f, -0.461728f, 0.358443f, 0.086394f, -0.347800f, 0.093241f, -0.063165f, -0.033614f, -0.088229f, 0.002833f, 0.304147f, -0.001831f, 0.063540f, 0.171564f, 0.093067f, -0.335808f, -0.039259f, 0.486422f, -0.045652f, -0.570406f, -0.041898f, -0.012037f, -0.100152f, 0.634407f, 0.130865f, -0.049325f, -0.177409f, 0.169280f, 0.110017f, -0.016588f, 0.121552f, -0.045270f, -0.135452f, 0.116636f, 0.106131f, 0.065659f, -0.090005f, -0.104378f, -0.201690f, -0.053574f, -0.032115f, -0.180976f, 0.180507f, 0.060584f, -0.078029f, 0.254276f, 0.154489f, 0.034918f, 0.149583f, -0.184250f, -0.082563f, -0.088871f, 0.011185f, 0.159356f, -0.090712f, -0.212887f, 0.019850f, 0.060453f, 0.034142f, -0.146485f, 0.116436f, 0.163798f, 0.103986f, 0.106860f, -0.279636f, 0.337184f, 0.030498f, 0.130617f, -0.005256f, 0.104980f, 0.148524f, 0.017595f, -0.130048f, -0.208151f, -0.230936f, -0.160564f, -0.136005f, 0.255894f, -0.178792f, 0.000084f, -0.100296f, 0.248432f, 0.175768f, -0.481891f, -0.123053f, -0.061940f, 0.085681f, 0.010637f, -0.129342f, -0.073538f, -0.174042f, 0.013051f, 0.102629f, 0.324842f, 0.181933f, -0.031643f, -0.023098f, 0.159910f, 0.039564f, -0.035274f, -0.161235f, 0.071190f, 0.152455f, 0.010231f, -0.126875f, 0.086356f, -0.177595f, 0.085075f, -0.077499f, 0.046980f, -0.026321f, -0.223458f, -0.214559f, -0.190375f, 0.008425f, -0.005327f, 0.058238f, -0.095033f, 0.104917f, -0.119875f, -0.099720f, 0.140958f, 0.132333f, 0.084443f, 0.166307f, -0.186359f, -0.071901f, 0.003768f, 0.023783f, -0.002066f, 0.339422f, 0.256705f, -0.137471f, -0.004284f, -0.045648f, -0.146497f, -0.095396f, -0.000242f, 0.392453f, 0.023120f, 0.169955f, 0.012138f, 0.167468f, -0.129689f, -0.092001f, 0.239422f, -0.164514f, -0.267543f, -0.062043f, -0.145272f, 0.059090f, 0.450159f, 0.102756f, 0.034752f, -0.137841f, 0.280443f, -0.051242f, -0.082129f, 0.065829f, -0.116323f, 0.188970f, -0.232496f, 0.114242f, -0.180598f, -0.215354f, -0.194208f, 0.025780f, -0.169386f, -0.120140f, -0.165260f, -0.271145f, -0.070132f, 0.119016f, -0.209469f, -0.023528f, -0.138921f, 0.079924f, 0.145748f, 0.136068f, -0.143237f, -0.027458f, -0.011221f, 0.013844f, 0.020464f, -0.097015f, 0.127429f, 0.115988f, 0.234351f, -0.004541f, -0.129546f, 0.308407f, -0.203875f, -0.841654f, -0.050520f, -0.000392f, 0.036167f, 0.132745f, 0.129245f, 0.073683f, -0.086360f, 0.134690f, 0.100095f, -0.451006f, 0.065495f, -0.068909f, 0.118490f, 0.266754f, -0.162904f, 0.038474f, -0.023490f, 0.092542f, 0.268395f, -0.037855f, 0.060398f, -0.065521f, -0.008458f, 0.077948f, 0.072650f, 0.132741f, -0.123657f, 0.070392f, -0.111694f, 0.054327f, -0.085000f, 0.040135f, -0.225911f, -0.204375f, -0.176869f, 0.128558f, -0.085139f, -0.151352f, -0.204991f, -0.078196f, 0.001993f, -0.080723f, 0.082655f, -0.246477f, -0.170942f, -0.043492f, -0.152353f, 0.125999f, -0.097526f, -0.003083f, -0.053269f, -0.147518f, -0.069962f, 0.096601f, -0.061840f, 0.054623f, -0.033626f, -0.117041f, 0.257075f, -0.261753f, -0.061021f, -0.127590f, -0.080249f, -0.266581f, -0.031749f, -0.044125f, 0.311968f, 0.016560f, 0.013985f, 0.030346f, -0.003201f, 0.173564f, 0.086923f, -0.038774f, -0.259043f, 0.007148f, 0.181471f, 0.036763f, 0.034248f, -0.032041f, -0.066211f, -0.162237f, 0.021592f, 0.026215f, -0.098249f, -0.075159f, 0.177260f, 0.058988f, 0.157271f, 0.158574f, 0.201395f, -0.276446f, -0.299263f, -0.073695f, 0.051832f, 0.229004f, -0.029149f, 0.019866f, 0.000370f, -0.020390f, -0.067894f, -0.200230f, -0.125725f, 0.088787f, -0.051965f, -0.097640f, -0.148893f, -0.038579f, -0.256672f, 0.100441f, -0.035305f, -0.017796f, -0.032307f, 0.164407f, 0.007686f, 0.075398f, -0.096200f, 0.125124f, -0.155385f, 0.177001f, 0.078971f, -0.172224f, 0.033077f, 0.039272f, -0.088000f, -0.138855f, 0.137437f, -0.181229f, -0.123420f, 0.063072f, -0.054714f, -0.004716f, 0.092032f, 0.145475f, 0.141885f, 0.083119f, 0.042224f, -0.021855f, -0.175963f, 0.145140f, 0.169100f, 0.016712f, 0.212526f, -0.191956f, -0.017797f, -0.161194f, 0.048482f, -0.020218f, 0.031178f, 0.115793f, -0.068533f, -0.130933f, -0.167105f, 0.025229f, -0.191784f, -0.069358f, -0.031287f, -0.082757f, -0.039203f, -0.072456f, -0.141506f, -0.154518f, -0.082486f, -0.036343f, -0.081371f, 0.084813f, 0.040279f, -0.071358f, -0.004604f, -0.418394f, -0.230774f, 0.101717f, 0.132163f, -0.009101f, -0.022920f, -0.038289f, -0.037269f, -0.150779f, 0.004482f, 0.046727f, 0.082324f, 0.056461f, -0.054083f, -0.395119f, -0.129417f, -0.677760f, -0.329141f, 0.226439f, 0.102880f, -0.181477f, -0.026286f, 0.238010f, -0.153395f, -0.176086f, -0.607289f, 0.048256f, -0.051763f, 0.152199f, 0.114048f, -0.183979f, 0.056889f, -0.035611f, 0.027069f, -0.087082f, -0.520351f, 0.013894f, -0.056470f, -0.405623f, 0.067613f, -0.109726f, -0.062565f, -0.116192f, -0.116905f, -0.175505f, 0.169882f, -0.057497f, -0.655018f, -0.114697f, -0.307208f, 0.195564f, 0.383123f, -0.532353f, 0.093489f, -0.276640f, 0.079073f, -0.101736f, 0.047732f, 0.058991f, 0.102113f, 0.058406f, -0.196770f, -0.122712f, 0.111537f, 0.493203f, -0.094908f, -0.070282f, 0.334663f, 0.143784f, -0.237900f, -0.100297f, 0.035765f, 0.106922f, -0.267288f, -0.050042f, -0.191998f, 0.051700f, -0.164335f, -0.585185f, -0.079678f, 0.280446f, -0.036524f, 0.159841f, 0.095522f, 0.196990f, -0.230097f, 0.035704f, 0.537835f, 0.136862f, 0.349501f, -0.345948f, 0.014265f, -0.144686f, -0.032240f, 0.087803f, 0.079854f, 0.225107f, -0.052447f, -0.079493f, 0.262058f, -0.732039f, -0.038663f, 0.105202f, 0.034851f, 0.134772f, 0.237891f, -0.220333f, 0.096829f, 0.172219f, -0.272998f, 0.137004f, 0.268388f, -0.033959f, -0.614225f, -0.376739f, -0.048272f, 0.431338f, -0.027377f, 0.044776f, -0.109640f, -0.072688f, -0.134210f, -0.018728f, 0.115358f, 0.100448f, 0.101917f, -0.105662f, 0.157895f, -0.003208f, -0.090405f, -0.144423f, 0.057695f, 0.009016f, -0.102041f, -0.019174f, -0.202676f, -0.063755f, -0.134604f, -0.029937f, -0.161168f, 0.009075f, -0.164382f, 0.099899f, 0.050096f, 0.206840f, 0.255221f, -0.082633f, -0.317523f, 0.106297f, 0.044822f, -0.115498f, 0.163570f, 0.043612f, -0.038854f, -0.025687f, 0.120566f, -0.168790f, 0.041777f, -0.133175f, -0.167707f, -0.140439f, -0.014746f, -0.031139f, 0.007066f, 0.078459f, -0.111932f, 0.128950f, 0.037342f, 0.091120f, -0.046046f, -0.237576f, -0.100192f, 0.053935f, 0.083812f, 0.036591f, 0.252586f, 0.122550f, -0.020181f, 0.011326f, -0.144237f, -0.043998f, -0.033245f, 0.299627f, -0.186692f, -0.136025f, -0.139381f, -0.092066f, 0.010753f, -0.083618f, 0.187683f, 0.092456f, 0.026822f, -0.102300f, 0.172707f, -0.009980f, 0.022506f, 0.123807f, -0.011826f, 0.282567f, -0.104042f, -0.176045f, -0.131093f, 0.025741f, 0.113439f, -0.165710f, 0.090185f, 0.080985f, 0.070839f, -0.000785f, 0.038051f, 0.058671f, 0.025644f, -0.134896f, -0.026033f, -0.174611f, 0.107991f, 0.208151f, -0.006559f, -0.209342f, -0.150213f, -0.121489f, 0.128856f, -0.117866f, -0.063027f, -0.135877f, 0.025715f, 0.015092f, 0.359034f, 0.024317f, -0.130726f, 0.028445f, 0.016786f, -0.190624f, -0.168682f, -0.154900f, 0.017605f, -0.176622f, 0.104191f, 0.028220f, 0.324250f, -0.088118f, 0.075130f, -0.189328f, -0.137539f, 0.054291f, -0.203298f, 0.101752f, -0.017999f, -0.014468f, -0.132464f, 0.091539f, -0.077799f, -0.064140f, -0.025530f, -0.053180f, -0.046747f, 0.067235f, 0.049210f, -0.184841f, -0.069678f, -0.152177f, 0.169954f, 0.162269f, -0.052431f, -0.179794f, -0.006332f, -0.174489f, -0.172033f, -0.098257f, 0.144846f, -0.168216f, 0.133530f, 0.058263f, 0.004231f, -0.154047f, 0.017357f, 0.232455f, 0.027179f, -0.155863f, -0.126216f, 0.093949f, -0.006365f, 0.091341f, 0.153084f, -0.131032f, -0.105425f, 0.189642f, -0.170779f, 0.032251f, -0.130752f, 0.079335f, -0.113026f, -0.059587f, -0.038419f, -0.134329f, 0.080215f, -0.190003f, 0.125956f, -0.025370f, 0.012020f, -0.134968f, -0.174187f, -0.182386f, -0.035439f, -0.071711f, 0.113182f, -0.011177f, 0.122518f, -0.198071f, 0.067437f, 0.059472f, -0.253422f, -0.073407f, 0.089870f, -0.093974f, -0.152732f, -0.053117f, 0.115351f, -0.097351f, -0.151267f, 0.099661f, 0.000681f, -0.180939f, 0.179484f, 0.135975f, 0.046591f, 0.136566f, 0.009046f, 0.150397f, -0.002297f, -0.039742f, -0.154903f, 0.068912f, -0.219226f, 0.101297f, -0.203408f, 0.212995f, 0.235546f, -0.061782f, -0.186516f, -0.230839f, -0.043458f, 0.035819f, -0.046732f, 0.130617f, -0.010976f, -0.011685f, 0.041608f, 0.062211f, -0.214995f, 0.249469f, -0.121516f, -0.015957f, -0.069275f, -0.154519f, 0.301715f, 0.061402f, -0.077681f, 0.107993f, 0.120399f, -0.090735f, 0.270674f, -0.095917f, -0.047252f, 0.043407f, -0.055439f, 0.020525f, 0.267642f, -0.059956f, 0.128213f, -0.108364f, -0.075604f, 0.339998f, 0.023865f, 0.115939f, -0.305053f, -0.163036f, 0.084951f, 0.062529f, 0.032819f, -0.113973f, 0.064507f, -0.069125f, 0.051058f, -0.044747f, -0.169908f, -0.014521f, -0.291624f, -0.128170f, -0.861922f, -0.092547f, -0.155817f, 0.098691f, -0.111345f, 0.041459f, 0.063844f, -0.108874f, -0.167554f, 0.144824f, -0.113198f, 0.051695f, 0.057842f, 0.405230f, -0.239635f, -1.143854f, 0.130511f, 0.245183f, -0.480611f, 0.980711f, -0.062273f, -0.588527f, -0.157404f, -0.014820f, 0.184810f, -0.933823f, -0.109307f, 0.227164f, 0.129282f, 0.077869f, 0.287194f, -0.148557f, -0.459862f, 0.005253f, 0.083595f, -0.163802f, -1.151521f, 0.022793f, -0.028341f, -0.178090f, 0.648030f, 0.121873f, 0.199720f, -0.037866f, 0.406257f, -0.066690f, 0.122517f, 0.245258f, -0.001627f, -0.246551f, 0.260971f, 0.092337f, 0.053683f, 0.134221f, -0.171389f, -0.030901f, -0.075145f, -0.039959f, -0.325738f, -0.305796f, 0.050984f, 0.062603f, 0.237297f, -0.053782f, -0.110245f, 0.081335f, 0.151245f, -0.068472f, 0.064742f, -0.110724f, 0.022720f, 0.086006f, -0.115919f, 0.136285f, 0.119987f, 0.130361f, 0.150285f, 0.056169f, 0.231509f, -0.110003f, -0.078173f, -0.317694f, 0.255908f, 0.200626f, 0.166665f, -0.028459f, -0.101316f, -0.126959f, -0.120164f, 0.213428f, -0.113523f, -0.250347f, -0.083604f, 0.128209f, 0.136942f, -0.090967f, 0.187455f, 0.082698f, 0.185199f, -0.113875f, -0.452082f, 0.091131f, -0.010797f, -0.099411f, 0.317314f, -0.042510f, -0.051990f, -0.053258f, -0.117876f, 0.017074f, 0.218529f, -0.049390f, 0.016586f, 0.115731f, 0.115789f, 0.021999f, 0.121194f, 0.136582f, 0.081478f, 0.105220f, 0.061639f, -0.084049f, -0.189011f, 0.182671f, -0.086291f, 0.149135f, 0.220349f, 0.015412f, -0.532115f, -0.079569f, 0.100752f, 0.042155f, 0.027854f, 0.168882f, 0.042922f, -0.061856f, 0.055565f, 0.291742f, 0.087702f, 0.098910f, 0.140521f, 0.095130f, -0.131186f, -0.266159f, -0.117979f, -0.035660f, 0.324034f, 0.662703f, 0.214704f, -0.519404f, -0.128089f, 0.133071f, 0.073625f, -0.017544f, 0.036032f, 0.332382f, 0.082689f, -0.004327f, 0.288176f, -0.162210f, -0.317685f, 0.028720f, 0.101880f, 0.027530f, -0.501341f, 0.128515f, -0.178097f, 0.053572f, 0.278526f, 0.066613f, 0.354597f, -0.031466f, 0.312580f, -0.241378f, 0.141081f, 0.267248f, 0.095356f, -0.020376f, -0.158746f, -0.153822f, -0.112621f, 0.051281f, -0.067615f, 0.149222f, -0.118686f, -0.107662f, -0.258336f, -0.523829f, -0.085381f, -0.179566f, -0.284369f, -0.208183f, 0.117996f, 0.191704f, 0.048236f, 0.029080f, 0.014061f, 0.085528f, 0.008717f, 0.048371f, -0.176059f, -0.175931f, 0.153311f, -0.244333f, 0.215850f, 0.077914f, 0.245092f, 0.049383f, -0.032985f, -0.791799f, -0.127862f, 0.236047f, -0.202857f, 0.073447f, -0.129625f, 0.123977f, -0.169737f, 0.454082f, -0.054279f, -0.227224f, 0.006678f, -0.128342f, 0.213970f, -0.007498f, 0.115007f, -0.041119f, 0.188295f, -0.000129f, 0.650037f, 0.034945f, -0.093807f, 0.153645f, 0.334852f, 0.000202f, 0.043779f, 0.058010f, -0.156106f, 0.142166f, -0.017014f, -0.370664f, -0.026360f, -0.002545f, -0.147164f, -0.168652f, -0.087381f, -0.112096f, 0.083511f, 0.048560f, 0.144227f, -0.107418f, 0.134609f, 0.041063f, 0.196504f, 0.120861f, -0.001412f, -0.173388f, 0.006210f, 0.190159f, 0.030270f, -0.072226f, 0.012314f, -0.044809f, -0.193339f, 0.185339f, 0.083590f, 0.005597f, -0.195827f, 0.155902f, -0.028638f, 0.022827f, -0.050608f, -0.139365f, 0.050031f, -0.393291f, -0.184524f, 0.065195f, 0.273996f, -0.123407f, -0.079933f, 0.007860f, -0.137267f, 0.020063f, -0.139757f, -0.149101f, -0.020185f, -0.001626f, 0.123745f, -0.056453f, -0.037301f, -0.002908f, 0.075905f, 0.182434f, 0.156591f, -0.025912f, 0.066671f, -0.148271f, 0.037469f, -0.121280f, 0.023524f, -0.149378f, 0.141414f, -0.070725f, -0.314709f, -0.093665f, -0.002203f, 0.206357f, 0.011283f, 0.080750f, -0.145059f, -0.248768f, -0.085421f, -0.158948f, -0.086373f, 0.013438f, 0.000236f, 0.153796f, -0.117817f, 0.083466f, -0.254956f, 0.155076f, 0.104852f, 0.046558f, -0.146695f, 0.173731f, -0.298899f, -0.093875f, -0.023589f, 0.105164f, -0.208598f, 0.001187f, -0.147927f, -0.050861f, -0.184657f, -0.105300f, -0.007181f, 0.110031f, -0.077244f, -0.212147f, 0.189067f, -0.027991f, 0.119868f, -0.067514f, 0.028183f, -0.060078f, -0.067208f, 0.065861f, -0.152915f, 0.217920f, -0.024478f, -0.068440f, -0.001227f, 0.005305f, 0.108699f, 0.123927f, 0.045793f, -0.178633f, 0.118502f, 0.155762f, -0.120939f, -0.039252f, -0.008580f, 0.167710f, 0.075832f, -0.092262f, -0.213069f, 0.086701f, 0.042489f, -0.141386f, 0.134084f, 0.162183f, 0.202147f, -0.039317f, 0.017331f, 0.026099f, -0.097808f, 0.007775f, 0.078170f, -0.165408f, -0.035811f, -0.247772f, -0.310049f, -0.107285f, 0.102598f, -0.221521f, 0.055158f, -0.075263f, 0.061205f, -0.189847f, -0.006662f, -0.144582f, -0.066384f, 0.065418f, 0.091753f, -0.270434f, 0.122784f, -0.432036f, -0.391890f, -0.003182f, 0.290765f, -0.027506f, 0.014857f, 0.315123f, -0.003480f, -0.147684f, -0.300346f, 0.130140f, -0.072103f, 0.016469f, -0.117351f, -0.174211f, 0.121524f, 0.027958f, 0.216205f, -0.231445f, -0.326976f, -0.066565f, 0.157507f, -0.532644f, -0.180720f, -0.070275f, -0.061589f, -0.055015f, -0.129335f, -0.027989f, -0.161644f, 0.077920f, -0.590106f, 0.025546f, -0.260586f, 0.211214f, 0.375623f, -0.449887f, -0.010018f, -0.146608f, 0.391519f, -0.141416f, 0.051430f, 0.060991f, 0.136162f, 0.103574f, -0.190916f, 0.003410f, -0.120495f, 0.440613f, 0.088863f, -0.111157f, 0.194316f, -0.155178f, -0.024715f, 0.036051f, 0.007255f, -0.046133f, -0.234196f, -0.155512f, 0.041700f, 0.140123f, -0.069661f, -0.388999f, -0.178845f, 0.674188f, -0.066851f, -0.134955f, -0.026613f, -0.044595f, -0.193616f, 0.149624f, 0.460647f, -0.052681f, 0.434407f, -0.065508f, 0.119931f, -0.128538f, -0.029006f, 0.209724f, 0.029695f, 0.218537f, -0.235574f, -0.049869f, 0.062229f, -0.935583f, -0.257664f, 0.228591f, -0.283382f, -0.027845f, 0.286824f, -0.452998f, -0.023546f, -0.142490f, -0.084395f, -0.108523f, 0.288641f, 0.138113f, -0.333243f, -0.122405f, -0.037173f, 0.580885f, 0.149301f, 0.013253f, 0.025209f, -0.115554f, 0.149416f, 0.114195f, -0.048250f, -0.009371f, -0.156150f, -0.218443f, -0.025058f, -0.066284f, 0.148818f, -0.069780f, 0.031692f, -0.076587f, 0.028789f, -0.068577f, -0.147306f, 0.132882f, 0.084655f, 0.158803f, 0.154454f, -0.035475f, -0.071588f, 0.006236f, -0.157344f, -0.006801f, -0.044185f, -0.193466f, -0.266989f, 0.190731f, 0.024540f, 0.105010f, -0.017956f, 0.179883f, 0.225334f, -0.177472f, 0.038392f, -0.007272f, -0.198033f, -0.136207f, 0.104053f, -0.179640f, -0.027368f, -0.114213f, 0.151253f, -0.095645f, -0.230968f, 0.149550f, 0.118908f, -0.006954f, 0.009669f, -0.163344f, -0.158441f, -0.188840f, -0.044029f, -0.207391f, 0.188768f, -0.143498f, 0.189696f, -0.117064f, -0.083358f, 0.143567f, 0.132061f, 0.185362f, -0.270640f, 0.003827f, 0.112662f, 0.117658f, -0.146591f, -0.098501f, -0.118028f, -0.035563f, -0.104965f, 0.100183f, -0.006583f, 0.032472f, 0.088247f, 0.054194f, 0.003028f, 0.207965f, -0.004253f, -0.153566f, -0.174075f, -0.170619f, -0.201440f, 0.122386f, -0.198770f, 0.022901f, -0.114001f, 0.206040f, -0.044498f, -0.051530f, -0.267280f, -0.036097f, -0.143609f, -0.103357f, 0.102620f, 0.200615f, 0.130553f, -0.192919f, 0.107266f, -0.174753f, -0.029571f, 0.205732f, -0.197903f, 0.008819f, -0.200473f, 0.069622f, 0.318507f, -0.248823f, 0.106982f, 0.228799f, -0.048683f, -0.162675f, 0.064629f, -0.132619f, 0.149503f, -0.150479f, 0.003613f, -0.033478f, 0.214935f, 0.081141f, 0.024297f, -0.519651f, -0.221281f, 0.112622f, -0.123108f, 0.023447f, 0.075706f, 0.000690f, 0.045479f, -0.150902f, -0.140532f, -0.094618f, -0.114020f, 0.003169f, 0.011193f, -0.072518f, -0.155358f, 0.010070f, -0.125249f, -0.092275f, -0.190854f, 0.143741f, 0.053586f, 0.057351f, -0.152700f, -0.054735f, -0.103520f, -0.039402f, 0.084835f, -0.041976f, -0.153373f, -0.154369f, 0.009760f, -0.114623f, -0.052269f, -0.101360f, 0.149431f, -0.060655f, 0.167245f, -0.093315f, -0.146098f, -0.019643f, -0.042684f, -0.061000f, 0.152035f, 0.189657f, -0.055320f, 0.002537f, 0.150355f, -0.001927f, -0.220503f, 0.024600f, 0.022107f, 0.102867f, 0.092267f, 0.126079f, -0.117221f, 0.039467f, 0.144222f, -0.163249f, 0.080602f, -0.089458f, -0.127273f, 0.130432f, -0.045274f, 0.122431f, -0.211684f, 0.094564f, 0.000740f, -0.144889f, -0.159999f, 0.006306f, 0.033376f, -0.139905f, 0.050640f, -0.047208f, 0.078576f, -0.115324f, -0.001846f, 0.032623f, 0.254473f, 0.136242f, -0.130855f, -0.178253f, -0.075530f, -0.061346f, -0.194943f, -0.070891f, -0.284324f, -0.142517f, -0.033696f, -0.134058f, -0.201499f, 0.196480f, 0.088082f, 0.072954f, 0.343245f, 0.093361f, -0.175691f, -0.007709f, -0.081959f, -0.036324f, -0.095071f, 0.057211f, 0.000812f, -0.095817f, -0.125588f, -0.182066f, 0.075908f, -0.092661f, 0.049944f, 0.024914f, -0.097584f, -0.027783f, 0.030504f, 0.146795f, -0.134437f, 0.014169f, 0.166422f, -0.033633f, -0.030930f, -0.097668f, -0.074480f, -0.155936f, 0.290172f, -0.131910f, 0.132314f, 0.106249f, 0.007690f, -0.140897f, -0.136386f, 0.038914f, -0.109881f, -0.101608f, 0.136867f, -0.109020f, -0.019699f, 0.103155f, 0.087627f, 0.073783f, 0.127219f, -0.032920f, -0.236689f, -0.096389f, -0.092885f, -0.002957f, 0.448512f, 0.113994f, -0.469390f, -2.113556f, 0.017014f, 0.023020f, -0.190602f, -0.182357f, -0.129444f, -0.069078f, 0.083608f, 0.480080f, 0.098441f, 0.082032f, -0.018168f, 0.507741f, 0.416072f, -1.320684f, -0.020916f, 0.500042f, -0.227631f, 0.291402f, -0.219403f, 0.057116f, 0.107778f, -0.093005f, 0.313763f, -3.327503f, 0.124675f, 0.592742f, 0.334653f, 0.045248f, 0.099417f, 0.295907f, -0.161923f, 0.173835f, -1.436371f, -0.177313f, -3.485633f, 0.009299f, 0.095741f, -0.004299f, -0.126342f, -0.114489f, 0.077150f, 0.072758f, 0.313333f, 0.214509f, 0.574383f, 0.026270f, 0.121962f, -0.552662f, 0.198377f, -0.223091f, 0.028344f, -0.122807f, 0.078058f, 0.146465f, -0.028179f, -0.191184f, -0.153336f, -0.460667f, -0.007918f, -0.052549f, -0.049003f, -0.005024f, -0.167564f, -0.291776f, 0.165764f, 0.106316f, -0.048848f, -0.001166f, 0.126875f, -0.079811f, -0.009245f, 0.173878f, -0.097399f, -0.055126f, 0.007529f, -0.151849f, 0.032853f, -0.096323f, 0.033367f, -0.284738f, 0.163959f, -0.061789f, -0.170938f, 0.103520f, 0.052978f, 0.108407f, -0.088423f, -0.323206f, -0.137529f, -0.144899f, -0.049989f, -0.055565f, -0.180302f, -0.090063f, 0.127860f, -0.076858f, -0.174039f, 0.038622f, -1.438403f, -0.024570f, -0.048250f, 0.148355f, 0.161751f, 0.038629f, -0.147068f, -0.162577f, 0.091635f, 0.367041f, 0.042725f, -0.050327f, -0.225405f, -0.301665f, -0.004074f, -0.187004f, -0.081578f, -0.196918f, -0.126541f, 0.103824f, 0.052860f, -0.099874f, -0.064631f, 0.239536f, -0.135026f, 0.084732f, 0.383914f, -0.221253f, -0.205192f, -0.413080f, 0.015884f, -0.082109f, 0.125585f, 0.137173f, 0.019130f, 0.030875f, 0.144652f, 0.434355f, -0.137535f, -0.084858f, 0.046763f, 0.038861f, 0.068806f, -0.340113f, -0.013575f, 0.088738f, 0.022232f, 0.206169f, -0.035101f, -0.085134f, 0.001653f, 0.093927f, 0.166679f, -0.266382f, -0.154432f, 0.305536f, 0.130591f, 0.170115f, 0.354725f, -0.065883f, -0.027703f, 0.061707f, -0.273135f, -0.099273f, -1.276417f, 0.067082f, -0.154954f, -0.014322f, 0.216908f, -0.160652f, 0.167516f, -0.190897f, 0.166391f, -0.012375f, 0.348110f, 0.194538f, 0.097361f, -0.283381f, -0.197782f, -0.129128f, 0.140558f, -0.159896f, -0.157658f, -0.175946f, 0.082500f, 0.029726f, -0.220614f, -0.873641f, -0.127100f, 0.015853f, -0.148016f, -0.108689f, -0.097527f, 0.393922f, 0.048484f, -0.088831f, 0.052880f, -0.099747f, 0.087160f, -0.036444f, -0.163739f, -0.070689f, -0.122767f, -0.255482f, 0.012195f, 0.134906f, 0.155841f, -0.039960f, -0.114582f, -0.807290f, -0.329644f, 0.042531f, -0.151609f, -0.023359f, -0.073612f, -0.176655f, -0.211551f, 0.241645f, -0.033411f, -0.307491f, 0.102371f, 0.020634f, -0.146881f, 0.124498f, -0.202221f, -0.203718f, 0.318732f, 0.090181f, 0.493648f, 0.146313f, -0.009888f, -0.175694f, 0.085989f, -0.075207f, -0.276113f, -0.068029f, -0.046301f, 0.037000f, -0.161938f, -0.261806f, -0.220962f, 0.282470f, -0.275368f, 0.068976f, -0.060372f, -0.143018f, 0.009369f, -0.068037f, -0.140529f, 0.006172f, -0.149186f, 0.006988f, 0.148147f, 0.056758f, -0.149341f, 0.084899f, 0.212015f, 0.090036f, -0.072773f, -0.193310f, -0.035890f, -0.125733f, 0.056705f, -0.186619f, -0.102434f, -0.086499f, -0.178546f, 0.154941f, -0.023257f, -0.048000f, 0.185781f, 0.048656f, -0.006631f, -0.249951f, -0.180685f, 0.017691f, -0.040711f, 0.081586f, -0.019474f, 0.171243f, 0.055455f, 0.154325f, -0.023605f, -0.206980f, -0.274983f, -0.020716f, 0.037458f, -0.103676f, -0.208749f, 0.274595f, 0.198892f, -0.128386f, 0.313104f, 0.004321f, -0.161768f, -0.068375f, -0.106802f, 0.166023f, 0.007599f, -0.106013f, 0.104261f, -0.291388f, -0.087003f, -0.054973f, 0.060227f, 0.266034f, -0.112530f, -0.187424f, 0.034426f, 0.102195f, -0.091715f, -0.145253f, 0.098603f, -0.186149f, 0.008868f, 0.077411f, 0.069293f, 0.115591f, -0.376482f, 0.059038f, 0.155349f, 0.217284f, -0.086526f, 0.079710f, 0.038505f, 0.160520f, -0.039868f, -0.154207f, -0.216755f, -0.071190f, -0.029232f, -0.191857f, -0.138210f, 0.115677f, 0.002547f, 0.072215f, -0.113554f, -0.480602f, 0.124508f, 0.032745f, -0.101145f, 0.023677f, -0.132754f, 0.141351f, -0.143900f, -0.059309f, 0.178567f, -0.043649f, 0.056656f, -0.198260f, -0.054672f, -0.052597f, 0.133962f, -0.118152f, -0.075192f, -0.082108f, -0.020357f, -0.059563f, -0.195572f, -0.096700f, -0.135471f, 0.178758f, 0.163812f, 0.146420f, -0.294009f, -0.037020f, 0.039891f, 0.124323f, 0.009670f, 0.087494f, 0.104978f, 0.076377f, -0.055746f, 0.126568f, 0.122414f, -0.206804f, -0.151002f, -0.166236f, -0.021624f, -0.214919f, -0.229381f, -0.005781f, 0.195222f, 0.149363f, -0.086142f, 0.036820f, -0.140965f, 0.099709f, 0.031115f, -0.072050f, -0.006851f, -0.159438f, -0.003283f, -0.239958f, 0.034546f, -0.459348f, -0.451989f, 0.106294f, 0.286799f, 0.152168f, -0.051612f, 0.304905f, 0.181690f, -0.132789f, -0.255325f, 0.076582f, 0.175363f, 0.039980f, -0.135675f, 0.068331f, -0.014519f, 0.289199f, 0.199073f, 0.053384f, -0.441290f, 0.233812f, 0.155835f, -0.266664f, 0.095940f, -0.057361f, -0.217182f, 0.039329f, -0.008158f, 0.045776f, -0.093634f, -0.118421f, -0.470846f, -0.099688f, -0.559335f, -0.014108f, 0.353393f, -0.461135f, -0.102131f, -0.283985f, 0.068249f, 0.075606f, 0.003882f, -0.167147f, 0.096217f, -0.186102f, -0.187446f, -0.134225f, -0.086839f, 0.444672f, -0.182143f, -0.111280f, 0.101667f, -0.145725f, -0.338328f, -0.116684f, 0.052722f, -0.108899f, -0.027064f, 0.021359f, -0.159085f, 0.020618f, -0.197577f, -0.392634f, 0.111226f, 0.603957f, 0.136677f, 0.071878f, -0.134131f, -0.079629f, -0.202391f, 0.107972f, 0.321154f, 0.131617f, 0.415992f, -0.515331f, 0.150866f, -0.075101f, -0.025776f, 0.114536f, -0.164193f, 0.108777f, -0.301150f, -0.104046f, 0.425000f, -1.170485f, -0.083463f, 0.247833f, -0.317589f, -0.121695f, 0.200479f, -0.175280f, -0.187398f, 0.097693f, -0.158628f, -0.103774f, 0.603832f, 0.050811f, -0.532023f, -0.246914f, -0.102237f, 0.481912f, -0.089002f, 0.207788f, -0.172120f, 0.073266f, 0.144749f, -0.155568f, -0.017029f, -0.194220f, -0.129371f, -0.131683f, -0.137570f, 0.001780f, 0.223277f, -0.131267f, 0.011030f, -0.220629f, -0.005939f, 0.075041f, -0.075787f, -0.180724f, 0.046201f, -0.077065f, 0.156064f, -0.076327f, 0.154889f, 0.130082f, -0.149376f, 0.174920f, -0.145731f, -0.071657f, 0.047927f, -0.148037f, -0.040956f, 0.039142f, 0.067641f, 0.199030f, 0.008167f, 0.036234f, -0.069539f, -0.184263f, -0.010499f, -0.135046f, 0.020333f, -0.228411f, -0.208067f, -0.111869f, 0.060376f, -0.015876f, -0.182642f, 0.201747f, 0.079517f, 0.070092f, -0.199553f, 0.074915f, 0.095786f, 0.032542f, 0.184105f, -0.109421f, 0.208498f, -0.087722f, 0.106890f, -0.328574f, -0.205247f, -0.078208f, -0.047720f, -0.108724f, -0.001511f, 0.054745f, -0.089575f, 0.134717f, -0.200115f, -0.160945f, 0.042767f, 0.158613f, -0.210245f, -0.120209f, -0.265562f, 0.156856f, -0.180493f, -0.074776f, 0.029060f, 0.016166f, 0.165060f, 0.012325f, 0.073550f, -0.163268f, 0.083793f, 0.142410f, 0.013792f, -0.113887f, -0.105297f, 0.164724f, 0.186665f, -0.100373f, -0.110342f, -0.039539f, 0.043345f, 0.130228f, -0.123886f, 0.244963f, 0.032359f, -0.353998f, -0.145277f, -0.136747f, -0.223415f, 0.021813f, -0.167930f, -0.161802f, -0.277666f, -0.200919f, 0.212428f, 0.149339f, -0.216249f, 0.110736f, 0.078676f, -0.065743f, -0.203960f, -0.241267f, 0.004533f, -0.178486f, -0.083044f, -0.000547f, 0.243015f, 0.009761f, 0.236716f, -0.154144f, 0.041472f, -0.008729f, -0.057914f, 0.047577f, 0.137365f, 0.018693f, 0.021459f, -0.151288f, -0.047977f, -0.142855f, 0.151735f, 0.058865f, -0.171866f, -0.046479f, 0.066790f, -0.164313f, 0.173553f, 0.131890f, -0.106882f, 0.116088f, 0.126894f, 0.038317f, -0.057586f, 0.107326f, -0.183178f, 0.181550f, -0.116547f, 0.096711f, 0.012989f, -0.061067f, -0.068206f, 0.003616f, 0.146150f, -0.065981f, -0.083981f, 0.015079f, -0.195091f, 0.108220f, 0.172814f, 0.128892f, 0.012610f, 0.187287f, -0.097666f, 0.130230f, 0.024714f, -0.062516f, -0.071769f, -0.179677f, -0.242054f, -0.199408f, -0.126799f, -0.087681f, -0.059361f, -0.109374f, 0.036473f, -0.002797f, 0.007286f, 0.039334f, -0.228701f, -0.129580f, -0.042349f, 0.099654f, -0.211039f, -0.005461f, 0.058960f, 0.015798f, 0.152824f, 0.095576f, -0.067350f, 0.149481f, -0.010237f, 0.144150f, 0.053451f, -0.084619f, -0.059716f, -0.115089f, -0.141421f, 0.261391f, -0.044752f, -0.013422f, -0.059512f, 0.125765f, -0.081352f, 0.008172f, -0.170936f, -0.185086f, 0.029557f, -0.030652f, 0.153803f, 0.009356f, 0.059201f, 0.127262f, 0.082207f, 0.171358f, 0.314143f, -0.078003f, -0.063154f, -0.173495f, -0.005060f, -0.182888f, -0.202821f, -0.036640f, 0.097423f, -0.066985f, -0.007288f, 0.052331f, 0.102724f, 0.148916f, 0.128481f, -0.195212f, -0.205891f, -0.038788f, 0.009895f, -0.024411f, -0.022698f, 0.219219f, 0.209397f, -0.031881f, -0.032130f, -0.077537f, 0.016156f, 0.112195f, 0.023818f, -0.169533f, -0.015903f, 0.103211f, 0.113837f, -0.079975f, -0.128724f, 0.299115f, -0.195349f, 0.147121f, 0.262396f, 0.125130f, -0.110532f, -0.132938f, -0.005772f, -0.056467f, -0.073346f, 0.179852f, -0.265296f, -0.951474f, -0.176163f, -0.154555f, 1.376774f, 0.100534f, 2.085846f, -5.971429f, 0.152394f, 0.045039f, -0.065506f, -0.007574f, -0.088548f, -0.005608f, 0.128297f, 0.503051f, 0.041678f, -0.183638f, -0.333071f, 1.199786f, 1.955811f, -2.300214f, 0.146616f, 1.305692f, -0.829284f, -2.591823f, -1.645665f, 1.860214f, 0.162365f, -0.108854f, 0.199386f, -6.262909f, -0.001908f, 1.388059f, 0.467998f, -0.133878f, -0.849848f, 0.872685f, 1.147108f, -0.330703f, -4.635869f, 0.051024f, -5.888238f, 0.369627f, -0.026410f, -0.094221f, -2.901820f, -0.129094f, -0.394571f, 0.045373f, -0.171612f, 0.630098f, 1.562874f, -0.555552f, 0.075576f, -1.621251f, 0.286910f, 0.076921f, -0.044924f, -0.060899f, 0.029095f, -0.147032f, 0.161644f, -0.174342f, -0.150393f, -1.769610f, 0.029606f, 0.022488f, 0.189047f, 0.090655f, 0.230783f, -0.871181f, -0.125888f, 0.095600f, -0.086207f, -0.036961f, -0.027186f, 0.055328f, -0.074722f, 0.144950f, -0.035027f, -0.235144f, 0.194922f, -0.266700f, 0.128951f, -0.317761f, -0.132402f, -0.093826f, 0.150843f, -0.779776f, -1.079635f, 0.285401f, 0.053701f, 0.138760f, 0.029292f, -1.282564f, 0.060031f, -0.570431f, 0.185468f, -0.103540f, -0.489426f, 0.404284f, 0.042081f, -0.514433f, -0.609117f, -0.170810f, -2.421961f, -0.092612f, -0.096030f, -0.114964f, -0.378778f, 0.112091f, -0.351424f, -0.069959f, -0.063146f, 0.352238f, 0.078492f, -0.811519f, -0.062333f, -0.717699f, 0.130004f, -0.069420f, -0.150649f, 0.027854f, 0.054138f, -0.121743f, 0.137340f, -0.048534f, -0.379297f, -0.637098f, -0.159010f, -0.163801f, 0.816881f, -0.028722f, 0.923222f, -1.481009f, -0.104035f, 0.012597f, -0.230140f, 0.079833f, -0.032109f, 0.075993f, -0.094903f, 0.508853f, 0.115782f, -0.355315f, -0.017648f, 0.642380f, 0.839340f, -0.596331f, -0.029555f, 0.778982f, 0.162424f, -1.056805f, -0.751202f, 0.912543f, 0.108741f, 0.067463f, 0.152197f, -1.695709f, 0.155793f, 0.744576f, 0.409106f, 0.173006f, -0.370623f, 0.501892f, 0.532486f, -0.284211f, -1.166613f, 0.170388f, -2.940485f, 0.043221f, -0.030702f, 0.091830f, -0.985642f, -0.085523f, -0.158184f, 0.167660f, -0.116781f, 0.407961f, 0.589165f, -0.414534f, -0.186313f, -0.702654f, -0.020850f, -0.170231f, -0.002924f, 0.096092f, 0.034321f, 0.050938f, 0.078400f, -0.043048f, -0.302144f, -1.527121f, -0.006801f, 0.140807f, -0.326785f, -0.039930f, 0.127037f, 0.409475f, -0.010638f, 0.126033f, 0.017839f, -0.110677f, -0.156898f, 0.080349f, -0.049348f, 0.138188f, -0.071152f, -0.463928f, 0.027029f, 0.188078f, 0.201911f, 0.083161f, 0.169218f, -0.558841f, -0.335319f, 0.021455f, -0.583156f, 0.265044f, -0.135028f, -0.183567f, -0.099537f, 0.373211f, -0.030771f, -0.096011f, -0.057474f, -0.137090f, -0.142227f, 0.251338f, 0.013740f, -0.254091f, 0.129434f, 0.121229f, 0.360748f, 0.029042f, -0.230254f, -0.189013f, -0.043008f, 0.190808f, -0.075668f, 0.158212f, -0.156992f, 0.241643f, 0.086142f, -0.795868f, -0.012066f, 0.009006f, -0.064693f, -0.146388f, -0.074533f, -0.027805f, -0.178288f, -0.018676f, -0.055572f, 0.104837f, -0.182155f, 0.108363f, 0.166900f, 0.018190f, -0.257840f, -0.198105f, -0.094485f, 0.174434f, 0.159763f, 0.092415f, 0.157733f, 0.138516f, 0.147080f, -0.073411f, -0.070727f, 0.011778f, -0.191365f, 0.019565f, 0.161720f, -0.103425f, -0.126210f, 0.048692f, -0.180221f, -0.520408f, 0.000041f, 0.084726f, 0.305447f, -0.092845f, 0.047782f, 0.061174f, -0.268152f, 0.353270f, 0.066726f, -0.123957f, -0.155541f, 0.036348f, 0.131107f, -0.107187f, -0.193312f, 0.033946f, -0.070504f, -0.114036f, 0.122767f, -0.088366f, 0.087488f, -0.135423f, -0.095574f, -0.065062f, 0.195639f, 0.024460f, 0.146843f, 0.043230f, 0.034280f, 0.043298f, -0.124865f, 0.148979f, 0.149574f, -0.002478f, -0.144087f, -0.001434f, -0.012659f, 0.017273f, -0.084978f, 0.123587f, -0.132950f, 0.126580f, -0.004294f, -0.222121f, -0.436343f, 0.135908f, -0.106139f, 0.001993f, -0.176454f, 0.143438f, 0.020188f, 0.100799f, -0.074011f, -0.092587f, 0.051886f, 0.044926f, -0.138152f, -0.133508f, 0.033616f, 0.085508f, 0.261216f, 0.190880f, -0.179333f, -0.235966f, 0.034945f, 0.001997f, 0.134636f, 0.194415f, -0.110427f, 0.079055f, 0.103867f, 0.256029f, -0.037812f, 0.077987f, -0.076993f, 0.004093f, 0.216051f, -0.149560f, 0.041744f, 0.165208f, 0.019935f, -0.177581f, 0.317161f, 0.011082f, -0.176719f, 0.107472f, 0.006327f, -0.053317f, 0.044995f, 0.007618f, -0.061852f, -0.100764f, 0.060049f, 0.117434f, -0.175355f, 0.129757f, 0.211444f, 0.123004f, -0.058326f, -0.190676f, 0.001863f, 0.094929f, -0.197722f, -0.062076f, -0.147050f, -0.282393f, -0.225090f, 0.163737f, 0.245960f, -0.164137f, 0.046355f, 0.026403f, -0.206694f, -0.022879f, -0.234211f, -0.183866f, -0.110162f, -0.142985f, 0.042931f, -0.351092f, 0.109711f, -0.433976f, -0.280478f, 0.042360f, 0.160542f, 0.037466f, 0.128263f, 0.165765f, -0.071701f, -0.180948f, -0.494662f, 0.219784f, -0.019362f, 0.026229f, -0.036756f, 0.079627f, 0.037076f, 0.196214f, -0.110757f, -0.090128f, -0.556254f, 0.070035f, 0.054359f, -0.613686f, -0.104555f, -0.096315f, -0.096973f, 0.086344f, 0.055986f, -0.140439f, 0.153852f, -0.082348f, -0.599431f, -0.047377f, -0.524999f, 0.309524f, 0.426183f, -0.296949f, 0.039285f, -0.303857f, 0.201638f, -0.115133f, -0.056374f, -0.057083f, -0.036957f, 0.009456f, 0.125952f, -0.069378f, -0.136152f, 0.610828f, -0.226093f, -0.203406f, 0.079017f, 0.025031f, -0.436103f, -0.062480f, -0.148146f, -0.092873f, -0.230495f, 0.190178f, 0.105836f, -0.193240f, -0.133201f, -0.370691f, -0.028698f, 0.537600f, 0.300958f, -0.099493f, -0.339997f, 0.190930f, 0.113544f, -0.036740f, 0.289127f, 0.097393f, 0.480898f, -0.543506f, -0.082200f, 0.062843f, -0.051646f, -0.015822f, 0.086841f, 0.197392f, -0.143139f, -0.157393f, 0.347317f, -1.401365f, -0.198877f, 0.730834f, -0.127356f, 0.012490f, 0.294473f, -0.201367f, -0.047090f, 0.130228f, -0.224400f, 0.035786f, 0.841411f, 0.008705f, -0.183218f, -0.372082f, -0.124022f, 0.395266f, -0.184721f, 0.605135f, -0.100015f, -0.182591f, 0.117748f, -0.225433f, 0.155451f, 0.039064f, 0.122468f, 0.101827f, 0.154876f, 0.021722f, -0.252905f, -0.123081f, 0.003652f, -0.056919f, 0.007217f, 0.089521f, 0.080104f, 0.042085f, -0.199241f, 0.050785f, 0.069547f, 0.008746f, -0.100479f, 0.107679f, 0.037494f, 0.239595f, 0.044911f, -0.154387f, -0.072950f, 0.090672f, -0.094722f, 0.016619f, -0.024074f, 0.118746f, -0.099584f, -0.236827f, -0.096805f, 0.061267f, -0.161309f, 0.145267f, 0.004763f, -0.070564f, -0.060479f, -0.092422f, 0.286801f, 0.013700f, -0.089484f, 0.318463f, 0.167437f, -0.137256f, 0.046319f, -0.061377f, 0.107363f, 0.070305f, -0.080710f, -0.172864f, 0.250769f, -0.028771f, -0.055364f, -0.150485f, -0.028198f, -0.083326f, -0.088181f, -0.017786f, -0.056381f, -0.217939f, 0.103318f, -0.186394f, -0.088879f, 0.102484f, -0.000172f, 0.023170f, 0.012836f, -0.214119f, 0.168864f, -0.124872f, 0.068871f, 0.004367f, -0.068454f, 0.030770f, 0.172786f, 0.146189f, -0.196275f, 0.037452f, 0.131232f, 0.076047f, -0.074479f, 0.259243f, -0.110996f, 0.016476f, 0.203442f, -0.078376f, -0.058209f, 0.171882f, -0.024027f, 0.074903f, 0.086906f, 0.268430f, 0.234035f, -0.077285f, -0.191502f, 0.050897f, -0.095158f, 0.063039f, -0.198275f, 0.041312f, -0.112526f, 0.012062f, 0.165172f, -0.116773f, -0.245867f, 0.223340f, 0.051194f, 0.172004f, -0.202679f, 0.006361f, -0.200326f, 0.161133f, 0.180213f, -0.011604f, 0.276409f, -0.044009f, 0.029244f, -0.195555f, -0.333541f, -0.071359f, 0.049525f, 0.176335f, -0.095554f, 0.021953f, -0.037152f, -0.112906f, 0.044611f, 0.124447f, -0.109527f, -0.120163f, 0.088102f, -0.184919f, -0.064582f, -0.192836f, 0.014628f, -0.068280f, 0.038176f, 0.156323f, 0.163928f, -0.049118f, 0.048940f, 0.055411f, 0.017705f, -0.145286f, 0.100172f, -0.175798f, -0.169805f, 0.033882f, -0.130112f, 0.145014f, 0.051176f, 0.079677f, 0.111827f, 0.068299f, 0.088217f, -0.113330f, -0.096132f, 0.107199f, 0.169984f, -0.164779f, -0.051247f, -0.000373f, 0.028574f, -0.125050f, -0.142240f, -0.093790f, 0.034642f, -0.072376f, 0.053568f, -0.065643f, 0.007314f, 0.095865f, 0.088843f, -0.228192f, 0.012608f, 0.013845f, -0.069140f, -0.004168f, -0.105550f, -0.166646f, 0.100264f, -0.014262f, -0.094380f, -0.022887f, 0.109322f, 0.035155f, -0.093452f, -0.097242f, -0.001431f, 0.063036f, 0.119519f, -0.098648f, -0.177146f, -0.197686f, -0.089222f, 0.329268f, -0.011287f, 0.008689f, 0.043994f, -0.043431f, 0.010763f, 0.203655f, 0.152226f, 0.042743f, 0.018820f, -0.090093f, 0.019435f, -0.178230f, 0.003071f, -0.007271f, 0.141709f, 0.224955f, 0.270763f, -0.004144f, -0.107742f, -0.029510f, 0.110825f, -0.041141f, 0.076361f, -0.196203f, 0.233078f, -0.090446f, -0.042273f, 0.078096f, -0.143350f, 0.098136f, 0.101146f, 0.063139f, 0.055001f, 0.000253f, 0.172497f, 0.034128f, 0.211331f, 0.133975f, -0.041065f, 0.092124f, 0.086555f, 0.001756f, 0.052353f, -0.136524f, -0.055018f, 0.016612f, 0.100700f, -0.067048f, 0.110773f, -0.078366f, -0.029530f, 0.224181f, -0.107784f, 0.171641f };
static const float emlearnModel_layer_1_biases[32] = { -0.033849f, -0.118670f, -0.207786f, 0.013562f, -0.112901f, 0.307655f, -0.114534f, 0.178259f, -0.078959f, 0.175982f, -0.247797f, -0.224703f, -0.168412f, -0.112281f, 0.292863f, 0.458829f, -0.123300f, 0.110341f, 0.012083f, 0.107404f, 0.221346f, 0.188332f, -0.473613f, -0.065745f, 0.324650f, -0.263692f, 0.262474f, 0.002133f, 0.223123f, 0.024046f, -0.207110f, 0.205885f };
static const float emlearnModel_layer_1_weights[2048] = { -0.069597f, 0.027161f, 0.002260f, 0.053004f, -0.024905f, 0.022211f, -0.085038f, 0.101809f, 0.010255f, -0.030201f, 0.078394f, -0.151513f, 0.016550f, -0.040745f, -0.294134f, 0.013362f, -0.196698f, -0.041874f, -0.015626f, 0.005741f, -0.027150f, -0.779183f, 0.092383f, -0.229353f, 0.044574f, 0.138459f, -0.021247f, -0.001396f, -0.066846f, -0.062167f, -0.273240f, -0.000792f, -0.209913f, 0.064246f, -0.133388f, 0.093326f, 0.081288f, -0.002931f, 0.045976f, -0.131837f, 0.087078f, -0.249747f, 0.051889f, 0.172248f, 0.048009f, -0.132683f, -0.044143f, -0.084731f, 0.008446f, 0.127857f, -0.098148f, 0.019830f, 0.189934f, 0.213367f, 0.175448f, 0.007618f, 0.066471f, -0.196416f, -0.160256f, -0.154847f, 0.119984f, 0.220634f, 0.064512f, 0.192016f, -0.026418f, -0.099751f, 0.138205f, 0.084755f, 0.027466f, 0.154954f, 0.098446f, -0.077817f, -0.038525f, 0.192362f, 0.142638f, 0.204321f, -0.016152f, -0.058106f, -0.011070f, 0.078124f, 0.087936f, 0.078670f, -0.205488f, 0.059682f, -0.128156f, -0.199062f, -0.163980f, 0.199774f, -0.037426f, 0.190114f, -0.204335f, -0.105786f, 0.184970f, 0.177319f, -0.183527f, 0.103028f, 0.132180f, -0.147215f, -0.242900f, 0.075495f, -0.023291f, -0.180272f, 0.102535f, 0.047399f, -0.125345f, -0.181355f, 0.087426f, -0.032452f, 0.189027f, 0.184113f, 0.035720f, -0.109149f, 0.149434f, 0.030693f, 0.164956f, -0.107900f, -0.041905f, -0.229162f, 0.110287f, 0.175204f, -0.074065f, 0.198052f, -0.155686f, 0.129637f, -0.167872f, 0.033440f, -0.069775f, 0.027715f, -0.061939f, 0.032899f, 0.076592f, -0.216281f, 0.222284f, 0.134577f, 0.082164f, 0.064812f, -0.252288f, 0.114138f, 0.204836f, -0.195098f, 0.195177f, -0.054634f, 0.089234f, 0.131614f, -0.168743f, 0.025465f, 0.021924f, -0.151801f, -0.211400f, -0.138113f, 0.129193f, 0.210849f, -0.029697f, 0.017407f, -0.118709f, 0.205583f, 0.135124f, -0.055336f, -0.056754f, 0.044669f, -0.159976f, -0.205057f, -0.095053f, -0.275666f, 0.147086f, -0.045229f, 0.095566f, -0.095264f, 0.237011f, -0.058164f, 0.227054f, 0.061269f, 0.000227f, -0.003639f, -0.152894f, 0.184441f, -0.065742f, 0.229980f, 0.085581f, 0.185129f, -0.172499f, -0.321636f, 0.033102f, -0.184030f, -0.021577f, 0.174172f, 0.069137f, -0.137060f, -0.157622f, -0.022755f, -0.097751f, -0.057339f, 0.182343f, -0.156347f, -0.112100f, 0.230946f, -0.200255f, -0.158151f, -0.229464f, 0.202602f, 0.211947f, -0.090538f, -0.241802f, -0.215317f, 0.049455f, 0.145698f, 0.112995f, -0.032295f, -0.137105f, 0.242463f, 0.107310f, 0.083814f, -0.222278f, 0.163232f, 0.256306f, 0.160338f, -0.188240f, 0.003132f, 0.092719f, -0.192454f, -0.113629f, -0.073415f, 0.199362f, 0.108381f, 0.184913f, 0.035816f, -0.133914f, 0.144703f, -0.059491f, -0.091182f, 0.223150f, -0.059565f, -0.153405f, 0.055746f, -0.259195f, 0.178662f, 0.137943f, -0.191704f, 0.229821f, -0.035621f, 0.036731f, -0.229845f, 0.118644f, 0.184670f, -0.290493f, 0.042152f, 0.077128f, 0.062165f, 0.144357f, -0.059164f, -0.150257f, -0.151228f, -0.069647f, -0.018534f, -0.191759f, 0.130280f, -0.132039f, 0.206072f, -0.171730f, -0.161569f, -0.192732f, -0.127761f, -0.016045f, -0.102107f, -0.159360f, -0.211557f, 0.109437f, 0.090095f, -0.092396f, 0.045824f, 0.187557f, -0.056836f, 0.021527f, 0.026874f, -0.274570f, -0.141922f, -0.134450f, 0.120563f, -0.101783f, -0.248090f, 0.194041f, -0.118763f, -0.136273f, -0.238687f, -0.025570f, -0.004129f, -0.090915f, 0.072984f, -0.497092f, 0.465371f, -0.079594f, 0.227619f, -0.114160f, -0.165486f, 0.293623f, 0.239621f, -0.024830f, -0.082611f, 0.011332f, 0.065259f, 0.081936f, 0.088098f, 0.016391f, 0.012676f, -0.078664f, -0.445514f, -0.373815f, 0.724043f, 0.239796f, -0.536083f, 0.310108f, 0.030498f, -0.749185f, 0.210667f, -0.036479f, 0.077696f, -0.610413f, 0.298123f, -0.005079f, -0.545543f, 0.132805f, -0.014161f, 0.175988f, 0.137825f, 0.051655f, 0.041471f, 0.166504f, -0.013059f, 0.044757f, -0.073055f, -0.029690f, -0.050597f, 0.099831f, -0.043069f, 0.163784f, -0.051449f, 0.057591f, 0.188282f, 0.015718f, 0.016243f, -0.152368f, -0.081336f, 0.286615f, -0.049557f, 0.035332f, 0.316870f, -0.095599f, -0.261733f, 0.109913f, 0.238914f, -0.082615f, 0.049110f, 0.103879f, -0.105681f, -0.178870f, -0.148426f, 0.219559f, -0.211555f, -0.262739f, 0.251458f, -0.112696f, -0.170598f, 0.107273f, 0.103470f, 0.058170f, 0.013833f, -0.039524f, -0.102853f, -0.241138f, 0.216162f, 0.226301f, 0.105277f, -0.240719f, -0.146385f, -0.260017f, -0.015751f, -0.072792f, -0.016985f, -0.237271f, 0.210012f, 0.071897f, 0.102827f, 0.018017f, -0.215136f, -0.341049f, -0.137244f, -0.187560f, -0.063102f, -0.260594f, 0.076842f, -0.276042f, -0.034074f, -0.198741f, 0.058405f, -0.225262f, 0.038518f, -0.173889f, -0.026849f, -0.349525f, -0.086246f, -0.206958f, 0.008906f, -0.126467f, -0.107277f, 0.187229f, -0.400048f, 0.075256f, -0.193035f, 0.188945f, 0.388787f, -0.025228f, -0.009827f, 0.070250f, -0.073607f, -0.054079f, 0.045250f, -0.154600f, -0.168124f, 0.048372f, 0.091160f, 0.237809f, -0.224317f, 0.046051f, -0.162957f, -0.257659f, -0.022601f, 0.233678f, -0.127822f, 0.071386f, -0.142433f, -0.236585f, -0.203648f, 0.159846f, 0.063150f, -0.169608f, -0.076869f, 0.161115f, -0.011234f, -0.223091f, -0.090491f, -0.065875f, -0.099396f, -0.020853f, -0.064922f, -0.096194f, -0.077982f, 0.005946f, -0.177420f, -0.381533f, -0.428019f, -0.171016f, -0.238012f, -0.161060f, 0.070171f, -0.808226f, -0.274882f, -0.479345f, 0.017005f, -0.140870f, -0.060644f, -0.235436f, 0.065828f, 0.317602f, -0.398605f, -0.313722f, 0.114124f, 0.229635f, -0.314579f, -0.043305f, -0.008641f, 0.139602f, -0.259369f, 0.222051f, 0.111193f, -0.073432f, -0.031781f, 0.168192f, -0.009665f, -0.243450f, 0.078024f, -0.571715f, 0.299761f, -0.139985f, -0.201484f, -0.202199f, -0.691615f, -0.242484f, -0.076573f, -1.322335f, -0.151816f, -0.140692f, 0.000116f, 0.072447f, -0.233421f, 0.135881f, 0.012858f, -0.679684f, -0.498674f, -0.088079f, 0.373087f, -0.119282f, -1.207006f, -0.112728f, -0.596955f, -0.141158f, -0.417585f, -0.840005f, -0.029045f, -1.596193f, 0.095533f, -0.007867f, -0.475840f, 0.072711f, -0.024008f, -0.184892f, 0.074272f, -0.142898f, 0.121836f, 0.092969f, 0.017140f, -0.033684f, -0.106702f, -0.003743f, -0.045341f, 0.047237f, -0.051882f, 0.091460f, 0.207484f, 0.209110f, 0.151253f, -0.200912f, -0.121646f, 0.186745f, -0.037513f, 0.089926f, -0.244517f, 0.083357f, 0.017239f, -0.112430f, 0.086241f, 0.193648f, 0.026700f, -0.051999f, 0.122312f, -0.016391f, -0.130539f, -0.102804f, 0.137257f, -0.248990f, 0.237174f, -0.026073f, -0.037742f, -0.048043f, 0.138762f, 0.203373f, 0.009905f, 0.210059f, -0.107535f, -0.202745f, 0.052719f, -0.180656f, 0.107996f, 0.118806f, 0.043757f, 0.135958f, -0.079258f, 0.029733f, -0.093066f, 0.121212f, -0.195255f, -0.188740f, 0.004115f, -0.023944f, -0.131876f, 0.028444f, -0.073997f, -0.151706f, 0.143581f, -0.182755f, -0.058259f, 0.150571f, -0.105354f, -0.063648f, -0.146989f, -0.198148f, -0.020464f, -0.058346f, 0.041387f, -0.122983f, 0.065129f, 0.096760f, -0.121316f, 0.056770f, -0.028205f, -0.036858f, -0.020612f, -0.083740f, -0.086827f, 0.027512f, -0.257525f, 0.229609f, -0.197625f, -0.138978f, -0.105737f, 0.003357f, -0.077498f, 0.056018f, -0.067850f, 0.170551f, 0.042320f, -0.127013f, -0.111524f, -0.005864f, 0.124284f, -0.205499f, -0.211796f, 0.113254f, 0.088620f, 0.169703f, -0.118287f, -0.067576f, -0.024684f, 0.049872f, 0.140847f, 0.230970f, -0.076209f, 0.190454f, 0.095325f, 0.156766f, -0.138068f, -0.060998f, -0.001783f, -0.110070f, 0.168532f, 0.069800f, -0.012435f, 0.193686f, -0.077283f, -0.166409f, -0.106381f, -0.038287f, 0.115704f, -0.042434f, -0.091956f, -0.139343f, -0.012112f, 0.110316f, 0.156773f, -0.193213f, -0.120466f, 0.229218f, -0.005580f, 0.116188f, -0.239074f, 0.209114f, -0.135976f, -0.048936f, -0.228083f, 0.152943f, 0.198383f, -0.126531f, 0.000798f, 0.001342f, -0.112570f, 0.165614f, -0.099131f, -0.015845f, -0.110454f, -0.015600f, -0.175061f, 0.208430f, 0.029570f, -0.106498f, 0.249353f, 0.179547f, -0.131846f, 0.239485f, -0.001891f, 0.028536f, 0.153180f, -0.005920f, 0.106018f, -0.241928f, -0.164484f, -0.247501f, 0.146509f, 0.216332f, -0.040259f, -0.201981f, 0.186473f, -0.144778f, 0.053824f, -0.056279f, -0.108011f, 0.175273f, -0.240121f, 0.231341f, 0.184200f, 0.099660f, 0.118636f, 0.131044f, 0.228792f, -0.222706f, 0.097819f, -0.056335f, 0.026293f, 0.019907f, -0.166266f, 0.066113f, 0.182663f, 0.043779f, 0.195758f, -0.189885f, -0.101131f, 0.145564f, 0.193372f, 0.005272f, 0.122658f, -0.028526f, 0.219323f, -0.005288f, -0.247238f, 0.027594f, -0.000635f, -0.169242f, 0.002855f, -0.081825f, 0.194027f, 0.056373f, -0.146113f, 0.057340f, -0.130407f, 0.154203f, -0.208961f, 0.021467f, -0.008641f, 0.104838f, -0.068716f, -0.009210f, 0.242869f, 0.007045f, 0.033226f, -0.001319f, -0.071012f, 0.044632f, -0.050392f, -0.201676f, -0.263286f, -0.128796f, -0.142940f, -0.003135f, -0.057939f, -0.072755f, 0.015221f, -0.069304f, -0.755404f, -1.841366f, -0.966768f, -0.071049f, -0.025483f, -0.009009f, 0.275312f, 0.029875f, -0.946051f, 0.142245f, 0.197783f, -0.024286f, -0.229273f, -0.142191f, -0.124278f, -0.022902f, -0.156665f, 0.134974f, -0.063806f, 0.221559f, -0.068403f, -0.063092f, -0.133437f, -0.209257f, -0.059237f, 0.083841f, 0.184081f, -0.011589f, -0.045629f, 0.174533f, -0.143540f, -0.002982f, -0.094824f, -0.102889f, -0.146442f, -0.003231f, 0.159923f, 0.173551f, -0.243458f, -0.232058f, -0.219549f, -0.041154f, -0.094032f, -0.068711f, 0.167307f, -0.181472f, 0.138132f, -0.224951f, 0.367237f, -0.327000f, -0.435420f, 0.215590f, -0.103603f, 0.168934f, -0.665971f, -0.071121f, 0.068105f, -0.218590f, -0.075409f, 0.141528f, 0.027482f, -0.164982f, -0.063101f, -0.210862f, 0.023342f, 0.050312f, 0.020561f, 0.205215f, -0.078308f, -0.440736f, 0.070980f, -0.067337f, -0.168365f, 0.028234f, 0.208137f, 0.136554f, -0.556754f, 0.029968f, 0.009945f, 0.092130f, 0.053763f, -0.298879f, -0.152095f, 0.050165f, -0.074457f, -0.036054f, -0.102658f, 0.004286f, -0.187562f, 0.044163f, 0.070521f, -0.081399f, -0.051085f, -0.082345f, -0.054365f, -0.019359f, -0.147581f, -0.276854f, 0.007514f, 0.036269f, 0.028951f, -0.022160f, 0.049295f, -0.061049f, -0.301441f, 0.001913f, 0.157907f, -0.258632f, -0.248097f, -0.190266f, -0.308439f, -0.061972f, -0.483282f, -0.169319f, 0.084310f, -0.450307f, -0.128462f, -0.022184f, 0.094026f, 0.054588f, -0.263981f, -0.176843f, -0.065512f, -0.305930f, -0.666070f, -0.213034f, -0.023668f, -0.223130f, -0.286369f, -0.073157f, -0.054722f, -0.021042f, -0.174665f, 0.062924f, 0.076381f, 0.091873f, -0.045410f, -0.005969f, -0.290275f, 0.039757f, 0.042212f, -0.113433f, -0.003792f, -0.126252f, -0.063567f, 0.071341f, -1.686312f, -0.913371f, -0.039809f, 0.321276f, 0.196585f, -0.090797f, -0.159042f, -0.151447f, -0.076307f, -0.111314f, -0.116081f, -0.228811f, -0.035122f, -0.046172f, -0.087859f, -0.075056f, -0.018855f, -0.360112f, -0.495435f, 0.152135f, -0.120316f, -1.616858f, 0.097266f, 0.314848f, -0.074725f, -0.209928f, 0.115525f, 0.140349f, 0.016234f, -0.015902f, -0.028166f, -0.078604f, -0.080951f, 0.109821f, 0.010354f, -0.393895f, 0.028039f, -0.116665f, 0.075872f, 0.049817f, 0.047454f, -0.277197f, 0.013223f, -0.022846f, -0.471463f, -0.049769f, -0.106107f, 0.056687f, -0.516419f, 0.018849f, -0.639474f, -0.034593f, 0.024653f, -0.267931f, -0.035337f, -0.346686f, -0.002646f, -0.148646f, -0.127117f, -0.087186f, -0.113573f, -0.037297f, 0.023862f, -0.029440f, 0.172429f, -0.145832f, -0.238573f, -0.140282f, 0.111272f, -0.157691f, -0.006277f, -0.107238f, 0.095578f, -0.079071f, 0.090597f, 0.090850f, 0.208715f, 0.019344f, -0.293045f, 0.056718f, -0.242784f, 0.218150f, -0.072340f, 0.211976f, 0.049377f, -0.069775f, 0.197467f, -0.186416f, 0.112140f, 0.004289f, -0.175042f, -0.095514f, -0.202402f, -0.196708f, -0.005524f, -0.206675f, -0.120670f, 0.058445f, 0.086806f, 0.043387f, 0.027392f, -0.041450f, 0.083967f, -0.233506f, 0.063010f, -0.617729f, -0.043955f, -0.076086f, 0.037459f, 0.034895f, -0.093243f, 0.253447f, -0.984839f, -0.063958f, -0.132079f, 0.186967f, 0.251724f, -0.041567f, -0.011687f, 0.079336f, -0.063627f, 0.104974f, 0.150847f, -0.056555f, -0.067685f, 0.123135f, 0.024475f, -0.169234f, -0.008473f, -0.019472f, -0.005852f, -0.122793f, 0.069490f, -0.117670f, -0.229284f, -0.007773f, -0.111054f, -0.643931f, -0.011197f, -0.129326f, 0.010596f, -0.062250f, 0.009148f, 0.128459f, -0.969094f, 0.090992f, -0.469323f, 0.022914f, 0.226248f, -0.153959f, -0.039336f, -0.112072f, -0.019386f, -0.169858f, -0.049090f, 0.013794f, 0.500638f, -0.128666f, 0.091750f, 0.261808f, -0.227713f, -0.000655f, 0.308402f, -0.464287f, -0.152279f, -0.344212f, 0.025582f, -0.010476f, -0.312467f, -0.141043f, -2.420519f, -0.100694f, -0.120585f, -0.011445f, -0.084380f, -0.045620f, -0.025193f, -0.080830f, -0.579021f, -0.053494f, -0.117713f, -0.250444f, 0.064029f, -0.164962f, 0.019263f, -0.115372f, -0.170520f, -0.085483f, 0.212023f, -0.169238f, 0.162638f, -0.412230f, -0.360539f, -1.601117f, -0.111335f, -0.420831f, -0.190943f, -0.050615f, -0.083853f, -0.140804f, 0.085452f, -0.183454f, 0.017642f, -0.185104f, -0.196590f, -0.443344f, 0.070824f, 0.029289f, -0.132204f, 0.087575f, -0.320695f, -1.226887f, -0.071044f, -0.779047f, -0.077363f, -0.093283f, 0.154254f, -0.010826f, -0.329963f, -0.336375f, -0.219324f, -0.176224f, -0.112276f, -0.112844f, 0.074720f, -0.811051f, -0.191481f, -0.099053f, 0.016539f, -0.221199f, -0.173243f, 0.012817f, -0.004888f, 0.077244f, -0.630597f, -0.158266f, -0.076122f, -0.114473f, -0.376674f, -0.157430f, -0.039677f, -0.030896f, -0.234856f, 0.145911f, 0.035277f, 0.076491f, -0.099733f, 0.016394f, -0.114181f, -0.257263f, -0.120684f, 0.071646f, -0.089802f, 0.170643f, 0.076992f, 0.157528f, 0.085321f, 0.036501f, 0.101532f, 0.072061f, -0.047691f, -0.033468f, 0.046736f, 0.104359f, 0.165530f, -0.203154f, -0.249460f, 0.194230f, -0.175584f, 0.121287f, 0.065536f, -0.184906f, 0.203216f, -0.022533f, -0.071854f, -0.234984f, -0.110285f, -0.243800f, -0.064188f, 0.004146f, 0.226965f, -0.237137f, -0.213134f, 0.173282f, -0.116447f, -0.062200f, 0.164977f, 0.110199f, -0.194540f, -0.249022f, 0.213855f, -0.040410f, 0.202114f, -0.136986f, 0.050778f, 0.080329f, -0.038842f, 0.121190f, 0.108358f, 0.042398f, -0.182325f, 0.172156f, 0.166576f, 0.143345f, 0.230707f, 0.068453f, -0.108831f, 0.089442f, -0.098251f, -0.088377f, -0.148238f, -0.031168f, -0.070384f, -0.147389f, 0.085290f, -0.139290f, -0.067244f, -0.022562f, -0.000732f, -0.097237f, 0.043530f, -0.186849f, 0.119365f, -0.109651f, -0.001229f, -0.151780f, 0.104111f, 0.079642f, -0.087964f, 0.021323f, 0.111760f, 0.012584f, -0.002226f, 0.045097f, 0.134357f, -0.108102f, -0.295756f, 0.005719f, 0.035045f, -0.141841f, 0.222172f, -0.208700f, -0.070805f, -0.082758f, -0.167292f, -0.173815f, 0.021159f, 0.208241f, 0.104713f, -0.232641f, 0.120677f, -0.038825f, -0.544776f, 0.241999f, -0.038276f, -0.472597f, -0.164995f, 0.018676f, -0.131100f, -0.037776f, -0.059967f, -0.085355f, 0.014522f, -0.620455f, -0.599700f, -0.074850f, -0.276666f, 0.106409f, -1.002345f, 0.105289f, -0.173339f, -0.245440f, 0.031426f, -0.756407f, -0.141989f, -1.362005f, 0.122941f, -0.233817f, -0.540771f, -0.193668f, 0.004791f, -0.047919f, -0.188997f, -0.033668f, -0.021082f, 0.209798f, -0.001960f, -0.170826f, -0.090941f, 0.123047f, 0.076505f, -0.181941f, -0.138713f, 0.197028f, -0.090846f, 0.226628f, -0.189985f, 0.071600f, -0.052012f, -0.069379f, -0.199019f, -0.169019f, 0.044975f, -0.016292f, -0.035831f, 0.048774f, -0.172603f, 0.001165f, -0.118092f, 0.114331f, -0.141342f, -0.090121f, -0.070658f, 0.128060f, 0.009192f, -0.164579f, 0.089006f, -0.109828f, 0.066975f, 0.004630f, 0.161422f, -0.159908f, -0.135798f, -0.160429f, -0.279329f, -0.533676f, -0.013297f, -0.141373f, -0.014906f, -0.003448f, -0.071041f, 0.127684f, -0.357891f, 0.096015f, -0.110799f, 0.175793f, 0.327621f, 0.020037f, -0.057155f, -0.017769f, -0.034213f, 0.003689f, 0.130996f, -0.174452f, -0.265707f, -0.011775f, 0.003667f, -0.035047f, 0.120889f, 0.022373f, -0.099152f, 0.071288f, -0.022650f, -0.147444f, -0.208090f, 0.110617f, -0.145227f, -0.296900f, -0.472475f, -0.047640f, -0.060939f, -0.016927f, -0.105021f, -0.138887f, -0.033263f, -0.007661f, -0.070301f, -0.080735f, -0.037589f, 0.012909f, -0.032459f, -0.042176f, -0.116607f, -0.242226f, 0.047874f, 0.121679f, 0.078533f, -0.004148f, -0.034166f, -0.080114f, 0.133713f, 0.006990f, -0.095501f, 0.133741f, -0.082767f, -0.122926f, 0.014510f, 0.121627f, -0.241279f, 0.240987f, -0.171477f, -0.012044f, 0.041816f, -0.140579f, -0.214037f, -0.084532f, 0.161003f, 0.066993f, 0.010183f, 0.125511f, -0.188443f, -0.224482f, 0.049888f, -0.125558f, -0.039711f, 0.146057f, -0.017967f, -0.338020f, 0.069610f, -0.166783f, 0.230983f, 0.006631f, -0.138468f, 0.089761f, -0.087931f, -0.010717f, -0.099135f, -0.127274f, -0.074119f, -0.047067f, -0.102592f, 0.035857f, 0.001051f, -0.183683f, 0.010521f, 0.007642f, -0.253325f, -0.179623f, 0.086250f, -0.482342f, -0.057269f, -0.059328f, 0.197663f, 0.002066f, -0.525155f, 0.020451f, -1.378806f, -0.188428f, -0.447987f, 0.005998f, -0.086685f, -0.193371f, -0.046518f, 0.019639f, -0.006535f, -0.363643f, -0.016035f, -0.076242f, -0.008514f, -0.057849f, -0.269654f, -0.158820f, -0.066992f, -0.070822f, -0.074796f, 0.008398f, -0.032133f, -0.024161f, -0.362771f, -1.782400f, 0.263562f, -0.110635f, 0.048241f, 0.040837f, 0.029379f, -0.034300f, -0.532042f, 0.015995f, 0.024157f, -0.244303f, -0.127221f, -0.154973f, -0.059985f, -0.175488f, -0.022239f, -0.068933f, 0.116905f, 0.127813f, -0.032472f, 0.029725f, 0.056048f, -0.131698f, 0.022050f, -0.074809f, -0.060715f, -0.052191f, -0.142304f, 0.055941f, -0.037572f, 0.096929f, -0.065725f, 0.047529f, -0.000191f, 0.060966f, -0.208221f, 0.005902f, 0.162701f, 0.142313f, 0.018557f, -0.051088f, -0.143200f, -0.100844f, 0.048811f, 0.035427f, 0.084160f, 0.006792f, 0.245740f, -0.049430f, -0.324355f, 0.109786f, -0.070039f, -0.105790f, -0.058526f, -0.085451f, 0.114112f, -0.002857f, 0.088837f, 0.081872f, -0.009186f, 0.000516f, -0.193651f, -0.068065f, -0.233923f, 0.091236f, -0.054571f, 0.130400f, -0.212169f, -0.342324f, 0.106073f, -0.476451f, 0.054405f, -0.082545f, 0.175266f, 0.000543f, -0.070806f, 0.371921f, 0.129265f, -0.100727f, -0.299545f, -0.154980f, -0.585478f, -0.115295f, -0.017077f, -0.812280f, -0.117017f, 0.083564f, -0.084854f, -0.116948f, -0.235712f, -0.007428f, 0.028785f, -0.385747f, -0.073982f, -0.053337f, -0.281396f, -0.028814f, -0.254963f, -0.170477f, -0.689045f, -0.089108f, -0.220370f, -0.680760f, -0.255417f, -0.359207f, -0.162785f, -0.201697f, -0.196930f, 0.233172f, 0.184449f, 0.181384f, -0.039033f, -0.010847f, 0.081359f, -0.087479f, 0.178246f, -0.224202f, -0.056184f, -0.153405f, -0.201351f, -0.174088f, -0.153134f, -0.108226f, -0.199686f, -0.102580f, -0.241433f, 0.055190f, 0.027433f, 0.237449f, -0.141737f, 0.081169f, 0.028332f, -0.069171f, -0.195250f, -0.001252f, -0.088529f, -0.100760f, -0.062126f, 0.187756f, 0.106132f, -0.079359f, 0.178356f, -0.125682f, 0.116418f, -0.028294f, -0.345747f, -0.069408f, -0.024436f, -0.210970f, -0.101737f, 0.054615f, -0.141041f, -0.290393f, -0.135041f, -0.175269f, 0.027505f, -0.429598f, -0.734228f, -0.135533f, 0.016608f, 0.043443f, -0.356463f, 0.108336f, -0.259895f, -0.463277f, 0.139737f, -0.258255f, -0.187374f, -0.703201f, -0.771309f, -0.063932f, -0.842509f, 0.062009f, -0.153012f, 0.169590f, -0.267042f, 0.088527f, 0.123356f, -0.032604f, -0.122371f, -0.255989f, -0.039935f, -0.026824f, -0.194016f, -0.001678f, -0.181621f, -0.136855f, -0.287754f, 0.032864f, 0.015851f, 0.036627f, -0.110053f, -0.231723f, -0.001400f, 0.026158f, 0.017571f, 0.144163f, -0.229275f, -0.074208f, -0.133290f, 0.003504f, -0.174601f, -0.072256f, 0.010316f, -0.111545f, -0.044738f, -0.080438f, -0.070541f, -0.122359f, 0.145293f, 0.085221f, 0.020247f, 0.233529f, 0.191627f, -0.022982f, 0.062852f, 0.138682f, 0.184501f, -0.203670f, 0.116837f, 0.178935f, -0.260073f, 0.030932f, 0.178665f, -0.178638f, 0.204086f, 0.204276f, 0.214642f, 0.034509f, 0.139243f, 0.227653f, -0.235422f, -0.180964f, -0.181772f, 0.209059f, 0.191127f, -0.116221f, -0.154915f, -0.156275f, 0.012502f, -0.051954f, 0.098730f, 0.209068f, 0.179732f, -0.068069f, 0.017949f, 0.173201f, 0.118666f, -0.213661f, -0.078087f, -0.145002f, -0.222479f, 0.061251f, -0.015251f, 0.086835f, -0.074247f, 0.168016f, 0.070574f, 0.082254f, 0.079638f, -0.121886f, 0.018571f, 0.184868f, -0.146949f, 0.181549f, 0.049920f, 0.123417f, 0.059544f, -0.078004f, 0.084885f, -0.192666f, -0.106425f, 0.007311f, -0.409594f, 0.023712f, -0.055258f, -0.850619f, -0.117826f, -0.456783f, -0.281583f, -0.292261f, -0.145428f, 0.047399f, 0.091283f, -0.169203f, -0.104491f, -0.030555f, 0.032515f, -0.109348f, -0.076900f, -0.056511f, -0.665228f, -0.068736f, -0.248216f, -0.196853f, -0.204022f, -0.105710f, 0.089369f, -0.005454f, -0.364090f, 0.117729f, -0.214291f, -0.037749f, 0.036749f, 0.134868f, -0.126532f, 0.225875f, -0.075395f, -0.004232f, -0.210882f, -0.119722f, -0.195063f, -0.067965f, -0.207353f, -0.189102f, -0.230576f, -0.234511f, 0.154619f, 0.082439f, -0.165464f, -0.227000f, 0.015601f, -0.044393f, 0.161537f, 0.148720f, -0.113505f, -0.101705f, 0.207383f, 0.193196f, -0.115784f, 0.152012f, 0.247155f, -0.376177f, 0.170476f, -0.231849f, -2.010705f, -0.181769f, -0.109238f, 0.084108f, -0.098283f, -0.009116f, -0.143486f, -0.354984f, -0.008669f, -0.109023f, -0.160725f, 0.096166f, -0.001043f, -0.348081f, -0.001742f, -0.109051f, -0.110939f, -0.032546f, 0.088566f, -0.059265f, -0.100872f, -0.165889f, 0.449216f, -0.028964f, -0.585196f, 0.026640f, 0.103972f, -0.149256f, -0.526214f, -0.081335f, -0.000960f, 0.002275f, 0.021471f, -0.193677f, -0.002429f, -0.040557f, -0.092351f, -0.043939f, -0.220035f, -0.102591f, -0.080143f, -0.220922f, -0.047584f, 0.063072f, 0.032283f, 0.031067f, 0.048989f, -0.248524f, -0.106445f, -0.190622f, 0.247519f, 0.229099f, -0.176084f, 0.164779f, 0.110765f, -0.028552f, 0.144130f, -0.037229f, -0.034825f, -0.173721f, 0.154502f, 0.170212f, -0.028027f, -0.113918f, 0.178184f, 0.007572f, -0.009731f, 0.088693f, -0.069429f, 0.050717f, -0.084478f, -0.243314f, -0.217718f, -0.119383f, -0.067156f, -0.048303f, -0.004293f, -0.177761f, 0.000367f, -0.166594f, -0.508618f, -1.326217f, 0.163605f, -0.075751f, -0.029170f, -0.056712f, -0.017938f, 0.045551f, -0.960820f, 0.001314f, 0.218022f, 0.001502f, -0.237882f, -0.656784f, -0.626217f, 0.000862f, -0.110521f, -0.241969f, 0.015256f, -0.402923f, -0.066804f, -0.003762f, -0.023166f, 0.027780f, -0.102287f, -0.238818f, -0.108100f, -0.331407f, -0.231468f, -0.176799f, 0.012148f, -0.173474f, -0.107382f, -0.023439f, -0.064106f, -0.305727f, -0.264702f, 0.072880f, 0.114742f, 0.117323f, -0.057597f, -0.028133f, -0.011611f, -0.269836f, -0.080986f, -0.012030f, -0.028817f, -0.099253f, -0.130190f, 0.040889f, -0.767381f, -1.356058f, -0.004157f, 0.083693f, -0.822812f, -0.175064f, -0.166674f, -0.061806f, -0.214142f, -0.113977f, -0.071640f, 0.094875f, -0.032620f, -0.039724f, -0.024582f, 0.023044f, -0.026710f, -0.159358f, 0.268977f, 0.139722f, -0.082122f, 0.267556f, -0.471462f, -0.070078f, -0.099427f, -0.037764f, 0.136322f, -0.150232f, 0.463781f, -0.238818f, 0.406445f, -0.196085f, -0.215381f, 0.260673f, 0.087063f, -0.199351f, -0.321743f, -0.009876f, -0.217142f, -0.156595f, -0.135926f, 0.480303f, 0.030702f, -0.131533f, -0.206898f, -0.426553f, 0.293722f, 0.222810f, -0.135711f, 0.376885f, -0.073090f, -0.859822f, 0.148566f, -0.595698f, -0.099542f, -0.071337f, 0.043381f, -0.209726f, -0.762574f, -0.186302f, 0.125136f, -0.059242f, -0.014494f, -0.023471f, 0.063700f, -0.065696f, -0.220007f, 0.087495f, 0.026923f, -0.001342f, -0.228540f, 0.036853f, -0.090259f, -0.118920f, -0.192924f, 0.078701f, -0.152123f, 0.172758f, -0.006599f, -0.047606f, 0.086994f, -0.042453f, -0.182115f, -0.159380f, -0.123636f, -0.033104f, 0.055119f, 0.144996f, 0.122865f, 0.058601f, -0.149472f, -0.036907f, 0.020565f, -0.027915f, 0.098478f, -0.268525f, -0.795058f, 0.075228f, 0.028963f, -0.348435f, -0.211614f, -0.101672f, -0.135912f, -0.073832f, -0.210960f, -0.021567f, 0.007098f, -0.044178f, -0.050269f, -0.100602f, -0.080085f, 0.044603f, -0.119544f, -0.078076f, -0.549901f, -0.120439f, 0.022902f, -0.598824f, -0.062363f, -0.118798f, 0.001314f, -0.042187f, 0.081313f };
static const float emlearnModel_layer_2_biases[8] = { 0.313771f, 0.322120f, 0.322504f, 0.316560f, 0.309419f, 0.293174f, 0.283882f, 0.274627f };
static const float emlearnModel_layer_2_weights[256] = { -0.039122f, -0.055072f, -0.081293f, -0.102424f, -0.116809f, -0.138071f, -0.151521f, -0.169108f, -0.149678f, -0.155587f, -0.152077f, -0.149202f, -0.145469f, -0.140946f, -0.139623f, -0.137665f, -0.060920f, 0.179104f, -0.291739f, -0.075088f, 0.319979f, 0.231329f, 0.041832f, -0.177337f, 0.003176f, -0.020585f, -0.042968f, -0.062165f, -0.087240f, -0.111237f, -0.132743f, -0.147296f, 0.000543f, -0.207610f, -0.260088f, -0.224643f, -0.162955f, -0.096648f, -0.094215f, -0.114912f, 0.371335f, 0.363074f, 0.371080f, 0.396062f, 0.399524f, 0.424956f, 0.414371f, 0.409103f, -0.035585f, -0.044312f, -0.053846f, -0.056994f, -0.058465f, -0.048826f, -0.031819f, -0.020571f, -0.166752f, -0.149537f, -0.122930f, -0.082577f, -0.044366f, 0.002456f, 0.031232f, 0.059498f, 0.118426f, 0.093234f, 0.082259f, 0.084987f, 0.085733f, 0.070565f, 0.069928f, 0.069162f, 0.014505f, 0.031812f, 0.056716f, 0.084769f, 0.109874f, 0.126059f, 0.150891f, 0.170973f, -0.150411f, -0.089063f, -0.042941f, 0.023130f, 0.047804f, -0.048403f, -0.068638f, -0.128441f, 0.166017f, -0.336287f, -0.042503f, 0.132935f, -0.237081f, -0.054493f, -0.022091f, -0.128194f, -0.071900f, 0.239929f, -0.073758f, 0.031529f, 0.166964f, -0.324019f, -0.277714f, -0.191846f, 0.015384f, 0.199533f, 0.012071f, -0.127079f, -0.036082f, -0.238270f, -0.019327f, -0.322917f, 0.090488f, 0.105490f, 0.083107f, 0.040291f, 0.006460f, -0.015103f, -0.041354f, -0.063772f, -0.342785f, -0.334308f, -0.301281f, -0.258280f, -0.222613f, -0.180086f, -0.154141f, -0.128434f, 0.083725f, 0.076236f, 0.067872f, 0.042687f, 0.019027f, -0.013447f, -0.021065f, -0.023819f, -0.149037f, -0.019000f, 0.036447f, 0.038559f, 0.073182f, -0.051078f, -0.005646f, -0.060549f, -0.271567f, 0.035452f, 0.117044f, 0.084972f, 0.024310f, 0.127597f, 0.060572f, 0.074070f, -0.052612f, -0.057127f, -0.065594f, -0.067807f, -0.062144f, -0.049988f, -0.028679f, -0.012678f, -0.184668f, -0.146628f, -0.112343f, -0.079536f, -0.043958f, 0.002984f, 0.045021f, 0.094808f, 0.154382f, 0.101634f, 0.056562f, 0.015099f, -0.022398f, -0.054332f, -0.083264f, -0.116257f, -0.011707f, -0.029555f, 0.022604f, 0.088959f, 0.094752f, 0.096777f, 0.082257f, 0.060158f, 0.186197f, 0.164382f, 0.144086f, 0.125202f, 0.118181f, 0.092253f, 0.080083f, 0.058682f, 0.091446f, 0.112152f, 0.130897f, 0.145370f, 0.162196f, 0.156120f, 0.171678f, 0.171447f, 0.042311f, 0.003878f, -0.026829f, -0.052189f, -0.077045f, -0.111273f, -0.133316f, -0.155589f, 0.309987f, 0.276069f, 0.252112f, 0.232915f, 0.204581f, 0.194016f, 0.162231f, 0.139161f, -0.048899f, -0.047223f, -0.040807f, -0.022573f, -0.000221f, 0.028115f, 0.058267f, 0.076591f, 0.259995f, 0.221973f, 0.178654f, 0.135761f, 0.090483f, 0.078053f, 0.028593f, -0.008149f, 0.012074f, -0.006838f, -0.024914f, -0.043624f, -0.057037f, -0.071425f, -0.082594f, -0.097471f, 0.414831f, 0.239350f, -0.109675f, 0.374101f, -0.211540f, 0.017575f, -0.097153f, 0.176319f, 0.004103f, 0.030200f, 0.054754f, 0.078937f, 0.099899f, 0.135207f, 0.147823f, 0.167960f };
static float emlearnModel_buf1[96];
static float emlearnModel_buf2[96];
static const EmlNetLayer emlearnModel_layers[3] = { 
{ 64, 96, emlearnModel_layer_0_weights, emlearnModel_layer_0_biases, EmlNetActivationRelu }, 
{ 32, 64, emlearnModel_layer_1_weights, emlearnModel_layer_1_biases, EmlNetActivationRelu }, 
{ 8, 32, emlearnModel_layer_2_weights, emlearnModel_layer_2_biases, EmlNetActivationRelu } };
static EmlNet emlearnModel = { 3, emlearnModel_layers, emlearnModel_buf1, emlearnModel_buf2, 96 };

    int32_t
    emlearnModel_predict(const float *features, int32_t n_features)
    {
        return eml_net_predict(&emlearnModel, features, n_features);
    }
    

    int32_t
    emlearnModel_regress(const float *features, int32_t n_features, float *out, int32_t out_length)
