
#include <eml_net.h>
static const float emlearnModel_layer_0_biases[64] = { 0.025298f, -0.008173f, 0.000000f, 0.102097f, -0.010074f, -0.007669f, 0.050461f, -0.036396f, -0.051516f, -0.121248f, -0.015278f, -0.038200f, 0.193149f, -0.015652f, 0.210602f, -0.110877f, -0.049921f, -0.032336f, 0.001446f, -0.021288f, 0.098972f, -0.005346f, 0.031732f, 0.118050f, -0.007233f, -0.036202f, -0.101228f, -0.023142f, -0.022964f, -0.108633f, -0.043548f, -0.039125f, -0.215532f, 0.085229f, -0.181116f, -0.070444f, -0.037530f, -0.054324f, -0.060695f, -0.018845f, -0.016770f, 0.063057f, -0.015192f, -0.078348f, -0.109123f, -0.011446f, 0.041584f, 0.045005f, -0.011984f, 0.078362f, -0.063882f, -0.160128f, -0.234099f, -0.036035f, -0.218312f, 0.145164f, -0.116610f, -0.034092f, -0.000889f, -0.044281f, -0.033931f, -0.000349f, -0.016892f, -0.028923f };
static const float emlearnModel_layer_0_weights[6144] = { -0.554816f, 0.075885f, -0.165137f, 0.148031f, -0.086496f, -0.039740f, -0.192086f, 0.010761f, -0.118558f, -0.086311f, -0.124553f, 0.104793f, 0.031596f, -0.108939f, 0.016081f, 0.049929f, -0.220684f, -0.064253f, -0.235935f, -0.098780f, -0.091704f, -0.176187f, -0.306075f, -0.022651f, -0.293710f, -0.074519f, 0.182444f, -0.058073f, 0.188967f, -0.048040f, 0.110455f, 0.096050f, 0.055213f, -0.103517f, -0.185750f, 0.254670f, 0.152154f, -0.120884f, 0.174421f, 0.156062f, 0.145731f, 0.041624f, -0.169840f, 0.075910f, -0.143410f, -0.141513f, 0.195158f, -0.669761f, -0.046679f, 0.050973f, 0.097378f, -0.008332f, -0.142768f, 0.097857f, 0.078191f, -0.041763f, -0.708332f, -0.209707f, -0.160183f, -0.168028f, -0.050153f, -0.316910f, -0.056050f, -0.082841f, -0.103878f, 0.180451f, -0.023635f, 0.042495f, -0.084546f, -0.124579f, 0.014247f, -0.096738f, -0.008903f, 0.081190f, 0.032200f, 0.138293f, 0.181538f, -0.105034f, 0.218269f, -0.171155f, -0.328465f, -0.009508f, -0.089306f, 0.152775f, -0.021884f, -0.109201f, -0.166098f, 0.041366f, -0.058246f, -0.138621f, 0.778125f, -0.036497f, 0.142785f, -0.069857f, 0.030310f, 0.014343f, -0.047139f, 0.286283f, -0.580215f, 0.547179f, 0.069255f, 0.039816f, 0.095770f, -0.090513f, -0.111290f, 0.208554f, -0.174945f, -0.006856f, -0.357946f, 0.055384f, -0.015126f, -0.346536f, 0.123896f, -0.136530f, 0.049399f, -0.149885f, 0.040596f, 0.017516f, -0.194204f, 0.036072f, -0.348037f, -0.045369f, -0.022279f, 0.103304f, -0.142478f, -0.039035f, -0.198841f, 0.083682f, -0.467733f, 0.074417f, 0.129878f, 0.177099f, -0.082763f, -0.091827f, -0.125386f, 0.159333f, -0.146946f, -0.157221f, -0.005991f, -0.227945f, 0.136086f, -0.143203f, 0.218198f, -0.014602f, 0.235617f, 0.107129f, -0.008511f, 0.128507f, -0.223407f, 0.006053f, -0.397239f, -0.225562f, -0.560955f, -0.029633f, 0.394893f, 0.059910f, 0.026312f, -0.093697f, -0.002405f, -0.211457f, -0.201843f, 0.259910f, -0.243088f, 0.190133f, -0.043180f, 0.095783f, -0.049413f, -0.192476f, -0.003909f, 0.140507f, -0.179568f, -0.180592f, -0.039341f, 0.131251f, 0.181307f, -0.436238f, 0.059893f, -0.192096f, -0.129732f, -0.055449f, -0.107429f, -0.120811f, -0.152439f, 0.192803f, -0.429725f, 0.061985f, 0.125395f, 0.056410f, -0.190316f, -0.086593f, -0.026942f, 0.036376f, -0.106326f, -0.019183f, -0.167591f, 0.138679f, -0.085756f, 0.187378f, -0.238225f, 0.159882f, 0.075980f, 0.033213f, 0.026668f, 0.150508f, 0.167430f, 0.034921f, 0.351399f, -0.146633f, -0.529866f, -0.060880f, 0.042182f, -0.145633f, 0.160105f, -0.153637f, -0.228148f, 0.277141f, -0.204700f, -0.067525f, 0.352042f, -0.075195f, 0.041845f, 0.001534f, -0.022549f, 0.130381f, -0.299805f, 0.282994f, -0.376181f, 0.415417f, -0.196583f, -0.109915f, 0.080195f, 0.101319f, 0.158364f, 0.408964f, 0.087929f, 0.058447f, -0.449308f, -0.116704f, 0.074755f, -0.063736f, 0.047980f, 0.017211f, -0.001767f, -0.166029f, -0.306660f, -0.052813f, -0.497770f, 0.425268f, -0.294398f, 0.091659f, -0.305443f, 0.047195f, 0.109838f, -0.345247f, -0.054723f, -0.183156f, 0.202534f, -0.183938f, -0.064523f, -0.049145f, -0.031801f, 0.155569f, -0.037182f, 0.006406f, 0.084404f, -0.036783f, -0.148903f, -0.084666f, 0.083503f, 0.041382f, 0.024947f, 0.070117f, -0.193757f, -0.047486f, 0.101025f, -0.049471f, -0.080369f, -0.074024f, 0.170541f, 0.192150f, 0.223418f, -0.151689f, -0.005309f, -0.122770f, -0.094062f, -0.076928f, -0.216877f, 0.098743f, -0.142646f, 0.136641f, -0.379874f, -0.078915f, -0.086794f, 0.002974f, 0.021653f, 0.122379f, 0.011506f, 0.252948f, -0.136512f, -0.108771f, -0.282011f, -0.201727f, -0.022163f, 0.066859f, -0.051895f, -0.051382f, 0.047918f, -0.302831f, -0.386785f, 0.047752f, -0.310684f, 0.301431f, -0.318882f, 0.009040f, -0.376455f, 0.093192f, -0.063951f, -0.178717f, 0.167993f, -0.047118f, -0.060268f, 0.034014f, 0.043985f, 0.073630f, -0.162188f, 0.101254f, -0.121672f, 0.145737f, -0.113237f, -0.110416f, -0.060536f, -0.124682f, -0.025102f, -0.000994f, -0.167063f, 0.018605f, -0.408952f, -0.128801f, -0.122645f, -0.158803f, 0.137180f, -0.044438f, -0.166493f, 0.093958f, -0.086777f, 0.065092f, -0.189816f, 0.153291f, -0.209725f, 0.068592f, -0.041695f, -0.178017f, -0.205996f, -0.111028f, 0.397616f, -0.001876f, -0.018727f, -0.062505f, -0.145487f, -0.056504f, 0.002359f, 0.104952f, -0.008707f, 0.088588f, -0.231718f, -0.097509f, 0.062005f, -0.145330f, -0.084956f, 0.010753f, -0.151991f, -0.222127f, -0.318576f, -0.156790f, -0.141876f, -0.042304f, 0.040787f, 0.059772f, -0.023534f, 0.160776f, 0.129507f, 0.031560f, -0.194177f, -0.149371f, 0.026584f, -0.112955f, -0.100944f, -0.506206f, 0.189180f, -0.137472f, 0.006958f, -0.157197f, 0.128597f, -0.009886f, -0.162399f, 0.004562f, -0.620717f, -0.084556f, -0.686885f, -0.005036f, 0.000160f, -0.130028f, 0.048735f, -0.117662f, -0.086488f, -0.180294f, 0.119464f, -0.231336f, 0.025643f, 0.063684f, -0.505327f, 0.055134f, -0.164346f, -0.002267f, 0.083860f, -0.124850f, 0.098758f, -0.357841f, 0.024460f, -0.382890f, -0.047217f, 0.182604f, -0.033625f, 0.094262f, -0.051506f, -0.467875f, 0.153303f, -0.136429f, -0.031851f, -0.042265f, -0.425955f, 0.045414f, 0.053653f, -0.252755f, 0.082585f, -0.003240f, 0.242608f, 0.034154f, 0.104971f, -0.295796f, 0.028281f, -0.002824f, 0.216372f, -0.153829f, -0.051772f, 0.343650f, -0.210478f, 0.011512f, -0.117979f, -0.064527f, -0.145679f, 0.156756f, 0.079115f, -0.097478f, -0.114657f, -0.077234f, 0.040837f, 0.117594f, 0.085427f, -0.130957f, 0.116422f, -0.088542f, -0.096711f, -0.079206f, 0.349496f, 0.085995f, -0.146380f, 0.074210f, -0.813872f, 0.111058f, -0.109900f, 0.093808f, 0.013020f, 0.065828f, 0.093378f, -0.207241f, -0.144647f, -0.471376f, -0.115178f, 0.151336f, -0.084506f, 0.192510f, 0.115212f, 0.289591f, 0.071091f, -0.087285f, -0.204322f, 0.091955f, -0.076906f, -0.138911f, 0.135910f, -0.180885f, 0.398297f, -0.081721f, 0.054025f, -0.296437f, 0.115918f, 0.045671f, 0.060054f, 0.060267f, 0.111227f, 0.019456f, 0.331918f, -0.219166f, 0.340344f, -0.000793f, 0.120377f, -0.142862f, -0.154071f, 0.360421f, -0.095946f, 0.118352f, 0.081792f, -0.133932f, -0.094638f, -0.048008f, 0.096459f, 0.034215f, 0.164902f, -0.234008f, -0.006923f, -0.235927f, 0.048399f, 0.107799f, 0.272238f, 0.086253f, 0.425974f, -0.461524f, -0.218647f, 0.089326f, -0.403931f, 0.078375f, 0.255519f, 0.049011f, 0.096453f, -0.048146f, -0.055636f, 0.020574f, -0.236345f, 0.073442f, -0.059983f, -0.015759f, 0.018132f, -0.198754f, -0.048047f, -0.036976f, -0.289915f, -0.163941f, -0.140122f, 0.113404f, -0.088367f, -0.065382f, 0.126761f, 0.092226f, -0.147941f, -0.250557f, 0.011957f, -0.004361f, 0.013989f, 0.133880f, 0.068366f, 0.070475f, 0.054721f, -0.238913f, -0.012623f, 0.070729f, -0.026014f, 0.271309f, -0.279830f, 0.120358f, 0.011190f, 0.139933f, -0.105203f, -0.037178f, -0.104593f, 0.165311f, 0.176375f, 0.090987f, -0.010354f, 0.149764f, 0.029531f, -0.120909f, 0.165713f, 0.003731f, -0.215679f, -0.184613f, 0.181622f, -0.065887f, 0.350855f, -0.211500f, 0.102294f, 0.023127f, -0.057911f, 0.132745f, -0.181552f, 0.086512f, 0.210608f, -0.074075f, 0.180744f, 0.104956f, -0.188349f, -0.005044f, -0.177983f, 0.029169f, -0.142495f, -0.121149f, -0.121386f, 0.127170f, -0.267077f, 0.287266f, -0.067522f, 0.030466f, 0.033469f, 0.055001f, 0.073154f, -0.030975f, -0.010930f, -0.131896f, 0.171775f, -0.012852f, -0.193081f, 0.065418f, 0.203175f, -0.000137f, -0.069946f, 0.244005f, 0.104751f, 0.011799f, -0.122214f, -0.144175f, -0.041944f, 0.295820f, 0.011775f, 0.093362f, 0.076520f, -0.165573f, -0.048298f, -0.055551f, -0.049787f, -0.010130f, -0.114899f, 0.150756f, -0.079118f, -0.197181f, -0.055110f, 0.026865f, -0.164380f, -0.210220f, 0.026214f, 0.129128f, -0.198138f, -0.168489f, 0.012028f, 0.138935f, 0.077876f, 0.069099f, -0.162020f, -0.164082f, 0.083144f, 0.130587f, -0.073050f, 0.038978f, 0.095437f, -0.016138f, -0.007209f, 0.081769f, -0.221956f, 0.160551f, -0.208567f, -0.008064f, 0.033166f, -0.163113f, -0.098800f, 0.028107f, 0.096535f, 0.060221f, 0.103286f, -0.114507f, -0.157299f, 0.031643f, -0.084995f, -0.193989f, 0.006660f, -0.073314f, 0.062576f, -0.176023f, -0.083489f, 0.078941f, -0.030032f, -0.010878f, -0.019549f, -0.059779f, -0.213775f, 0.048406f, -0.201362f, -0.190997f, 0.093427f, -0.148252f, -0.125995f, -0.179356f, -0.136734f, -0.043985f, -0.146911f, -0.026516f, 0.167681f, -0.122448f, -0.161943f, 0.188878f, 0.123024f, 0.035468f, 0.156404f, 0.105159f, -0.081387f, -0.053003f, 0.104687f, -0.047115f, 0.085719f, -0.015251f, 0.118576f, 0.087480f, 0.038269f, 0.048782f, 0.077427f, -0.074066f, 0.260241f, -0.135717f, 0.180962f, 0.235045f, 0.074059f, -0.220131f, 0.272677f, 0.033990f, -0.114692f, -0.029444f, 0.105658f, -0.227109f, -0.009563f, 0.275206f, 0.055818f, 0.174147f, 0.063794f, -0.219299f, 0.108108f, 0.143365f, -0.202640f, 0.236564f, -0.010854f, -0.141464f, -0.196182f, -0.012093f, 0.203637f, -0.208076f, -0.072251f, 0.006842f, 0.006239f, -0.004813f, -0.199373f, 0.028005f, -0.223262f, 0.243269f, -0.354222f, -0.193231f, -0.089614f, -0.139264f, 0.093058f, -0.335601f, -0.185640f, -0.099423f, -0.225605f, -0.150262f, -0.029211f, 0.010361f, 0.018198f, -0.084210f, 0.040800f, 0.099894f, -0.131254f, 0.174960f, 0.142959f, -0.098217f, 0.123569f, -0.039036f, -0.044859f, 0.311176f, -0.337504f, -0.154400f, -0.131879f, 0.101411f, -0.224474f, 0.107111f, -0.208436f, -0.032727f, -0.671281f, -0.184976f, 0.076302f, -0.048764f, -0.165299f, -0.019561f, 0.094932f, 0.134175f, 0.066956f, -0.149610f, 0.029706f, -0.057807f, 0.108470f, -0.206347f, -0.133165f, -0.001417f, 0.044838f, -0.238636f, -0.092073f, -0.220436f, 0.061883f, -0.192329f, -0.001337f, -0.685575f, 0.128300f, 0.051571f, -0.115779f, 0.040473f, 0.134924f, 0.019452f, 0.006592f, 0.120196f, -0.420636f, -0.125831f, -0.346364f, -0.055170f, 0.130885f, -0.317488f, 0.136772f, 0.056863f, 0.079653f, 0.017502f, 0.056297f, 0.245459f, -0.106709f, 0.054962f, -0.113725f, 0.152267f, 0.006298f, 0.025567f, -0.152162f, 0.002468f, 0.194620f, -0.185543f, -0.044033f, -0.036230f, -0.178286f, -0.064119f, -0.191332f, 0.033116f, -0.117252f, 0.044343f, -0.324815f, -0.003227f, -0.013874f, 0.154483f, 0.620383f, -0.132428f, 0.141005f, 0.008180f, -0.038749f, 0.126752f, 0.051919f, 0.208822f, -0.261380f, 0.561442f, 0.008836f, -0.248554f, 0.085683f, 0.067312f, -0.099112f, 0.191692f, -0.010877f, 0.096408f, -0.412792f, 0.009515f, 0.199579f, -0.058254f, -0.160120f, -0.011292f, -0.125738f, 0.027985f, 0.019235f, -0.168473f, 0.061490f, 0.182170f, 0.043286f, 0.125890f, -0.086558f, -0.046643f, 0.112495f, -0.086054f, 0.028011f, 0.085490f, -0.089681f, 0.009564f, 0.123565f, -0.140664f, 0.041943f, -0.187274f, -0.030760f, -0.033184f, 0.131598f, -0.039861f, 0.096201f, 0.049576f, 0.020180f, 0.043114f, 0.206432f, 0.008799f, 0.333081f, -0.206550f, -0.026463f, -0.137471f, -0.132673f, -0.095375f, -0.182088f, -0.311784f, -0.332990f, -0.004668f, 0.224609f, -0.154754f, 0.120370f, -0.067846f, -0.026133f, 0.053425f, -0.068296f, -0.039698f, -0.258180f, 0.118949f, -0.001540f, 0.037043f, -0.216863f, 0.063789f, -0.197842f, 0.116358f, 0.062057f, 0.086399f, 0.018734f, -0.009238f, 0.043138f, -0.123718f, 0.018417f, -0.200138f, -0.199524f, -0.024801f, -0.107879f, -0.023258f, 0.054237f, 0.036997f, -0.396865f, 0.046649f, -0.027313f, -0.194038f, -0.193051f, -0.035857f, 0.079641f, -0.081818f, -0.172491f, -0.130011f, -0.143399f, -0.052550f, 0.172569f, -0.060530f, -0.113709f, -0.159372f, -0.074016f, 0.082254f, 0.051884f, 0.067091f, 0.419245f, -0.067696f, 0.349955f, -0.037801f, -0.450128f, -0.007276f, 0.112456f, -0.012219f, 0.261886f, 0.168635f, -0.343814f, 0.143988f, -0.351543f, -0.087655f, 0.381891f, -0.128948f, -0.061776f, -0.002226f, 0.086138f, -0.019031f, -0.175188f, 0.068473f, -0.562130f, 0.137851f, 0.113389f, -0.180272f, -0.092680f, 0.083649f, 0.009416f, 0.205226f, -0.037037f, -0.000781f, -0.407934f, -0.184466f, 0.135569f, -0.102472f, -0.145996f, -0.117241f, -0.095769f, -0.117726f, -0.411072f, 0.018229f, -0.437820f, 0.253837f, -0.177117f, -0.086544f, -0.558593f, -0.063633f, 0.073774f, -0.274427f, -0.082639f, -0.039893f, -0.102328f, 0.102873f, 0.158055f, 0.319484f, -0.187742f, -0.202794f, 0.163614f, -0.207445f, 0.038097f, -0.049464f, -0.169635f, -0.047960f, 0.142004f, -0.120369f, 0.209739f, 0.214364f, -0.518585f, 0.066133f, 0.013300f, 0.165160f, 0.059408f, 0.030891f, -0.008869f, 0.147891f, -0.039216f, -0.110217f, -0.202708f, 0.055521f, 0.130370f, 0.148959f, -0.085698f, -0.226472f, 0.031772f, 0.198901f, -0.079626f, -0.030228f, -0.120879f, 0.094828f, -0.017291f, 0.049646f, -0.043957f, -0.001882f, -0.021112f, -0.079512f, -0.118867f, -0.138695f, 0.025788f, 0.007079f, -0.084925f, -0.134148f, 0.046192f, -0.373918f, -0.048989f, -0.118104f, -0.069800f, 0.014239f, -0.146583f, 0.122587f, -0.219471f, -0.014415f, 0.046505f, 0.105329f, -0.055562f, 0.018129f, 0.201161f, 0.169750f, -0.055687f, -0.009275f, -0.116808f, -0.167017f, -0.145844f, 0.115155f, -0.008299f, -0.178767f, -0.068242f, 0.161022f, 0.062403f, 0.118947f, 0.049110f, -0.147894f, -0.485300f, 0.057392f, -0.053388f, -0.093959f, 0.078342f, -0.153079f, 0.099696f, -0.064387f, 0.201841f, 0.100570f, -0.042721f, 0.044481f, -0.097113f, 0.058057f, -0.097924f, 0.143819f, 0.032170f, -0.032921f, 0.368384f, 0.079261f, -0.192863f, -0.098522f, -0.006765f, -0.008019f, -0.039687f, 0.226330f, 0.091097f, 0.014604f, -0.179875f, 0.171434f, -0.088603f, 0.133087f, -0.183464f, 0.171061f, 0.021686f, 0.038309f, -0.488002f, -0.011241f, -0.181216f, 0.118592f, -0.055126f, 0.088580f, -0.197032f, -0.050542f, -0.001550f, -0.140783f, 0.102652f, 0.038793f, 0.208456f, -0.080814f, -0.159265f, -0.443729f, -0.166314f, -0.058591f, -0.075289f, -0.055414f, 0.095452f, 0.122670f, -0.177324f, -0.197138f, -0.614738f, 0.007932f, -0.522541f, -0.040328f, 0.252854f, -0.137590f, 0.028457f, -0.162968f, -0.229856f, -0.075323f, -0.204153f, -0.277490f, 0.053127f, -0.134684f, -0.335570f, -0.110795f, -0.136196f, 0.146912f, -0.146431f, 0.111560f, 0.116624f, -0.323719f, 0.129198f, -0.514333f, -0.078536f, 0.016508f, 0.070717f, 0.024949f, -0.072702f, -0.406477f, 0.131482f, -0.111678f, 0.131754f, -0.168472f, -0.587532f, 0.025740f, -0.171526f, 0.076229f, -0.021223f, 0.221956f, 0.295974f, -0.188034f, 0.156746f, -0.602386f, 0.230838f, -0.169774f, 0.124330f, -0.205073f, -0.012351f, 0.116945f, 0.119069f, 0.156024f, -0.447323f, -0.144884f, -0.188015f, 0.060523f, -0.019321f, -0.105715f, 0.129870f, -0.148302f, 0.019477f, 0.093315f, 0.115095f, -0.166609f, -0.024397f, -0.003342f, 0.200170f, 0.018200f, 0.278388f, -0.173315f, 0.008898f, 0.038729f, -0.620288f, 0.101026f, 0.076954f, 0.119222f, 0.035955f, -0.170410f, 0.374917f, -0.182011f, -0.128105f, -0.139066f, -0.159818f, 0.107933f, 0.019446f, -0.047036f, 0.351871f, 0.303479f, 0.152518f, 0.061056f, 0.008361f, -0.113581f, -0.027410f, -0.039204f, -0.172038f, -0.146203f, 0.316199f, 0.057378f, 0.187211f, -0.075624f, 0.028204f, -0.092123f, -0.116528f, 0.343254f, 0.077605f, 0.092317f, 0.157299f, -0.075209f, 0.092072f, 0.036301f, 0.263682f, -0.108130f, -0.067588f, 0.094810f, -0.117669f, -0.106285f, 0.169136f, 0.077956f, -0.146316f, 0.164547f, 0.112969f, -0.122087f, -0.038759f, -0.090969f, 0.009529f, -0.128868f, 0.086768f, 0.099593f, 0.041993f, -0.044933f, 0.361596f, -0.166057f, 0.087828f, 0.025143f, 0.099995f, 0.073794f, 0.142756f, -0.031309f, 0.150590f, 0.127273f, -0.230055f, -0.050758f, -0.014325f, -0.062179f, -0.103735f, -0.068435f, 0.011144f, 0.110212f, -0.159975f, -0.008286f, -0.102955f, -0.081526f, 0.152140f, -0.053812f, -0.091437f, -0.052574f, -0.053901f, 0.209880f, 0.115441f, -0.106117f, -0.013516f, -0.033732f, 0.230554f, 0.026728f, 0.062090f, 0.194509f, -0.186806f, -0.183901f, -0.381093f, -0.039953f, -0.286978f, 0.093345f, -0.144050f, -0.011112f, 0.033158f, 0.079121f, -0.172991f, -0.059932f, -0.090350f, -0.034711f, -0.141512f, -0.115577f, 0.177145f, 0.202606f, 0.037562f, -0.042806f, -0.010245f, 0.066163f, -0.020409f, 0.041883f, 0.063223f, 0.092327f, 0.360664f, -0.160772f, 0.051100f, 0.057718f, -0.166506f, -0.105166f, 0.005042f, 0.032764f, 0.277928f, -0.076925f, 0.196776f, 0.197126f, -0.002267f, 0.081351f, -0.130292f, -0.178636f, -0.026268f, 0.000957f, -0.109865f, 0.129635f, -0.323927f, 0.039726f, -0.233310f, -0.048124f, 0.068910f, 0.009083f, -0.199525f, 0.086415f, -0.089596f, 0.099254f, 0.031811f, 0.090113f, -0.147798f, -0.108148f, 0.052352f, 0.158698f, 0.078797f, 0.195587f, 0.019209f, -0.191438f, -0.080233f, -0.062797f, -0.292496f, 0.159740f, -0.169610f, 0.073136f, 0.113635f, -0.096002f, -0.034758f, -0.147427f, -0.032434f, 0.136382f, -0.164353f, -0.186585f, 0.140574f, 0.001579f, 0.014241f, -0.077626f, 0.043176f, -0.004154f, -0.055487f, 0.081943f, -0.115242f, -0.083570f, -0.090516f, 0.069509f, 0.030647f, -0.146827f, -0.037766f, 0.088257f, 0.098615f, -0.150656f, 0.054189f, 0.089625f, 0.244349f, 0.190730f, 0.047749f, 0.110650f, -0.195932f, 0.123432f, -0.076258f, -0.027589f, -0.089044f, -0.131586f, 0.075427f, -0.084780f, -0.207095f, 0.080299f, 0.125650f, 0.009027f, 0.119820f, 0.038216f, -0.000889f, -0.017236f, -0.184167f, -0.202661f, 0.074672f, -0.171758f, 0.019377f, 0.051964f, -0.094577f, -0.079078f, 0.028751f, 0.155741f, -0.045950f, -0.132777f, 0.079648f, -0.039307f, 0.258255f, 0.045528f, -0.059669f, -0.200842f, -0.132508f, 0.148695f, 0.174396f, 0.048279f, 0.168939f, -0.062247f, -0.002083f, 0.101186f, 0.054716f, 0.054240f, -0.152412f, -0.170343f, 0.139943f, 0.054753f, -0.125016f, 0.077534f, 0.247448f, 0.066479f, 0.065251f, -0.021627f, -0.126913f, -0.105598f, -0.092103f, -0.153073f, 0.199492f, 0.185539f, 0.058266f, 0.165599f, -0.012615f, 0.083206f, 0.154062f, -0.029913f, 0.039920f, 0.181094f, -0.025016f, 0.085983f, -0.033962f, 0.166088f, -0.062850f, 0.152495f, -0.167492f, -0.200480f, 0.113164f, -0.077687f, 0.052745f, 0.088518f, -0.076366f, 0.079872f, 0.045876f, -0.036716f, 0.040369f, 0.159414f, 0.129038f, 0.205529f, -0.181241f, 0.010384f, -0.230244f, -0.019181f, 0.134247f, 0.302533f, -0.154881f, -0.061331f, -0.071059f, -0.065634f, -0.000922f, -0.142432f, 0.087363f, 0.054653f, -0.274810f, 0.090889f, 0.075452f, -0.213542f, 0.177073f, -0.189660f, -0.048350f, -0.086267f, 0.075824f, 0.265430f, -0.051939f, -0.164642f, -0.222583f, -0.064225f, -0.280070f, 0.406420f, 0.026993f, -0.188888f, -0.441780f, 0.154151f, -0.247519f, 0.188234f, -0.059861f, -0.263882f, -0.667358f, 0.109170f, -0.270927f, 0.130638f, -0.096133f, -0.012192f, -0.036370f, 0.052252f, 0.354645f, -0.106153f, 0.391745f, -0.045869f, -0.059943f, -0.096863f, -0.204938f, -0.182888f, -0.174877f, -0.160430f, 0.033343f, -0.146269f, 0.104582f, 0.014418f, -0.195047f, -0.337176f, -0.146181f, 0.012447f, 0.089049f, 0.205687f, 0.139566f, 0.029445f, 0.220551f, -0.234608f, -0.444103f, -0.042262f, 0.018510f, -0.045913f, -0.018219f, -0.060743f, -0.026119f, 0.151655f, -0.190261f, -0.178514f, -0.020890f, 0.115776f, 0.018352f, 0.051205f, 0.111390f, 0.165651f, 0.006751f, -0.030765f, -0.187090f, -0.125274f, -0.012812f, -0.065596f, -0.113709f, 0.200365f, -0.070156f, 0.015506f, -0.032020f, -0.009455f, 0.016344f, -0.028319f, -0.171465f, -0.079957f, -0.314208f, -0.001188f, 0.371817f, 0.104082f, 0.065569f, -0.111241f, 0.138287f, 0.054021f, 0.103684f, -0.106803f, -0.343281f, 0.277717f, -0.116234f, -0.170222f, 0.082281f, -0.105577f, 0.045606f, -0.057078f, 0.153156f, -0.091242f, -0.101923f, 0.061565f, 0.058582f, -0.444673f, -0.125987f, -0.019583f, -0.185720f, 0.207010f, 0.017190f, -0.115934f, 0.120538f, 0.057516f, 0.171296f, 0.053029f, -0.029962f, 0.033373f, -0.182590f, -0.088363f, -0.066835f, -0.068432f, -0.269930f, -0.026636f, 0.178048f, 0.152519f, -0.007310f, -0.149013f, -0.248027f, 0.070439f, 0.054439f, 0.204076f, 0.041465f, -0.157074f, 0.207195f, -0.034344f, -0.147098f, 0.133434f, 0.373947f, -0.136374f, -0.330503f, 0.063337f, -0.021791f, 0.106218f, -0.161081f, -0.044177f, -0.390578f, -0.118854f, 0.130731f, 0.024601f, -0.145738f, -0.176490f, 0.073327f, -0.052920f, 0.153881f, -0.151095f, -0.142326f, -0.057670f, -0.186800f, 0.046419f, -0.032462f, -0.213536f, -0.043302f, 0.020023f, 0.087976f, -0.142375f, 0.232335f, 0.161607f, -0.260561f, -0.426681f, 0.004850f, -0.243732f, 0.074149f, 0.298055f, 0.041430f, -0.200809f, 0.031317f, 0.120947f, -0.056091f, 0.078189f, 0.087166f, 0.091765f, -0.204032f, 0.119811f, 0.028546f, 0.134150f, -0.129379f, 0.051455f, 0.039761f, -0.010438f, 0.148204f, 0.175565f, -0.060674f, -0.016987f, -0.158095f, -0.079482f, 0.127937f, -0.159352f, 0.275783f, 0.010936f, 0.233590f, 0.134895f, -0.261732f, 0.080035f, -0.172497f, -0.072788f, 0.190867f, -0.025421f, -0.164978f, -0.020687f, -0.089195f, 0.094421f, 0.403061f, -0.137494f, -0.157475f, -0.009553f, -0.135815f, -0.179015f, -0.032567f, 0.197528f, -0.418574f, 0.265019f, -0.030957f, 0.084611f, 0.105084f, 0.079664f, -0.075422f, 0.292288f, 0.075136f, -0.167543f, -0.269175f, -0.140938f, 0.114442f, -0.125098f, -0.195488f, 0.085971f, -0.089592f, -0.081763f, -0.242304f, 0.144016f, -0.044643f, 0.219469f, -0.407337f, -0.172312f, -0.523085f, 0.163165f, -0.191897f, -0.177910f, 0.084674f, -0.034182f, -0.010445f, -0.076736f, -0.135616f, -0.048786f, 0.154939f, -0.032629f, -0.134202f, 0.083645f, -0.026884f, -0.269227f, 0.054101f, -0.004652f, 0.149166f, 0.040409f, 0.075879f, 0.126508f, -0.169045f, -0.093836f, -0.022981f, -0.102885f, 0.168403f, -0.162542f, 0.017716f, 0.143080f, 0.167075f, 0.121810f, -0.036263f, -0.116287f, -0.029178f, -0.007357f, 0.023378f, -0.062901f, -0.112173f, 0.169979f, -0.411513f, -0.134175f, -0.140113f, 0.050635f, 0.034404f, -0.133861f, -0.190874f, 0.232844f, -0.219327f, -0.217156f, -0.396501f, -0.135674f, 0.260713f, 0.300543f, 0.081722f, 0.157609f, 0.006389f, -0.367383f, -0.321731f, 0.108323f, -0.194501f, 0.250736f, -0.309011f, -0.017755f, -0.477622f, 0.066784f, 0.095708f, -0.226130f, -0.148888f, -0.090931f, -0.103720f, -0.006879f, -0.061246f, 0.065461f, -0.178530f, 0.154080f, -0.136518f, -0.183162f, -0.070847f, -0.068596f, -0.096907f, 0.017245f, -0.030118f, -0.076293f, -0.097855f, 0.204516f, -0.410958f, 0.047842f, -0.068106f, -0.065994f, 0.085936f, 0.114532f, -0.057092f, -0.015141f, -0.006983f, -0.063936f, 0.062422f, 0.100713f, 0.057382f, -0.080189f, 0.057897f, 0.079421f, -0.103460f, -0.088874f, 0.412192f, 0.011783f, -0.099929f, -0.046158f, 0.009765f, 0.036994f, -0.173094f, 0.201957f, -0.038099f, -0.100452f, -0.185494f, 0.041826f, -0.064810f, -0.025419f, 0.101374f, -0.113032f, 0.004752f, -0.300503f, -0.192833f, -0.187291f, 0.003335f, 0.102533f, -0.037722f, 0.101165f, -0.284261f, -0.177677f, -0.058789f, 0.053316f, -0.186624f, -0.184832f, 0.200978f, 0.087011f, -0.183558f, -0.345326f, -0.093777f, 0.053023f, 0.136361f, -0.151277f, -0.063630f, 0.238136f, -0.153167f, 0.053895f, -0.712318f, -0.124965f, -0.633614f, -0.115747f, 0.268868f, 0.145793f, -0.111029f, 0.067432f, -0.276336f, -0.147997f, -0.002526f, -0.212857f, 0.199388f, 0.049582f, -0.541078f, -0.053392f, 0.085623f, 0.087909f, -0.206006f, -0.205002f, 0.149211f, -0.284931f, 0.060176f, -0.295815f, -0.208042f, -0.107028f, -0.057856f, -0.102976f, 0.111453f, -0.557093f, -0.002799f, 0.161036f, -0.033947f, -0.053546f, -0.474148f, 0.169736f, 0.062770f, -0.019852f, -0.022399f, 0.308883f, 0.004252f, 0.063330f, 0.027621f, -0.560104f, 0.177216f, -0.138454f, 0.148738f, -0.204583f, -0.163470f, 0.166641f, -0.006461f, 0.049448f, -0.370877f, -0.149128f, 0.015226f, 0.242438f, 0.018393f, -0.016892f, -0.287095f, 0.064056f, 0.102191f, 0.078252f, 0.071886f, -0.129339f, 0.283945f, 0.033811f, 0.215237f, 0.138679f, 0.105912f, -0.200171f, -0.043302f, -0.130093f, -0.594681f, -0.116809f, -0.062459f, 0.036681f, 0.065087f, -0.194156f, 0.256864f, -0.006363f, 0.141883f, -0.323901f, 0.010829f, 0.071734f, 0.057522f, 0.134770f, 0.079106f, 0.306598f, 0.124741f, -0.017296f, -0.133879f, 0.038517f, 0.094798f, -0.076459f, 0.017188f, 0.114568f, 0.316005f, -0.094751f, 0.281979f, -0.168961f, -0.039130f, 0.160148f, -0.204477f, 0.239148f, 0.033204f, 0.043327f, 0.019033f, 0.261395f, 0.111431f, 0.060274f, 0.137820f, -0.015750f, 0.022095f, 0.178811f, -0.194193f, 0.141591f, -0.005907f, 0.065356f, 0.021300f, -0.026262f, -0.179536f, -0.046960f, -0.033019f, -0.177649f, -0.146381f, -0.282640f, -0.069322f, -0.217290f, 0.124255f, -0.144917f, 0.278868f, -0.187379f, -0.051896f, -0.028061f, 0.009984f, 0.034442f, 0.253523f, -0.159820f, 0.120182f, 0.249328f, 0.096347f, -0.143976f, -0.109337f, -0.143634f, -0.162812f, 0.035880f, -0.098659f, -0.215226f, -0.329505f, -0.028671f, -0.299334f, -0.114531f, -0.116298f, 0.019864f, 0.081574f, -0.043748f, -0.115529f, 0.138349f, 0.023605f, -0.100834f, -0.094054f, 0.068546f, -0.025875f, -0.030284f, 0.066378f, 0.171599f, -0.203386f, -0.091614f, -0.136952f, -0.149268f, -0.195622f, 0.131772f, -0.037839f, -0.052782f, -0.130977f, 0.087640f, -0.156886f, 0.034561f, -0.120883f, -0.113523f, 0.238455f, -0.108086f, 0.136053f, 0.165018f, -0.062246f, 0.166129f, 0.138575f, 0.112460f, -0.203490f, -0.238767f, -0.178535f, 0.124291f, 0.047884f, -0.182729f, 0.251149f, -0.048470f, -0.001223f, -0.070549f, -0.058308f, 0.052043f, 0.052535f, -0.058049f, 0.215672f, 0.140732f, 0.020980f, 0.138131f, -0.106284f, -0.019237f, 0.083836f, -0.132147f, -0.161938f, -0.078913f, -0.309494f, 0.144326f, -0.061894f, 0.051237f, 0.081615f, -0.178475f, -0.098455f, -0.086784f, -0.014335f, 0.050072f, -0.133947f, -0.102327f, -0.192425f, -0.135788f, 0.141186f, 0.044029f, 0.114373f, -0.025980f, 0.013125f, -0.026767f, -0.305067f, 0.026159f, -0.420932f, 0.217903f, -0.241570f, -0.092564f, 0.144031f, -0.104008f, 0.113345f, -0.003518f, -0.142417f, -0.049114f, 0.034724f, -0.116297f, 0.023215f, -0.002009f, 0.075199f, -0.051704f, 0.043479f, -0.064243f, -0.151410f, 0.114419f, -0.133988f, -0.106184f, 0.042101f, 0.144696f, -0.138576f, 0.125187f, 0.123067f, -0.204676f, -0.105664f, 0.068785f, -0.234801f, 0.036166f, 0.107166f, -0.109608f, -0.020020f, -0.058876f, -0.019610f, -0.214674f, -0.026620f, 0.014839f, 0.109780f, -0.001931f, -0.200479f, -0.095139f, -0.023582f, -0.052987f, -0.059463f, 0.058023f, 0.015348f, 0.035144f, -0.006575f, -0.132220f, -0.163775f, -0.068107f, -0.179216f, 0.147767f, 0.202715f, 0.018224f, -0.001697f, 0.083566f, -0.188787f, -0.080744f, -0.182382f, -0.123022f, 0.144861f, 0.067779f, -0.056213f, -0.216894f, -0.085095f, 0.017765f, -0.053993f, 0.141279f, 0.065360f, -0.202985f, 0.274885f, 0.114150f, -0.092831f, 0.086701f, -0.090111f, 0.110680f, 0.116588f, 0.120859f, -0.041563f, -0.118183f, -0.131989f, -0.027843f, 0.156510f, 0.041874f, 0.285058f, 0.097950f, -0.192148f, 0.143639f, 0.104588f, 0.005527f, 0.258566f, 0.167699f, 0.147919f, 0.043264f, 0.217849f, 0.048508f, 0.400233f, -0.113824f, -0.137727f, 0.015616f, -0.072470f, 0.155227f, 0.051890f, 0.005773f, -0.146523f, 0.241898f, 0.077410f, -0.058077f, -0.107499f, -0.182457f, -0.171086f, -0.037342f, 0.172153f, 0.033672f, 0.003529f, -0.036752f, -0.047658f, 0.096020f, 0.167420f, 0.170434f, -0.035913f, -0.119674f, -0.090675f, 0.076956f, 0.094441f, 0.023395f, -0.220667f, -0.090567f, -0.070807f, 0.068991f, -0.182530f, -0.272731f, -0.115860f, -0.111284f, 0.208736f, -0.098256f, -0.123024f, -0.059029f, 0.133614f, 0.122407f, 0.203921f, 0.057653f, 0.125681f, 0.215897f, -0.050603f, 0.016227f, -0.110292f, 0.001110f, -0.044161f, -0.109628f, -0.211542f, 0.131563f, 0.010883f, -0.171007f, -0.088020f, -0.108339f, -0.004802f, -0.190383f, -0.494570f, 0.024141f, 0.020048f, 0.021100f, 0.159108f, -0.167555f, -0.156218f, 0.084465f, 0.065415f, -0.127199f, 0.218450f, -0.138497f, 0.101511f, 0.115691f, -0.002412f, -0.146434f, -0.173302f, -0.174614f, -0.077528f, -0.122177f, -0.059705f, -0.163218f, 0.098430f, -0.239009f, -0.104976f, 0.128782f, -0.134767f, 0.201223f, 0.128384f, -0.171457f, 0.186892f, -0.001256f, -0.361172f, 0.023071f, 0.208321f, -0.114832f, -0.169824f, -0.082729f, 0.080523f, 0.036763f, 0.101829f, 0.126992f, -0.189005f, 0.253072f, -0.184821f, 0.041000f, 0.044819f, 0.149002f, 0.040771f, 0.000027f, -0.039632f, -0.104217f, -0.007426f, 0.000630f, -0.022150f, 0.124415f, 0.181568f, 0.117263f, 0.110581f, 0.050852f, 0.023799f, 0.100293f, -0.170449f, -0.111720f, -0.089698f, 0.129110f, 0.199252f, 0.064864f, -0.039513f, 0.022411f, -0.134633f, -0.082827f, 0.081142f, 0.045907f, -0.164339f, 0.161107f, -0.216181f, -0.104046f, -0.145545f, 0.054689f, 0.107073f, -0.086192f, -0.036056f, -0.158717f, -0.196757f, 0.100413f, -0.059349f, -0.125290f, 0.111858f, 0.017453f, 0.133130f, 0.260850f, -0.023043f, 0.138971f, -0.076172f, -0.058887f, -0.110501f, 0.072288f, 0.013004f, -0.074430f, 0.041170f, 0.153680f, 0.033539f, -0.171182f, -0.188333f, -0.169011f, 0.154189f, 0.081957f, -0.050051f, -0.150804f, 0.061449f, 0.065353f, -0.107467f, 0.076685f, -0.071419f, -0.211976f, -0.028298f, -0.102731f, 0.137012f, -0.047769f, 0.338946f, 0.108484f, 0.085840f, -0.086846f, -0.063090f, 0.080451f, -0.328334f, 0.050880f, -0.336192f, 0.140498f, -0.201863f, -0.122717f, -0.160195f, -0.218485f, -0.159332f, -0.046688f, 0.126774f, -0.003458f, 0.109828f, -0.155397f, 0.090142f, 0.133550f, 0.053975f, -0.134355f, -0.098674f, -0.085775f, -0.158588f, -0.227614f, 0.251301f, 0.183375f, -0.172702f, -0.466585f, 0.015295f, -0.176269f, -0.164199f, -0.071456f, -0.047888f, -0.070442f, 0.155920f, 0.067305f, -0.268606f, -0.217755f, 0.205564f, -0.037400f, -0.153412f, 0.264690f, -0.161876f, -0.005369f, 0.167543f, -0.066673f, 0.167100f, -0.165399f, -0.121794f, 0.120979f, -0.181242f, 0.137238f, -0.224005f, -0.038544f, 0.130440f, -0.010885f, -0.034598f, 0.007188f, 0.043380f, -0.128573f, -0.176345f, -0.067792f, -0.030986f, 0.039659f, 0.259429f, -0.050154f, -0.146691f, 0.071069f, 0.028768f, 0.081143f, 0.231318f, 0.159902f, -0.004888f, -0.087205f, -0.080096f, 0.088206f, -0.138223f, 0.089878f, -0.147830f, 0.211948f, -0.093024f, -0.214154f, -0.117862f, 0.006585f, -0.134790f, 0.127287f, 0.034491f, -0.207063f, -0.126582f, 0.014353f, 0.173448f, -0.192030f, -0.035160f, 0.125739f, 0.023179f, 0.028797f, -0.058942f, 0.053365f, 0.003387f, -0.001749f, -0.105505f, -0.221867f, -0.656426f, 0.067413f, -0.021949f, -0.090085f, -0.163830f, 0.094098f, -0.007693f, 0.048176f, -0.012836f, 0.183898f, 0.007695f, 0.026042f, -0.022743f, 0.114454f, 0.049807f, 0.033894f, 0.070225f, 0.030930f, 0.230432f, -0.189224f, -0.018900f, 0.003060f, -0.403351f, -0.172966f, -0.034797f, 0.175349f, -0.061690f, -0.081754f, 0.049651f, 0.302318f, 0.142200f, 0.152272f, -0.098321f, 0.138317f, 0.013084f, 0.041698f, 0.134861f, 0.024253f, -0.224087f, 0.245795f, -0.072434f, 0.206023f, -0.002904f, -0.060648f, -0.048708f, 0.072012f, 0.156982f, 0.268876f, -0.102245f, -0.005905f, -0.366454f, -0.079312f, 0.251131f, 0.003217f, 0.098153f, 0.136393f, -0.174827f, -0.183450f, -0.158551f, 0.088463f, -0.306343f, -0.015723f, -0.078831f, 0.101858f, -0.580427f, -0.088972f, -0.063011f, -0.153606f, -0.111719f, -0.020349f, 0.079535f, 0.070092f, 0.113568f, -0.032748f, -0.068222f, -0.137644f, -0.062787f, -0.041433f, -0.218141f, 0.123973f, -0.109064f, -0.051310f, -0.039315f, -0.084837f, -0.185906f, -0.054935f, -0.363780f, -0.110304f, 0.043700f, -0.014012f, 0.073998f, 0.161832f, -0.088914f, -0.147961f, 0.062311f, 0.038467f, 0.115320f, -0.002527f, 0.122798f, 0.108874f, -0.054640f, 0.120611f, -0.049356f, -0.104712f, 0.389333f, -0.222195f, 0.152166f, -0.153951f, -0.170465f, 0.002265f, -0.149516f, 0.023360f, 0.093696f, 0.040199f, -0.103506f, -0.178190f, 0.016224f, 0.140782f, -0.121336f, -0.015365f, -0.205223f, 0.063883f, -0.267296f, 0.021708f, -0.037925f, -0.029386f, -0.079412f, -0.203298f, -0.260068f, -0.189514f, -0.043697f, -0.016028f, -0.178272f, -0.058491f, 0.173157f, 0.052012f, -0.060028f, -0.581561f, -0.146262f, -0.186885f, 0.043425f, -0.112462f, -0.102541f, 0.017260f, 0.177114f, 0.041800f, -0.729204f, -0.093581f, -0.698300f, 0.175578f, 0.068254f, 0.114543f, 0.131258f, 0.125171f, -0.479438f, -0.148322f, -0.077923f, -0.377604f, -0.076041f, -0.020178f, -0.229768f, 0.051259f, 0.040268f, 0.099600f, -0.213252f, 0.043463f, 0.104073f, -0.438485f, 0.253775f, -0.470391f, -0.172316f, 0.130888f, 0.114015f, 0.145709f, 0.077392f, -0.512507f, -0.114404f, 0.044009f, 0.269295f, 0.170001f, -0.263324f, 0.073184f, 0.001724f, -0.081252f, -0.132136f, 0.231542f, 0.348928f, -0.078493f, 0.350108f, -0.534348f, 0.062106f, -0.117885f, 0.214736f, 0.106945f, -0.042705f, 0.298694f, 0.127617f, 0.094947f, -0.121294f, 0.098511f, 0.137866f, 0.364103f, 0.095450f, -0.192140f, 0.100829f, -0.131423f, 0.173102f, 0.056734f, 0.024020f, -0.120152f, 0.429636f, -0.156646f, 0.182912f, 0.161884f, 0.132095f, 0.169652f, -0.016224f, 0.125746f, -0.768242f, -0.113816f, 0.014762f, 0.015491f, 0.206117f, 0.070386f, 0.478486f, -0.061924f, -0.103505f, -0.638722f, -0.183953f, -0.109022f, 0.103066f, 0.039573f, 0.023235f, 0.262924f, -0.169011f, 0.001178f, -0.032976f, 0.079564f, -0.041635f, -0.008281f, 0.105207f, 0.083666f, 0.428454f, -0.161232f, 0.195939f, -0.261440f, 0.105550f, 0.146131f, 0.146863f, 0.191412f, 0.045761f, 0.037066f, 0.118236f, 0.166051f, 0.280867f, -0.029290f, 0.178254f, -0.031023f, -0.201574f, 0.322945f, -0.128818f, 0.090965f, -0.109920f, -0.171414f, -0.182658f, -0.027106f, -0.074349f, -0.155795f, 0.016056f, -0.135155f, 0.108402f, -0.069627f, 0.037425f, 0.083180f, 0.371440f, -0.056656f, 0.277276f, -0.071658f, 0.069448f, 0.001486f, -0.114633f, -0.061779f, -0.102100f, 0.165608f, -0.157534f, -0.070841f, 0.053662f, -0.218456f, -0.129815f, -0.075118f, -0.024926f, -0.050538f, -0.068422f, -0.139385f, -0.204126f, -0.089878f, -0.212692f, -0.120958f, -0.168754f, -0.108805f, 0.051309f, -0.098663f, -0.049453f, 0.246264f, 0.062279f, -0.079516f, 0.099936f, -0.130243f, -0.117077f, -0.161026f, -0.078163f, 0.111800f, -0.052525f, -0.176956f, -0.357614f, 0.089707f, -0.053851f, 0.156184f, -0.098166f, -0.047455f, -0.079688f, 0.106058f, 0.067982f, 0.029968f, 0.113953f, 0.022351f, 0.122267f, -0.192659f, -0.165293f, 0.215246f, -0.026125f, 0.174149f, -0.093525f, 0.148100f, 0.108835f, 0.083452f, 0.123036f, 0.017489f, 0.340257f, 0.008487f, 0.081540f, -0.449903f, -0.089982f, -0.005035f, -0.304376f, -0.143523f, 0.103850f, 0.005137f, 0.007781f, 0.221359f, -0.018768f, -0.047753f, -0.271281f, -0.197012f, 0.155067f, -0.042644f, -0.054947f, 0.113873f, -0.340379f, 0.077616f, -0.112756f, -0.013138f, -0.206592f, -0.199970f, -0.075172f, -0.027038f, -0.021997f, 0.189306f, -0.035561f, 0.087386f, -0.203924f, -0.153102f, -0.020705f, 0.034443f, 0.006072f, 0.133271f, -0.074018f, -0.265213f, -0.298086f, -0.043311f, -0.334410f, 0.208096f, 0.051939f, -0.179296f, 0.046395f, -0.099590f, -0.196371f, 0.050063f, 0.106583f, 0.088534f, -0.006344f, 0.017011f, -0.001145f, 0.103303f, -0.011938f, 0.051894f, -0.164755f, -0.070694f, -0.137298f, -0.138309f, -0.087936f, -0.029203f, 0.076561f, 0.118059f, -0.078616f, 0.032217f, 0.188093f, 0.016455f, -0.070341f, -0.044497f, 0.002976f, -0.174125f, -0.003342f, -0.084843f, -0.271906f, -0.138583f, 0.058370f, -0.173792f, 0.092855f, -0.167386f, 0.094269f, -0.074747f, 0.052061f, 0.110035f, 0.066755f, -0.085527f, -0.023482f, -0.187261f, 0.135422f, -0.103438f, 0.144860f, 0.083723f, -0.115155f, -0.070784f, -0.142228f, 0.153852f, 0.144062f, 0.026486f, -0.046561f, -0.042978f, 0.021996f, -0.047657f, -0.173960f, -0.139744f, 0.083865f, 0.085557f, 0.016514f, -0.154160f, 0.072314f, 0.064415f, 0.037259f, -0.143474f, -0.089949f, -0.130448f, 0.280273f, 0.171701f, 0.131548f, 0.169189f, -0.002618f, -0.148435f, 0.101164f, 0.114860f, 0.057268f, -0.003433f, 0.006070f, -0.093599f, 0.266588f, -0.072727f, 0.084188f, 0.160385f, -0.144944f, 0.046484f, -0.167598f, 0.002398f, 0.161491f, 0.157708f, -0.024689f, 0.110637f, 0.025609f, 0.090273f, 0.059201f, 0.109895f, -0.003194f, -0.022651f, 0.069092f, 0.047609f, 0.009643f, 0.184104f, -0.110420f, 0.332504f, 0.081399f, 0.113603f, 0.118197f, 0.091067f, -0.159943f, 0.242401f, 0.165783f, 0.123061f, -0.107175f, 0.145543f, 0.098436f, -0.110760f, -0.047097f, 0.010678f, 0.082571f, -0.264898f, -0.206829f, 0.025429f, -0.150014f, 0.099172f, -0.318967f, -0.164818f, -0.040271f, 0.028304f, -0.039401f, 0.005808f, -0.156137f, -0.100553f, 0.439906f, -0.137274f, -0.070491f, 0.202719f, 0.056663f, -0.117412f, 0.709989f, 0.127212f, 0.098836f, -0.339895f, 0.159714f, -0.165876f, -0.098899f, 0.022215f, -0.027122f, -0.705349f, -0.258978f, 0.060664f, 0.770836f, -0.173467f, -0.200795f, 0.035808f, 0.288771f, 0.284204f, -0.453433f, -0.133654f, -0.112909f, 0.162677f, -0.114232f, -0.311784f, 0.050585f, 0.165090f, 0.184703f, -0.104594f, 0.455162f, 0.206496f, 0.037784f, 0.123674f, -0.027465f, -0.108880f, 0.019680f, 0.137270f, 0.101002f, 0.071079f, 0.155152f, -0.022225f, 0.421513f, -0.034485f, 0.180443f, 0.365086f, -0.077417f, -0.128372f, 0.054353f, -0.103624f, -0.030432f, 0.003919f, -0.354583f, -0.060786f, 0.255422f, -0.216974f, -0.189522f, -0.081327f, -0.011500f, -0.128284f, 0.111779f, -0.028173f, -0.074099f, 0.151740f, 0.041785f, 0.000719f, 0.337450f, -0.164970f, -0.095902f, 0.087754f, -0.145999f, -0.054809f, -0.027498f, 0.133437f, 0.195209f, -0.089851f, 0.100487f, 0.081172f, 0.291136f, -0.155493f, 0.020631f, -0.172802f, 0.212555f, 0.065646f, 0.141465f, 0.066777f, -0.010174f, 0.025605f, -0.021610f, -0.059094f, -0.095780f, 0.135324f, 0.262822f, 0.089238f, -0.131099f, 0.346923f, -0.102234f, -0.040971f, 0.093545f, -0.086348f, -0.022745f, 0.187617f, 0.096909f, 0.118195f, -0.179944f, -0.032825f, -0.088293f, -0.245303f, 0.054211f, 0.191993f, 0.068875f, 0.160206f, 0.306972f, 0.073852f, -0.050671f, 0.021239f, -0.047856f, -0.134361f, -0.065919f, -0.086688f, 0.073459f, 0.310332f, -0.085666f, -0.107368f, 0.212918f, -0.122067f, 0.088693f, 0.224360f, -0.168130f, 0.167617f, 0.265110f, -0.151860f, -0.077544f, -0.248642f, -0.103075f, 0.030732f, 0.272512f, -0.131013f, 0.138071f, -0.291159f, 0.189385f, 0.044726f, 0.476595f, -0.159697f, -0.055962f, 0.046913f, 0.187134f, 0.142041f, -0.020237f, -0.105421f, -0.394162f, -0.094514f, -0.141566f, -0.076890f, -0.081152f, 0.008882f, -0.064968f, 0.206921f, -0.064287f, -0.049698f, -0.122146f, 0.165386f, -0.216212f, 0.127166f, -0.178166f, 0.291388f, 0.113589f, -0.109329f, 0.276936f, 0.179935f, -0.145754f, -0.040046f, -0.102200f, 0.150929f, -0.238472f, 0.083881f, -0.017947f, 0.141951f, -0.011283f, 0.062043f, 0.079932f, -0.008823f, 0.306391f, -0.016399f, -0.215465f, -0.022339f, 0.137598f, 0.049509f, 0.198887f, 0.041645f, 0.088111f, -0.114379f, -0.148839f, 0.030637f, 0.023724f, -0.042962f, 0.085143f, -0.045752f, 0.058600f, 0.086996f, 0.167972f, -0.143311f, 0.145479f, -0.090446f, -0.372801f, 0.057735f, 0.131919f, -0.193664f, 0.069970f, -0.063583f, 0.206538f, 0.051408f, -0.211416f, -0.036236f, -0.101116f, 0.079726f, 0.157111f, 0.071106f, -0.096832f, -0.196323f, 0.210682f, 0.143436f, -0.172107f, 0.103184f, -0.076210f, -0.059227f, -0.232627f, -0.177086f, -0.125467f, -0.044470f, -0.067782f, -0.253335f, -0.147473f, 0.171094f, 0.210239f, -0.020566f, 0.012085f, 0.057186f, -0.124376f, -0.178906f, 0.045672f, 0.161688f, -0.187456f, -0.073902f, -0.360636f, -0.148998f, -0.864165f, 0.134247f, -0.137863f, -0.226776f, -0.148639f, -0.005112f, 0.037386f, -0.106535f, 0.088184f, 0.292939f, 0.132113f, -0.120814f, 0.059579f, 0.008922f, -0.231339f, -0.270778f, -0.195390f, 0.014902f, 0.016515f, -0.004866f, 0.069831f, -0.018359f, -0.327564f, -0.218868f, -0.158478f, -0.091552f, 0.111288f, 0.106895f, 0.286969f, 0.257558f, 0.051708f, -0.139822f, -0.052842f, -0.154480f, -0.194770f, 0.078904f, -0.229844f, 0.105762f, -0.129222f, -0.067880f, -0.275310f, 0.152650f, -0.201539f, 0.049433f, 0.092040f, -0.180996f, -0.126486f, -0.065956f, 0.052359f, -0.218549f, -0.347690f, 0.100251f, 0.196357f, 0.199611f, -0.166490f, 0.020877f, -0.173909f, -0.154693f, -0.089167f, -0.116591f, 0.055767f, 0.120792f, -0.113545f, -0.159580f, -0.426724f, 0.064655f, -0.038119f, -0.196889f, 0.046620f, 0.001136f, 0.016911f, 0.176086f, 0.089684f, -0.040769f, 0.030142f, -0.153844f, -0.050353f, 0.097365f, -0.062338f, 0.024373f, -0.153713f, -0.031571f, -0.083642f, -0.155982f, 0.176322f, 0.059988f, -0.211107f, -0.149300f, 0.025204f, 0.182018f, -0.083899f, 0.140658f, 0.191017f, 0.084803f, 0.081630f, 0.098132f, 0.129754f, -0.076144f, -0.055965f, 0.076675f, 0.001111f, 0.051701f, -0.016206f, 0.041802f, 0.147899f, -0.025670f, 0.043689f, -0.174924f, -0.229766f, -0.022954f, 0.004336f, -0.128352f, 0.044770f, -0.001169f, -0.127983f, -0.154416f, 0.084820f, 0.099739f, -0.107711f, 0.005629f, -0.141048f, 0.114792f, -0.375908f, -0.032437f, -0.090951f, 0.070828f, 0.106445f, 0.058344f, -0.089130f, -0.150454f, 0.141187f, -0.053441f, 0.150905f, -0.053604f, -0.042725f, 0.164181f, 0.106468f, -0.508577f, 0.135698f, -0.137123f, 0.087577f, -0.006575f, 0.000145f, 0.285752f, 0.065895f, 0.005543f, -0.757627f, -0.066868f, -0.589101f, 0.166289f, 0.375837f, -0.219880f, 0.138431f, 0.006078f, -0.481632f, 0.027927f, 0.024443f, -0.360810f, 0.030091f, -0.063918f, -0.202731f, -0.202163f, -0.161357f, -0.153091f, -0.074185f, -0.062468f, 0.216610f, -0.654249f, 0.151818f, -0.375426f, -0.168747f, -0.164340f, -0.000804f, -0.079231f, -0.104016f, -0.567573f, -0.043446f, 0.123609f, 0.157326f, 0.020037f, -0.362683f, 0.214234f, -0.069715f, 0.071594f, -0.057010f, 0.395826f, 0.103766f, -0.030018f, 0.122309f, -0.485140f, 0.178240f, 0.044486f, 0.289629f, 0.026920f, -0.204178f, 0.013651f, -0.084168f, -0.023996f, -0.421643f, -0.154703f, 0.138990f, 0.447739f, 0.044327f, 0.078588f, -0.137117f, 0.016836f, 0.134311f, 0.066221f, 0.167860f, -0.061048f, 0.576252f, 0.006138f, 0.505602f, -0.243681f, 0.265173f, 0.053187f, -0.149976f, -0.076652f, -0.596621f, -0.032770f, -0.085854f, 0.202267f, 0.223159f, -0.003878f, 0.423972f, -0.195315f, 0.105615f, -0.634602f, 0.152002f, 0.101612f, -0.044791f, 0.332681f, 0.089033f, 0.547363f, -0.177491f, -0.099548f, -0.021846f, 0.005021f, -0.056972f, -0.015116f, -0.192588f, 0.125275f, 0.369475f, 0.163034f, 0.427960f, -0.213532f, 0.130112f, -0.044136f, 0.084862f, 0.092790f, 0.085884f, 0.134380f, -0.103119f, 0.452205f, 0.383283f, 0.040989f, 0.392915f, -0.125656f, -0.072012f, 0.254057f, -0.125315f, -0.130829f, 0.022923f, 0.141304f, -0.093988f, 0.246646f, -0.098895f, 0.086462f, -0.048188f, 0.008970f, -0.139849f, -0.238208f, -0.151196f, -0.132828f, 0.069449f, -0.125954f, 0.255614f, -0.215322f, -0.053110f, 0.056040f, -0.356469f, 0.011183f, 0.128275f, -0.167712f, 0.060638f, 0.242072f, -0.124593f, -0.199691f, -0.116489f, -0.042802f, -0.209343f, -0.011039f, 0.089130f, -0.129596f, -0.098919f, 0.245545f, -0.184095f, -0.106705f, -0.170314f, -0.205668f, 0.090332f, 0.096069f, 0.081794f, 0.181873f, -0.101383f, 0.079918f, -0.142926f, -0.036892f, 0.006228f, 0.110374f, -0.073940f, 0.079674f, 0.106047f, -0.115474f, -0.098301f, -0.206244f, -0.262103f, -0.038723f, -0.037477f, -0.109970f, -0.123901f, -0.007343f, 0.039919f, -0.042377f, -0.044529f, -0.065024f, 0.050370f, 0.063681f, -0.162033f, -0.153253f, -0.035853f, -0.018572f, 0.006048f, -0.002835f, -0.080895f, -0.095762f, 0.003375f, 0.133255f, 0.094871f, -0.052099f, 0.156581f, -0.028677f, 0.129425f, 0.021165f, -0.026158f, 0.000864f, -0.019026f, -0.031625f, 0.184605f, 0.255129f, -0.231193f, 0.051647f, 0.085508f, 0.051819f, -0.180251f, -0.168019f, -0.056006f, -0.179710f, -0.288791f, 0.015883f, -0.209166f, -0.231166f, -0.106721f, 0.100243f, 0.019052f, 0.149130f, -0.112900f, 0.021299f, -0.196228f, 0.066868f, -0.090836f, 0.001284f, -0.064860f, 0.061577f, -0.065775f, 0.014735f, 0.096647f, -0.102849f, -0.326215f, 0.146551f, -0.083253f, 0.270870f, -0.149284f, 0.026398f, -0.157656f, 0.008992f, -0.066928f, 0.287705f, -0.183391f, 0.108275f, -0.040326f, 0.165666f, -0.156023f, -0.053605f, 0.098111f, -0.014238f, -0.156860f, -0.161207f, 0.089536f, -0.175571f, -0.173497f, 0.064284f, 0.040398f, -0.022678f, -0.184556f, 0.030158f, -0.117614f, 0.033509f, -0.065358f, 0.023189f, -0.217784f, 0.079918f, 0.007902f, 0.074546f, -0.012533f, -0.191792f, 0.056414f, 0.102679f, -0.119713f, 0.059334f, -0.130180f, 0.002490f, -0.142926f, -0.021204f, -0.218787f, 0.139036f, 0.063257f, 0.088797f, 0.036037f, -0.184579f, -0.011684f, -0.086262f, 0.077348f, -0.013813f, -0.029975f, -0.064531f, -0.076514f, 0.091098f, -0.034926f, 0.009865f, -0.124002f, -0.060413f, 0.149034f, -0.090743f, -0.094015f, -0.146865f, 0.196393f, -0.005077f, -0.203772f, 0.052157f, -0.113947f, -0.039035f, -0.104421f, 0.053650f, 0.154637f, -0.192924f, -0.117095f, 0.083478f, -0.091868f, -0.110829f, 0.098943f, -0.199335f, -0.174835f, 0.118190f, 0.057501f, 0.040634f, 0.376275f, 0.096453f, 0.193206f, -0.121923f, 0.087253f, -0.055405f, 0.119767f, 0.161070f, 0.297987f, -0.109491f, 0.018597f, 0.066336f, 0.113272f, 0.099075f, 0.281025f, -0.015847f, -0.131372f, -0.065778f, -0.180473f, -0.162874f, -0.037059f, 0.231199f, -0.177561f, 0.278812f, -0.083963f, -0.103122f, 0.108393f, -0.173324f, -0.194811f, 0.066638f, -0.143628f, 0.070215f, -0.021482f, 0.014956f, 0.236752f, -0.097121f, -0.203281f, 0.081118f, 0.019953f, 0.039862f, 0.080230f, 0.021533f, 0.076044f, 0.053707f, -0.441265f, 0.111396f, 0.175852f, -0.029032f, -0.064459f, -0.193481f, -0.111947f, 0.044892f, 0.493587f, 0.186523f, -0.033083f, 0.327753f, 0.010717f, -0.007440f, 1.084980f, -0.055806f, 0.165714f, -0.266809f, -0.137962f, -0.259146f, 0.121621f, 0.096593f, 0.196194f, -0.887775f, 0.070439f, -0.145033f, 1.057405f, 0.031824f, 0.376256f, 0.163526f, -0.384806f, 0.346678f, -0.364003f, -0.220139f, 0.162367f, 0.156718f, 0.189461f, -0.032576f, -0.062697f, -0.081017f, 0.270946f, 0.211802f, 0.348664f, 0.374211f, 0.117055f, 0.213003f, -0.067674f, 0.016534f, 0.010903f, 0.151565f, -0.041145f, 0.013316f, 0.300935f, 0.172960f, 0.303693f, -1.049952f, 0.167578f, 0.836312f, 0.111139f, -0.171201f, 0.112386f, -0.191718f, 0.141909f, 0.325608f, 0.026303f, -0.195795f, 0.315351f, -0.081612f, -0.095039f, -0.226090f, -0.046080f, -0.150266f, 0.424254f, -0.000284f, -0.043920f, -0.003236f, -0.165230f, -0.001314f, 0.295382f, -0.089996f, 0.153460f, 0.203863f, -0.140000f, -0.029008f, 0.118298f, -0.071329f, -0.001110f, -0.122240f, 0.036312f, -0.167693f, 0.258574f, 0.135413f, 0.180509f, 0.073622f, 0.110876f, 0.005726f, -0.010850f, -0.180416f, 0.049062f, -0.038702f, 0.041833f, 0.022682f, -0.152751f, -0.106992f, 0.024470f, 0.152094f, 0.130609f, -0.123790f, -0.216491f, -0.171149f, -0.066063f, -0.161319f, -0.057803f, 0.061763f, 0.097193f, -0.134821f, -0.150582f, 0.146742f, -0.077293f, 0.136654f, 0.085748f, 0.442635f, -0.121600f, 0.157883f, 0.230915f, -0.127074f, 0.185849f, 0.180217f, 0.148387f, -0.068262f, -0.190103f, -0.203622f, -0.041309f, 0.309649f, 0.102921f, 0.190030f, 0.324031f, 0.089035f, 0.096545f, -0.005829f, -0.154261f, 0.153965f, 0.745323f, 0.074778f, -0.004374f, -0.332541f, -0.077845f, 0.108407f, 0.320475f, 0.096213f, 0.181838f, -0.732278f, 0.235108f, -0.085139f, 0.680798f, -0.169665f, 0.269827f, 0.127783f, 0.020538f, 0.127431f, -0.001182f, -0.205501f, -0.270110f, -0.101938f, 0.029462f, -0.254510f, -0.134252f, -0.069833f, -0.134340f, 0.094530f, -0.003600f, 0.107443f, 0.107856f, 0.014543f, -0.027105f, 0.139064f, 0.147188f, 0.233835f, -0.147593f, 0.024742f, 0.453844f, 0.051236f, 0.057772f, -0.311589f, -0.079745f, 0.435854f, 0.129617f, -0.076932f, 0.056546f, 0.109830f, 0.134220f, 0.359759f, -0.010392f, 0.101098f, 0.152413f, 0.001491f, -0.085192f, 0.095170f, 0.006725f, 0.078106f, 0.128282f, -0.169770f, -0.160940f, -0.270772f, -0.088476f, -0.111306f, 0.098023f, 0.125862f, 0.103056f, -0.117829f, -0.181561f, -0.031388f, -0.045567f, 0.018598f, -0.110014f, -0.055118f, -0.361324f, 0.135328f, 0.001671f, -0.151208f, -0.068099f, 0.039811f, 0.336687f, 0.251057f, -0.019491f, -0.165274f, -0.413539f, 0.149684f, 0.071729f, 0.110811f, 0.099036f, -0.042645f, 0.254803f, 0.148281f, -0.116971f, -0.326322f, -0.186164f, -0.142671f, -0.035193f, -0.112288f, -0.163526f, 0.032666f, -0.010243f, 0.062558f, -0.070696f, -0.174097f, 0.254883f, 0.261698f, 0.028188f, 0.050849f, 0.001230f, -0.066095f, 0.038228f, -0.180526f, -0.107880f, -0.185865f, -0.046072f, 0.004743f, -1.079690f, -0.068322f, 0.014891f, -0.040019f, -0.152090f, -0.238092f, 0.056670f, 0.072419f, -0.109357f, 0.104780f, -0.094268f, -0.198474f, -0.041004f, -0.012258f, 0.030204f, -0.092534f, -0.147289f, 0.062462f, 0.233522f, -0.035519f, 0.235381f, 0.144433f, -0.160858f, 0.149825f, 0.024610f, 0.110541f, 0.054836f, 0.076045f, 0.137435f, 0.052993f, 0.177782f, -0.038514f, 0.250091f, 0.145914f, -0.098469f, -0.207976f, -0.072677f, -0.128382f, -0.013949f, 0.176231f, -0.088331f, 0.236459f, -0.211356f, -0.094078f, 0.080816f, 0.070032f, 0.108128f, 0.224430f, -0.092240f, -0.016801f, -0.099850f, 0.064746f, 0.036713f, 0.010533f, 0.059667f, 0.035064f, 0.080340f, 0.003526f, -0.227281f, -0.187071f, -0.265872f, -0.017775f, 0.034464f, -0.091320f, -0.256785f, -0.120184f, 0.130578f, -0.258639f, 0.160532f, -0.112392f, -0.032657f, -0.189375f, 0.066199f, 0.005496f, 0.024685f, 0.050609f, 0.026849f, -0.216231f, -0.198124f, 0.044497f, -0.014954f, -0.172675f, -0.018131f, -0.190538f, 0.051789f, 0.148866f, -0.479549f, -0.064923f, 0.103405f, -0.193074f, 0.136690f, -0.061264f, 0.129639f, 0.214835f, 0.112796f, -0.147220f, 0.006216f, 0.159196f, 0.009065f, 0.072725f, -0.107465f, 0.115342f, 0.097630f, 0.197335f, 0.466468f, 0.147168f, 0.109250f, -0.239931f, 0.120014f, -0.000801f, -0.127894f, -0.158693f, -0.040069f, -0.080060f, 0.018234f, -0.109695f, 0.210140f, 0.005536f, -0.110078f, 0.028429f, 0.146242f, -0.099309f, -0.349597f, -0.209200f, 0.078010f, 0.044273f, 0.161308f, -0.209827f, -0.264215f, -0.132897f, 0.061520f, 0.180721f, -0.178259f, -0.099502f, -0.175195f, -0.157422f, 0.149162f, -0.598301f, -0.170190f, 0.086934f, 0.097900f, -0.078834f, 0.175359f, 0.119801f, -0.066726f, -0.129813f, -0.456178f, 0.037375f, -0.431915f, -0.064976f, 0.358454f, 0.052667f, 0.002945f, -0.146034f, -0.381588f, -0.019993f, 0.058986f, -0.402479f, 0.087555f, -0.138778f, -0.472864f, -0.087030f, 0.140631f, 0.051016f, -0.148952f, -0.146318f, 0.224913f, -0.531594f, 0.096139f, -0.333747f, -0.022400f, 0.077673f, -0.139964f, -0.061749f, -0.082724f, -0.522719f, -0.088225f, 0.043449f, 0.296097f, -0.124918f, -0.209033f, 0.213175f, 0.067128f, -0.196108f, -0.000334f, 0.330567f, 0.034528f, 0.079516f, 0.052588f, -0.563960f, 0.056947f, 0.024302f, 0.084691f, -0.074286f, 0.004127f, 0.113485f, 0.047214f, 0.092911f, -0.320929f, 0.030287f, 0.151744f, 0.382367f, -0.070813f, -0.059286f, -0.052010f, 0.036833f, -0.079616f, -0.074198f, -0.183743f, 0.058958f, 0.430431f, 0.020137f, 0.317648f, -0.087800f, 0.169327f, -0.207357f, -0.039407f, -0.174248f, -0.535124f, -0.018634f, -0.184221f, 0.355269f, 0.010007f, 0.054497f, 0.420656f, -0.178776f, -0.069075f, -0.577996f, 0.127628f, 0.068347f, -0.166887f, 0.415376f, 0.283372f, 0.553081f, 0.088540f, 0.017186f, -0.184773f, -0.036178f, 0.068943f, -0.016487f, 0.043185f, 0.077323f, 0.125828f, 0.086161f, 0.220635f, -0.294952f, -0.074830f, -0.049525f, -0.010970f, -0.053608f, -0.113586f, 0.062652f, -0.069971f, 0.602587f, 0.258451f, -0.038564f, 0.187118f, 0.106328f, 0.162192f, 0.144690f, 0.105146f, -0.157441f, 0.147904f, -0.147958f, -0.170532f, 0.001195f, -0.089130f, -0.014925f, 0.248291f, -0.037458f, -0.001021f, -0.053503f, -0.078254f, 0.040561f, 0.122550f, -0.085184f, 0.286263f, -0.107266f, -0.190932f, -0.122631f, 0.133112f, -0.149215f, 0.080827f, -0.040705f, 0.003923f, 0.096663f, -0.183858f, 0.030663f, -0.071230f, -0.200097f, -0.071967f, 0.160945f, -0.088537f, -0.181505f, -0.066523f, 0.051287f, -0.210789f, 0.088804f, 0.034367f, 0.034910f, -0.006832f, -0.110346f, 0.064502f, 0.180022f, 0.142984f, -0.052181f, 0.022969f, -0.113166f, -0.077574f, 0.253092f, -0.136217f, 0.041524f, -0.070722f, -0.122163f, -0.093136f, -0.032124f, -0.104311f, 0.186795f, -0.067153f, 0.069232f, -0.019413f, -0.010266f, -0.079266f, -0.013927f, -0.034494f, -0.168117f, 0.142146f, -0.167305f, 0.088719f, 0.254550f, -0.144077f, -0.151640f, 0.191057f, 0.035733f, 0.168162f, 0.043698f, 0.163655f, 0.151691f, 0.289946f, 0.164482f, 0.153370f, 0.029878f, -0.191459f, 0.125215f, 0.044819f, -0.045903f, 0.044531f, 0.065864f, -0.058181f, -0.016173f, -0.104807f, 0.156901f, -0.058558f, 0.048313f, -0.022724f, 0.050411f, 0.013818f, -0.018817f, -0.193118f, 0.264721f, -0.112050f, -0.212126f, -0.039759f, 0.105242f, -0.131737f, 0.095492f, 0.187163f, 0.100557f, 0.120973f, -0.147406f, -0.136270f, 0.055785f, 0.126177f, -0.071239f, 0.032046f, -0.069230f, 0.101569f, -0.217231f, -0.110006f, 0.083178f, -0.213326f, 0.030203f, -0.299673f, 0.151625f, -0.167371f, 0.136477f, 0.053785f, -0.185644f, 0.064889f, 0.100278f, -0.098224f, 0.158949f, 0.041611f, 0.017623f, -0.076775f, 0.182703f, -0.067967f, -0.147578f, -0.168371f, -0.025628f, -0.068372f, -0.169242f, -0.167687f, 0.031645f, -0.154616f, 0.046340f, 0.113054f, -0.073094f, -0.088762f, -0.162730f, -0.018651f, 0.139870f, -0.062849f, -0.028765f, -0.009029f, 0.149554f, 0.086585f, 0.140163f, 0.140732f, 0.081560f, -0.033139f, 0.040976f, 0.014996f, -0.010476f, 0.077491f, 0.064348f, 0.021123f, 0.047093f, -0.094215f, 0.043953f, 0.096870f, -0.027388f, -0.031824f, 0.078363f, -0.142491f, 0.051684f, -0.086119f, 0.140171f, 0.069578f, 0.018961f, -0.225881f, -0.072000f, 0.121341f, 0.075085f, -0.095774f, 0.055240f, -0.003958f, -0.020058f, 0.109297f, -0.106158f, -0.068518f, -0.096624f, 0.040583f, 0.029958f, 0.000870f, -0.001596f, -0.095291f, 0.272683f, -0.044102f, -0.012218f, -0.182576f, 0.155582f, -0.039495f, -0.026901f, 0.069388f, 0.012359f, 0.010944f, 0.115331f, 0.103915f, -0.002819f, -0.192043f, -0.094152f, 0.131120f, 0.114211f, 0.137523f, 0.060037f, -0.033507f, 0.234596f, -0.130644f, 0.120755f, 0.195462f, 0.164672f, -0.065152f, -0.181035f, -0.098751f, -0.150282f, 0.015715f, 0.164319f, -0.216804f, 0.238186f, -0.056491f, -0.034751f, 0.078984f, -0.164377f, -0.143431f, 0.277972f, -0.094859f, -0.060852f, 0.068350f, -0.083592f, -0.050270f, 0.037263f, -0.049749f, -0.092972f, -0.089911f, 0.011500f, 0.020497f, 0.089149f, -0.097460f, 0.082917f, -0.407185f, 0.000183f, -0.169227f, -0.052054f, -0.155560f, -0.004646f, 0.050466f, 0.060390f, -0.497683f, 0.169965f, 0.143124f, 0.239954f, 0.023884f, 0.046389f, 0.234928f, -0.196168f, 0.225061f, 0.012348f, -0.072668f, 0.031569f, 0.180938f, 0.147534f, 0.274114f, -0.965658f, 0.203198f, 0.015502f, 0.687024f, -0.061937f, 0.458114f, 0.018415f, -2.675543f, -0.676627f, -0.536028f, -0.031764f, 0.226477f, 0.028323f, -0.033337f, 0.367636f, -0.058249f, -0.017914f, 0.247123f, -0.077551f, 0.570853f, 0.242011f, 0.068852f, 0.018839f, -0.137453f, 0.007307f, 0.095995f, 0.281370f, 0.183883f, 0.259279f, 0.767878f, 0.007488f, -0.110810f, -2.559281f, 0.018598f, -0.870778f, -0.097003f, 0.363331f, 0.234495f, -0.118196f, 0.500404f, 0.049378f, -0.139202f, 0.097361f, 0.594601f, -0.082061f, 0.042560f, -0.806466f, 0.105532f, -0.171474f, 0.293503f, 0.035113f, -0.188054f, -0.175947f, -0.158669f, -0.117997f, 0.170989f, -0.125231f, -0.170941f, 0.018238f, -0.086110f, -0.085346f, -0.091705f, 0.088661f, 0.048589f, -0.024626f, -0.084858f, -0.114428f, 0.146293f, 0.111192f, -0.009956f, -0.174606f, -0.220511f, -0.209960f, 0.181627f, -0.045322f, -0.585666f, 0.159498f, 0.042165f, 0.351868f, -0.120094f, 0.000225f, 0.199619f, -0.309095f, 0.099799f, -0.725729f, -0.096763f, 0.076026f, 0.164638f, 0.136667f, -0.117829f, -0.200191f, 0.143727f, 0.005539f, -0.333431f, 0.176602f, -0.797014f, -0.164505f, 0.010076f, -0.066561f, 0.053672f, 0.136800f, 0.348812f, 0.159376f, 0.093660f, -0.131197f, 0.176069f, -0.206026f, -0.536732f, -0.197605f, 0.049436f, 0.135330f, 0.011472f, 0.090864f, -0.093064f, 0.081210f, 0.131760f, -0.062184f, -0.109061f, -0.122674f, 0.040482f, -0.099080f, 0.162175f, -0.301798f, -0.122151f, -0.104046f, -0.028569f, 0.190715f, 0.072419f, -0.588438f, 0.361302f, -0.199235f, 0.647681f, -0.129441f, 0.487609f, 0.042947f, -0.542820f, 0.062350f, 0.009546f, -0.182659f, -0.439444f, -0.026364f, -0.194955f, 0.401860f, 0.067682f, -0.144981f, 0.111720f, -0.086142f, 0.434580f, -0.251717f, -0.130044f, -0.030373f, -0.106578f, -0.192469f, -0.092611f, 0.360862f, -0.192698f, 0.125962f, 0.319918f, 0.138381f, -0.348616f, -0.514356f, 0.043188f, 0.033822f, 0.045303f, 0.166424f, 0.111309f, -0.151033f, 0.220340f, 0.312020f, 0.142390f, 0.148405f, 0.170119f, 0.015253f, -0.213432f, -0.070939f, -0.120555f, -0.110961f, 0.033120f, 0.145606f, 0.006025f, -0.140420f, 0.065666f, 0.043621f, 0.128446f, 0.152576f, -0.003118f, 0.148597f, -0.001557f, 0.149417f, -0.079436f, 0.167496f, -0.164164f, 0.101273f, -0.243648f, -0.176523f, 0.001785f, -0.097812f, -0.158853f, 0.108486f, 0.317900f, 0.181241f, 0.107378f, 0.033079f, -0.354987f, 0.076655f, -0.167791f, -0.006857f, 0.098326f, 0.166344f, 0.220520f, -0.025538f, -0.252955f, -0.488796f, -0.084264f, 0.163818f, -0.010000f, 0.154707f, 0.142779f, 0.096493f, -0.046074f, 0.144729f, -0.086929f, -0.033667f, 0.214017f, 0.196303f, -0.093125f, 0.057207f, 0.077259f, 0.136986f, -0.045303f, 0.027694f, -0.078214f, 0.021272f, -0.052868f, 0.130870f, -0.976376f, -0.146467f, -0.048420f, -0.132242f, -0.013119f, 0.134375f, 0.208829f, -0.160472f, -0.033802f, 0.155725f, 0.173290f, 0.160183f, -0.011029f, 0.060795f, 0.063494f, 0.102003f, 0.135293f, -0.106107f, 0.012520f, 0.112674f, 0.074053f, -0.094695f, -0.062287f, 0.112091f, 0.047585f, -0.064313f, 0.193554f, 0.047133f, 0.127343f, 0.331098f, 0.145156f, -0.209821f, -0.020302f, -0.011495f, 0.097622f, 0.067281f, -0.068124f, 0.067804f, 0.035056f, 0.177785f, -0.143262f, 0.145053f, 0.161183f, -0.180864f, -0.036815f, -0.037565f, 0.008758f, 0.169928f, -0.010282f, -0.142793f, -0.175529f, 0.027541f, 0.333459f, 0.164159f, -0.178994f, 0.160104f, 0.013383f, -0.071887f, -0.143239f, 0.073336f, -0.129385f, -0.005569f, -0.124313f, 0.011353f, -0.343925f, -0.018686f, -0.036927f, -0.214163f, 0.062532f, -0.235060f, 0.095665f, -0.173564f, -0.166910f, 0.065560f, 0.191110f, 0.007970f, 0.191869f, 0.106821f, -0.116645f, 0.104504f, -0.135853f, 0.045318f, 0.050950f, -0.016249f, 0.153462f, 0.059438f, -0.417294f, -0.081636f, -0.017404f, -0.178668f, 0.049994f, 0.176537f, 0.183506f, 0.064829f, 0.288093f, 0.111642f, 0.156376f, -0.111601f, -0.189166f, -0.024610f, 0.136235f, -0.022911f, 0.015046f, 0.171563f, 0.246404f, 0.033925f, 0.157002f, -0.073499f, -0.167541f, 0.071945f, 0.011821f, -0.054086f, -0.085239f, -0.238677f, -0.069266f, -0.197945f, 0.162496f, 0.029890f, 0.109580f, -0.051345f, -0.200093f, 0.034170f, -0.029786f, 0.135612f, -0.131934f, -0.216944f, 0.124609f, -0.041470f, -0.370687f, 0.032863f, 0.134138f, -0.075639f, 0.009093f, -0.112896f, -0.153073f, -0.167628f, -0.025130f, -0.363637f, -0.006223f, -0.183657f, -0.103214f, -0.045240f, -0.023975f, 0.179259f, 0.023402f, -0.193636f, -0.573575f, 0.017954f, -0.514628f, 0.077749f, 0.230271f, -0.055515f, 0.089552f, 0.089670f, -0.300102f, 0.010500f, 0.041108f, -0.108238f, -0.161972f, 0.063857f, -0.248392f, 0.084795f, -0.143366f, -0.094538f, -0.202038f, -0.048731f, 0.176285f, -0.468523f, 0.161021f, -0.383236f, 0.101092f, -0.120481f, -0.031245f, -0.084393f, -0.027378f, -0.494076f, -0.187498f, 0.019816f, 0.021487f, 0.157386f, -0.400570f, 0.038992f, -0.085659f, -0.171478f, 0.036254f, 0.225226f, 0.112540f, -0.127699f, 0.259875f, -0.626359f, 0.075934f, -0.154050f, 0.226121f, -0.156984f, -0.003376f, 0.149275f, -0.147985f, 0.141862f, -0.545390f, 0.065241f, -0.192763f, 0.638027f, -0.052282f, 0.052636f, -0.096799f, -0.153574f, -0.036445f, -0.162891f, -0.109894f, 0.152293f, 0.483418f, -0.160450f, 0.623548f, -0.442974f, 0.065445f, -0.050644f, 0.053141f, -0.153236f, -0.227968f, 0.099732f, -0.253296f, 0.136196f, 0.168694f, -0.202244f, 0.565035f, -0.149173f, 0.098084f, -0.375951f, 0.057246f, -0.036365f, -0.222736f, 0.286978f, 0.084642f, 0.558263f, -0.200481f, 0.009473f, 0.060804f, -0.205047f, -0.105940f, 0.051395f, 0.161031f, 0.115128f, 0.372263f, 0.169907f, 0.237791f, -0.153580f, 0.053329f, 0.167548f, -0.112269f, -0.186678f, -0.095429f, -0.047889f, -0.057453f, 0.512459f, 0.049845f, -0.177023f, 0.337407f, 0.045685f, 0.161258f, -0.039231f, -0.062354f, -0.236916f, 0.114350f, 0.015944f, -0.119953f, 0.093545f, 0.155267f, 0.079821f, 0.257632f, 0.082408f, -0.138054f, -0.122514f, -0.115700f, -0.213428f, 0.269611f, -0.085346f, 0.319249f, -0.091203f, 0.021784f, 0.061768f, 0.102140f, 0.120702f, 0.098378f, -0.069097f, 0.140636f, 0.096857f, -0.012222f, -0.128479f, -0.147326f, 0.125316f, 0.125533f, -0.147820f, 0.037527f, -0.167290f, -0.067037f, 0.072390f, -0.240972f, -0.046252f, -0.095789f, -0.071388f, -0.215250f, 0.144295f, -0.014513f, 0.244313f, -0.118059f, -0.037757f, -0.179885f, -0.185838f, -0.017232f, 0.035142f, -0.062211f, 0.049922f, -0.173657f, -0.185377f, -0.159922f, -0.091269f, 0.011494f, 0.295545f, 0.021851f, 0.052385f, 0.062098f, 0.006392f, 0.016606f, 0.044981f, -0.115149f, -0.104419f, 0.218271f, -0.006202f, -0.167992f, 0.098130f, -0.062014f, -0.132586f, -0.052768f, -0.074178f, 0.061926f, -0.247502f, 0.010601f, -0.059727f, 0.023162f, -0.131682f, 0.205804f, 0.024599f, -0.142571f, 0.161660f, 0.198255f, -0.178257f, 0.210424f, -0.076102f, 0.076195f, -0.032839f, 0.255708f, 0.094236f, 0.064243f, -0.109318f, 0.162987f, -0.059093f, -0.027912f, 0.038914f, -0.086188f, 0.225648f, -0.337091f, -0.007983f, 0.009571f, 0.188945f, -0.022754f, 0.037702f, -0.007849f, -0.048124f, 0.016373f, 0.022277f, -0.157652f, -0.186885f, 0.093696f, 0.155329f, -0.136905f, 0.051549f, 0.059511f, -0.018123f, -0.170924f, -0.118112f, -0.165839f, 0.315295f, -0.157453f, 0.009381f, -0.088339f, -0.053137f, -0.080089f, 0.002812f, -0.057965f, -0.022021f, -0.064751f, -0.136381f, -0.042222f, 0.053842f, -0.134466f, -0.060285f, 0.139713f, 0.149530f, -0.234548f, -0.042849f, -0.013478f, -0.038270f, -0.168658f, -0.032015f, -0.005370f, -0.220490f, -0.045168f, -0.049022f, -0.068629f, 0.012111f, -0.181094f, -0.106160f, 0.033321f, 0.017549f, -0.207446f, -0.022162f, 0.054872f, -0.077976f, -0.084987f, -0.101468f, 0.078163f, -0.197257f, 0.059090f, -0.037703f, -0.037761f, -0.175861f, -0.024113f, 0.125115f, 0.029149f, 0.096722f, 0.166150f, 0.068901f, 0.085547f, -0.148359f, 0.115635f, -0.131108f, 0.032682f, -0.052640f, 0.073839f, 0.102576f, 0.146363f, 0.157376f, 0.058954f, -0.153255f, -0.147273f, 0.142319f, 0.101142f, 0.128613f, -0.159927f, -0.129581f, -0.183466f, 0.067672f, 0.009228f, 0.151738f, 0.036339f, 0.179557f, -0.031458f, 0.089253f, -0.131107f, -0.118147f, 0.045706f, -0.201919f, 0.139025f, 0.049996f, -0.061736f, -0.174414f, 0.112669f, -0.045678f, 0.183204f, 0.008797f, 0.097926f, 0.086486f, -0.087971f, -0.006348f, 0.115306f, -0.150847f, -0.179407f, -0.099470f, -0.139478f, -0.114051f, 0.370895f, -0.154057f, -0.188797f, -0.087291f, -0.134839f, -0.150919f, -0.031146f, 0.128637f, 0.043967f, 0.339949f, -0.202004f, 0.159129f, -0.041513f, -0.058214f, -0.067356f, 0.300709f, 0.018042f, 0.020991f, 0.005040f, -0.096369f, 0.208897f, -0.135678f, 0.122521f, 0.036253f, 0.007586f, 0.022852f, -0.032478f, 0.060290f, -0.019431f, 0.260762f, -0.466141f, -0.164995f, 0.027640f, -0.109953f, 0.029100f, -0.276208f, 0.101832f, -0.054044f, -3.311580f, -0.005531f, -0.155926f, -1.020096f, 0.119301f, 0.139885f, -3.526413f, 0.177195f, -0.085772f, 2.392194f, 0.152864f, -0.144963f, -0.445476f, -0.030187f, -0.841339f, 2.210565f, 1.234158f, 0.100891f, -2.349312f, -0.202466f, 0.209510f, -0.077653f, -7.545111f, -2.932888f, -1.419514f, -0.004067f, -2.235886f, 0.050862f, -0.066655f, 1.522591f, -0.147212f, -0.028674f, 1.014735f, -1.535657f, 1.336636f, -1.960061f, -0.012816f, 0.054347f, 0.108375f, 0.059669f, 0.141985f, -0.433607f, -0.129757f, 0.298583f, 1.484469f, -0.022449f, -2.350093f, -5.803360f, 0.157138f, -4.520051f, 0.134012f, 2.193654f, 0.890291f, 0.119312f, 1.422825f, -0.282191f, 0.126386f, -0.062796f, 1.308228f, -0.106439f, 0.109428f, -1.410441f, 0.170776f, -0.026335f, -0.473802f, -0.000697f, -0.028962f, -0.960554f, -0.081193f, -0.167563f, -0.850977f, -0.118926f, -0.040273f, 0.355381f, -0.099327f, 0.173771f, -0.371799f, 0.080906f, -0.527687f, 0.412990f, -0.052310f, -0.151978f, -0.656391f, -0.025538f, 0.322558f, -0.066430f, -1.504387f, -0.966384f, -0.078244f, -0.037163f, -2.587230f, -0.133659f, -0.022381f, 0.356875f, -0.097499f, 0.051904f, 0.070234f, -1.041278f, 0.158506f, -2.094648f, -0.251690f, -0.130780f, 0.170279f, 0.060347f, 0.149615f, -0.389934f, 0.088689f, 0.180013f, -0.384194f, 0.021017f, -1.946287f, -0.805007f, -0.013799f, -1.105718f, 0.131976f, 0.194087f, 0.155796f, 0.046962f, -0.131313f, -0.081984f, 0.198158f, -0.140456f, -0.260303f, 0.064579f, -0.031889f, 0.165959f, 0.001942f, -0.161369f, -1.159044f, -0.116825f, -0.059470f, -1.013829f, 0.160910f, -0.141335f, -1.123633f, -0.005460f, -0.130387f, 1.184781f, -0.175782f, -0.062849f, -0.150896f, 0.023924f, -0.425792f, 0.947495f, 0.766300f, -0.008216f, -1.515781f, 0.104940f, 0.452224f, -0.193187f, -2.255198f, -1.220272f, -0.294550f, 0.067247f, -2.371604f, 0.052562f, -0.112258f, 0.804954f, -0.139251f, 0.126734f, 0.666374f, -0.929330f, 0.502607f, -1.934486f, 0.109972f, -0.131351f, -0.130784f, -0.040738f, -0.093299f, -0.191322f, 0.107610f, 0.135515f, 0.983646f, -0.071923f, -1.802707f, -1.701266f, -0.177967f, -1.278966f, -0.179366f, 0.918102f, 0.451527f, 0.095211f, 0.645756f, -0.049103f, 0.338798f, -0.114033f, 0.598769f, -0.026300f, -0.041820f, -0.118062f, -0.049252f, 0.053569f, 0.341790f, -0.189827f, 0.036034f, -0.649002f, 0.131267f, 0.034586f, 0.186846f, -0.161292f, 0.067594f, 0.189992f, -0.022566f, 0.179696f, -0.359139f, -0.040332f, -0.386011f, 0.142390f, -0.432105f, -0.138032f, -0.065588f, -0.115742f, 0.040236f, -0.103576f, 0.495047f, 0.091672f, -0.179309f, -0.106462f, -1.364679f, 0.036020f, 0.164083f, -0.042108f, -0.071069f, -0.102664f, 0.359745f, -0.289733f, -0.248295f, -1.275380f, -0.006450f, -0.029427f, 0.139512f, -0.109531f, -0.147255f, -0.122976f, -0.149505f, -0.006823f, -0.199282f, -0.154223f, -0.265221f, 0.349580f, 0.062829f, -0.091039f, 0.075524f, 0.019979f, 0.028544f, -0.128810f, 0.309911f, -0.321326f, -0.127732f, -0.026626f, -1.132072f, 0.150929f, -0.197540f, -0.226732f, -0.074297f, 0.084028f, 0.190395f, -0.129648f, -0.141082f, -0.006596f, 0.047254f, -0.082723f, -0.089944f, -0.213787f, -0.057831f, 0.065436f, -0.149224f, 0.095940f, 0.208958f, -0.039270f, 0.166576f, -0.005963f, -0.048114f, -0.108862f, 0.017668f, -0.073114f, 0.015937f, -0.093549f, 0.003465f, 0.216635f, 0.114502f, -0.098685f, 0.158531f, 0.140582f, -0.002882f, 0.064727f, -0.021295f, -0.087148f, -0.047552f, 0.296024f, -0.128986f, 0.007798f, 0.094871f, -0.148041f, -0.227260f, -0.124662f, 0.116515f, -0.071788f, 0.085614f, -0.164326f, -0.212113f, 0.155146f, 0.218933f, -0.003989f, 0.041384f, 0.108915f, -0.086732f, -0.082757f, -0.189371f, -0.151479f, -0.094952f, -0.098707f, -0.146000f, 0.018224f, -0.226325f, -0.219560f, -0.094906f, -0.270833f, 0.165725f, -0.216307f, 0.059292f, 0.018895f, -0.183577f, -0.091541f, 0.135608f, 0.042832f, 0.101222f, 0.103231f, 0.117721f, 0.132101f, -0.172513f, -0.055518f, 0.158123f, -0.168514f, -0.029572f, 0.046463f, -0.466130f, -0.008767f, -0.026802f, 0.067006f, -0.002723f, -0.065079f, 0.262920f, 0.136023f, -0.030462f, -0.052277f, 0.005991f, -0.157897f, 0.139986f, -0.024273f, 0.051405f, -0.112473f, 0.272336f, 0.318827f, 0.521110f, 0.230873f, -0.105322f, -0.216350f, -0.065886f, -0.173047f, -0.161136f, 0.149234f, 0.042456f, 0.046389f, 0.116906f, -0.053572f, 0.083854f, 0.175862f, 0.028409f, 0.098626f, -0.023825f, 0.251431f, -0.268577f, -0.139252f, -0.125968f, -0.061705f, 0.235094f, -0.006042f, -0.099477f, -0.184378f, -0.005246f, -0.034295f, -0.032498f, 0.030329f, 0.015097f, -0.161119f, 0.058081f, -0.265791f, 0.089406f, 0.173960f, -0.035489f, -0.132463f, -0.087503f, 0.177775f, 0.042915f, -0.127202f, -0.725307f, 0.231983f, -0.525941f, 0.050230f, 0.165805f, -0.011303f, 0.232374f, -0.162103f, -0.264785f, -0.005669f, -0.207959f, -0.383739f, -0.140151f, 0.040700f, -0.133221f, -0.090717f, 0.049949f, -0.004651f, 0.102397f, -0.198149f, 0.285664f, -0.590551f, 0.007439f, -0.259758f, 0.119147f, 0.182699f, 0.099258f, -0.106291f, 0.017878f, -0.315019f, -0.029763f, 0.112614f, 0.227775f, 0.005326f, -0.268250f, 0.069137f, -0.126618f, -0.016380f, -0.170347f, 0.439074f, 0.305724f, 0.004139f, 0.345220f, -0.752883f, 0.213490f, 0.010535f, 0.324971f, 0.136140f, -0.018371f, 0.281200f, -0.034955f, 0.175055f, -0.425777f, 0.150742f, 0.095638f, 0.557193f, -0.185890f, -0.019854f, -0.092937f, -0.214419f, -0.156841f, -0.250101f, -0.040859f, 0.069399f, 0.739529f, 0.140330f, 0.549763f, -0.283132f, 0.232429f, -0.173177f, -0.253974f, 0.172234f, -0.422092f, -0.012379f, -0.108516f, 0.498194f, -0.041717f, -0.022749f, 0.601897f, 0.067233f, -0.107338f, -0.868201f, 0.097674f, -0.136231f, -0.373364f, 0.675307f, -0.044026f, 0.653823f, 0.073620f, -0.246295f, 0.131496f, 0.166976f, 0.029235f, 0.252306f, -0.099727f, -0.066273f, 0.265629f, 0.158052f, 0.527842f, -0.355582f, -0.111262f, 0.150797f, 0.107777f, -0.058221f, -0.052268f, -0.097804f, -0.200968f, 0.695704f, 0.268366f, 0.141130f, 0.208600f, -0.028499f, 0.035539f, -0.066694f, 0.008689f, -0.046130f, 0.092199f, 0.136292f, -0.083380f, 0.079264f, 0.167913f, 0.040303f, -0.039485f, -0.047043f, -0.111793f, 0.006980f, -0.210304f, 0.029456f, 0.161619f, 0.089663f, 0.125993f, -0.119238f, -0.084441f, 0.017931f, -0.118067f, -0.049429f, 0.129521f, -0.167983f, 0.207346f, 0.121396f, 0.078297f, 0.147136f, -0.046502f, -0.122661f, -0.134601f, -0.225664f, -0.139897f, 0.121711f, -0.184961f, 0.050434f, -0.181242f, -0.117676f, 0.017559f, -0.170297f, -0.132233f, 0.062019f, -0.159138f, 0.123349f, -0.070192f, -0.082858f, -0.021995f, 0.146853f, 0.200637f, 0.175817f, 0.025266f, 0.208169f, 0.060772f, -0.213387f, -0.163523f, -0.027106f, -0.077374f, 0.134981f, 0.015338f, -0.067516f, -0.015559f, 0.010120f, 0.152967f, -0.165983f, -0.115693f, -0.027446f, 0.136842f, -0.083936f, -0.048311f, 0.202363f, -0.111473f, -0.101170f, -0.009611f, -0.194716f, -0.033028f, -0.013455f, -0.034775f, -0.182775f, 0.371622f, 0.084195f, 0.066866f, -0.401626f, -0.057168f, -0.126901f, -0.377383f, -0.133650f, 0.105335f, -0.182816f, 0.147867f, -0.025540f, 0.148922f, 0.116532f, -0.099455f, -0.050672f, 0.006661f, -0.034796f, 0.174483f, -0.151598f, -0.361812f, 0.139284f, 0.008358f, -0.140184f, 0.095397f, 0.061372f, -0.179829f, 0.128597f, -0.182719f, 0.219437f, 0.017024f, 0.008616f, -0.276385f, 0.134632f, 0.220701f, 0.016790f, 0.117338f, 0.162766f, -0.021865f, -0.077433f, -0.032823f, 0.071906f, -0.074078f, 0.267219f, -0.292959f, -0.118031f, -0.007723f, 0.036782f, 0.074788f, -0.053591f, 0.119620f, -0.122945f, 0.093983f, -0.132733f, 0.067767f, 0.019729f, -0.102151f, 0.014405f, 0.101176f, -0.098991f, 0.150437f, -0.019697f, -0.031633f, -0.090274f, -0.109446f, -0.037615f, 0.083357f, 0.093971f, -0.111304f, 0.036829f, 0.047797f, -0.016546f, -0.228897f, 0.159460f, -0.073812f, 0.269370f, 0.081188f, -0.001762f, -0.013640f, -0.041420f, 0.019972f, 0.040175f, -0.001410f, -0.127685f, 0.145896f, 0.076482f, -0.227310f, -0.220835f, -0.108868f, -0.023111f, -0.075598f, -0.122304f, -0.017941f, -0.216692f, -0.085332f, 0.049879f, -0.140767f, 0.111404f, 0.201832f, 0.017267f, -0.117663f, 0.008204f, 0.073396f, -0.098729f, 0.074948f, -0.040338f, -0.162433f, -0.077729f, 0.231304f, -0.021246f, -0.100135f, -0.204096f, 0.144197f, -0.052783f, -0.142166f, -0.158627f, -0.002363f, -0.028787f, -0.140527f, 0.026880f, -0.041814f, 0.010475f, -0.028778f, 0.008123f, -0.016209f, -0.171602f, 0.018515f, 0.106365f, 0.137991f, -0.151852f, 0.422654f, -0.038209f, 0.114873f, -0.009333f, -0.103790f, -0.162633f, 0.026301f, -0.141364f, 0.094456f, 0.091121f, -0.066964f, -0.151023f, 0.211246f, 0.115516f, -0.049933f, 0.143596f, 0.054095f, -0.032687f, 0.027131f, 0.181692f, 0.008269f, 0.086148f, -0.140748f, -0.070100f, 0.019247f, 0.149676f, 0.084504f, 0.112200f, -0.164575f, -0.035522f, 0.056592f, -0.036619f, 0.127250f, 0.044582f, -0.137080f, -0.044497f, 0.051327f, -0.200997f, -0.038583f, -0.074362f, -0.201786f, 0.294748f, -0.203787f, -0.012135f, 0.085586f, -0.039915f, -0.130508f, -0.165532f, -0.104558f, -0.132375f };
static const float emlearnModel_layer_1_biases[32] = { 0.051548f, 0.154440f, 0.146357f, 0.284913f, 0.391266f, 0.098682f, 0.088002f, -0.001293f, 0.238517f, 0.195500f, 0.347649f, -0.105809f, 0.127610f, -0.306798f, -0.126125f, -0.275780f, -0.114670f, -0.258515f, 0.144806f, -0.000327f, 0.312616f, 0.211478f, 0.135834f, -0.395329f, -0.287075f, 0.006776f, -0.102033f, 0.283901f, 0.090236f, 0.042428f, 0.167156f, 0.251900f };
static const float emlearnModel_layer_1_weights[2048] = { -0.136899f, -0.391298f, -0.014369f, -0.589494f, -0.340401f, -0.719143f, -0.425455f, -0.035959f, 0.027642f, -0.045938f, -0.060874f, -0.123184f, 0.100683f, -0.260604f, -0.069572f, -0.265919f, 0.009699f, -0.011504f, -0.104983f, -0.017278f, -0.064793f, -0.775473f, 0.031423f, -0.311287f, 0.053415f, -0.020298f, 0.138709f, -0.173563f, -0.064660f, -0.055717f, -0.182255f, 0.024047f, 0.192827f, 0.034906f, -0.170316f, -0.083709f, 0.117827f, -0.222591f, -0.184268f, 0.054781f, 0.121133f, 0.141772f, -0.007074f, 0.088473f, -0.166779f, 0.188860f, 0.021642f, -0.200438f, -0.184159f, -0.248255f, 0.097241f, 0.147106f, 0.028448f, 0.159989f, 0.092391f, 0.019755f, -0.015992f, 0.189793f, 0.101084f, -0.019886f, -0.223965f, -0.225247f, 0.142109f, -0.003234f, -0.190522f, -0.047242f, 0.142510f, -0.034551f, -0.035032f, 0.034587f, 0.179656f, 0.081288f, 0.050211f, 0.249476f, -0.030575f, -0.041997f, -0.005053f, -0.248535f, 0.092239f, 0.006189f, 0.034458f, -0.224286f, 0.074911f, -0.019459f, -0.189578f, -0.071025f, 0.046063f, 0.065131f, 0.192977f, -0.169278f, -0.008175f, 0.185127f, 0.218546f, -0.139362f, 0.117418f, -0.162248f, -0.245272f, -0.503957f, -0.170416f, 0.229834f, -0.784767f, -0.110679f, -0.219888f, 0.294340f, -0.145365f, -0.083529f, -0.402561f, 0.196492f, 0.068426f, 0.105235f, 0.026607f, 0.087979f, -0.308254f, -0.184924f, -0.323576f, -0.361998f, -0.533688f, 0.002469f, -0.491098f, -0.021435f, -0.199981f, -0.051356f, 0.049830f, 0.141021f, -0.094949f, 0.268295f, -0.166209f, -0.218841f, 0.093547f, 0.037608f, 0.117239f, -0.196719f, 0.012461f, 0.073758f, -0.113122f, -0.182345f, -0.233913f, 0.216535f, 0.052107f, -0.120211f, -0.110476f, 0.185768f, -0.045747f, 0.093051f, -0.233187f, -0.116496f, 0.217434f, 0.101626f, 0.241133f, -0.166391f, 0.162512f, 0.247362f, 0.175123f, -0.237478f, -0.167213f, 0.207366f, 0.238851f, -0.208743f, 0.057975f, -0.223058f, -0.211040f, -0.109272f, -0.081911f, 0.187213f, 0.064945f, -0.219427f, 0.062586f, 0.012797f, 0.099751f, -0.257747f, 0.036416f, 0.067938f, 0.045606f, -0.073693f, 0.202032f, 0.155378f, -0.147364f, -0.006874f, -0.088536f, -0.091529f, 0.194131f, -0.069239f, 0.131320f, -0.142975f, 0.194182f, 0.083861f, -0.069566f, -0.202087f, -0.234162f, -0.048351f, 0.098756f, 0.153144f, -0.084064f, -0.206951f, -0.137589f, -0.094584f, -0.372263f, -0.382765f, -0.446357f, 0.059598f, 0.095012f, -0.193821f, -0.130801f, -0.099226f, 0.002335f, -0.327225f, -0.115865f, -0.255544f, -0.786283f, -0.048345f, -0.121648f, -0.194747f, -0.140976f, -0.030880f, -0.475362f, -0.166836f, 0.078311f, 0.019758f, 0.158601f, -0.016051f, -0.248062f, 0.023175f, -0.110364f, -0.084538f, -0.135833f, -0.032564f, 0.045409f, 0.245217f, 0.214569f, 0.025309f, 0.008130f, -0.039232f, -0.076187f, 0.205109f, 0.172825f, -0.178433f, 0.260007f, 0.041482f, 0.072148f, 0.013636f, -0.114893f, 0.207130f, 0.138655f, -0.097049f, -0.082193f, -0.060475f, 0.191739f, 0.047349f, 0.035115f, 0.033686f, -0.166788f, -0.071621f, 0.127572f, -0.176532f, 0.099008f, 0.053748f, -0.177199f, 0.265964f, 0.152707f, -0.227522f, 0.109872f, 0.135586f, 0.023734f, 0.006983f, 0.007241f, -0.187433f, -0.020279f, 0.132305f, 0.126299f, -0.148371f, -0.227173f, 0.113934f, 0.213012f, -0.014620f, 0.038176f, 0.038161f, 0.075644f, -0.232462f, 0.204553f, 0.212293f, -0.187534f, -0.101315f, 0.020404f, -0.120342f, -0.023445f, 0.225316f, 0.003554f, 0.112583f, 0.003033f, 0.001395f, 0.024122f, -0.047623f, -2.172433f, 0.157385f, -0.798049f, -0.192857f, -0.132294f, 0.137899f, 0.241832f, -0.098153f, -0.007927f, -0.191681f, -0.122051f, 0.069522f, -0.061711f, -0.172118f, 0.139570f, -0.063325f, -2.446980f, -0.070166f, -0.069723f, -0.138846f, 0.320820f, -0.015601f, -0.234598f, -0.170141f, 0.420805f, -0.032279f, -0.025073f, -0.021324f, 0.260403f, -0.031107f, 0.064039f, -0.091046f, 0.231959f, -0.079310f, 0.197650f, -0.066972f, 0.100138f, -0.159770f, 0.135034f, -0.096242f, -0.174891f, -0.005089f, -0.216329f, -0.025551f, -0.009389f, 0.042468f, -0.185376f, -0.209636f, 0.005543f, 0.084671f, 0.148557f, 0.096665f, -0.066198f, 0.157533f, -0.190838f, 0.000869f, -0.108881f, 0.044229f, 0.073709f, 0.196526f, 0.072419f, 0.147586f, -0.112196f, 0.066786f, 0.051628f, -0.099804f, 0.217226f, -0.152529f, -0.120137f, -0.139938f, 0.163713f, 0.086895f, -0.198948f, -0.192887f, 0.204898f, 0.012326f, -0.034774f, 0.008040f, 0.209037f, 0.077357f, -0.099059f, -0.009281f, -0.174333f, -0.186124f, -0.231972f, 0.212142f, -0.038400f, 0.214179f, 0.063108f, -0.121233f, -0.112401f, 0.145208f, -0.595848f, -0.873115f, -0.060284f, -0.736052f, -0.053045f, -0.515072f, -0.118359f, 0.390363f, -0.263608f, 0.066443f, -0.117940f, -0.933774f, 0.428903f, -0.231645f, -0.005213f, -0.058202f, -0.148820f, -0.236138f, -0.201555f, -0.045269f, -0.017087f, -0.036774f, -0.111611f, 0.275879f, -0.199635f, -0.022008f, 0.051431f, -0.047357f, -0.006464f, -1.222848f, -0.522804f, 0.086783f, 0.239563f, -0.007920f, 0.149206f, -0.079184f, -0.157856f, 0.201129f, 0.065389f, -0.034086f, -0.176284f, -0.216279f, 0.043550f, -0.235910f, -0.015316f, 0.081994f, -0.025854f, -0.194456f, -0.057248f, 0.156080f, -0.056298f, 0.010666f, -0.160381f, 0.122305f, -0.105128f, -0.224305f, 0.123978f, 0.140212f, 0.255177f, -0.071121f, 0.004097f, -0.238183f, 0.107888f, -0.023707f, -0.562435f, -0.830147f, -0.108398f, 0.023971f, -0.107944f, -0.859977f, -0.307111f, -0.961629f, -0.147958f, -0.084628f, -0.237010f, -1.128765f, 0.258437f, 0.095418f, 0.011672f, -0.014325f, -0.088925f, -0.315879f, -0.288495f, -0.023512f, -0.041498f, -0.425603f, 0.027673f, 0.262170f, -0.192298f, 0.015350f, 0.202636f, 0.005410f, 0.001623f, 0.550443f, -0.423975f, 0.065608f, -0.079613f, 0.303556f, -0.060217f, -0.269796f, -0.071521f, -0.332469f, -0.014441f, -0.197646f, -0.060857f, 0.101511f, 0.140692f, -0.335610f, -0.266957f, -0.280828f, -0.099023f, -0.222067f, 0.363070f, -0.019938f, 0.196049f, 0.740780f, 0.063750f, -0.006280f, -0.375878f, -0.766074f, -0.434432f, -0.258838f, -0.237085f, -0.177389f, 0.124580f, -0.145648f, 0.014382f, -0.193684f, -0.255616f, 0.175454f, -0.437374f, -0.396348f, 0.033979f, -0.040296f, -0.073226f, 0.013825f, -0.187063f, -0.121354f, 0.048342f, -0.025267f, -0.173489f, -0.182893f, -0.034558f, -0.216782f, -0.294196f, -0.093318f, 0.133990f, -0.064292f, -0.060123f, -0.877608f, -0.115690f, 0.224828f, 0.105950f, -0.047141f, -0.005842f, 0.024937f, -0.051593f, -0.005640f, -0.117582f, -0.352066f, 0.055139f, -0.032249f, 0.014363f, 0.182791f, 0.089463f, -0.229804f, 0.130621f, -0.155126f, -0.083460f, 0.231430f, 0.273338f, 0.122811f, 0.112119f, -0.118876f, 0.220674f, 0.114731f, 0.058591f, -0.023597f, -0.147028f, -0.100316f, 0.119279f, 0.050738f, -0.085278f, 0.079847f, 0.005953f, -0.218110f, 0.061011f, -0.160454f, 0.083030f, 0.187164f, -0.140052f, -0.143721f, -0.244915f, -1.480233f, -0.592793f, -0.428463f, -0.371946f, -0.597935f, -0.204950f, 0.222548f, -0.777042f, -0.766060f, -0.366475f, -0.370513f, 0.578589f, -0.265874f, -0.081582f, -0.030579f, -0.376374f, -0.136538f, -0.877889f, -0.714412f, -0.439371f, -0.086556f, 0.188203f, -0.818855f, -0.130433f, 0.725549f, 0.301276f, 0.415826f, -0.777298f, 0.031772f, -0.370932f, -0.171344f, 0.253964f, -0.155593f, -0.015538f, 0.155167f, 0.130338f, 0.060469f, -0.203641f, 0.128995f, 0.010409f, 0.216543f, -0.176599f, 0.136503f, -0.079207f, -0.106988f, 0.159785f, -0.092100f, -0.051299f, 0.053243f, -0.059231f, 0.223138f, -0.169836f, 0.047694f, 0.214411f, 0.211850f, -0.026078f, 0.120327f, 0.097250f, -0.031441f, 0.003981f, 0.196196f, -0.207855f, -0.158426f, 0.012153f, -0.187833f, -0.841643f, 0.063959f, -0.051570f, -0.086187f, 0.011247f, -0.031303f, -1.306504f, 0.168390f, -0.017159f, 0.113214f, 0.143129f, -0.117915f, -0.121018f, 0.056736f, -0.061621f, 0.045819f, -0.090479f, 0.004913f, 0.020406f, -0.001109f, -0.686881f, 0.119404f, -0.130415f, 0.002855f, -0.079363f, -0.114027f, 0.051321f, 0.064543f, -0.921224f, -1.727448f, 0.209003f, -0.173734f, -0.048601f, -0.169638f, 0.068958f, 0.161280f, -0.234378f, -0.243490f, -0.010344f, 0.196182f, 0.022717f, 0.186816f, -0.225183f, 0.216415f, 0.081753f, -0.175521f, -0.159048f, -0.004976f, 0.219940f, 0.253673f, -0.211742f, -0.073214f, -0.090560f, -0.211035f, 0.121193f, 0.156476f, -0.191892f, 0.102666f, 0.043705f, 0.153425f, 0.103069f, 0.108480f, -0.475358f, -0.377160f, -0.033212f, -0.221204f, -0.810151f, -0.927514f, -0.226393f, -0.944280f, -0.467259f, -0.562543f, -0.175187f, 0.177321f, 0.571457f, -0.119306f, 0.067359f, 0.071287f, -0.067121f, -0.215597f, -0.223354f, -0.090328f, -1.261278f, -0.104943f, -0.860201f, -0.206008f, -0.230810f, -0.143989f, 0.251657f, 0.167518f, -0.802791f, -0.501226f, -0.243023f, -0.265397f, -0.492404f, -0.085559f, 0.072870f, -0.063198f, -1.143351f, -0.539531f, -0.593834f, 0.177292f, 0.131720f, -0.019097f, -0.074538f, 0.180858f, -0.009642f, -0.137333f, -0.058891f, -0.171338f, -0.076515f, -0.205187f, -0.001190f, 0.051961f, -0.491796f, -0.009409f, 0.226638f, 0.015895f, -0.243044f, -0.189427f, 0.039515f, 0.026169f, -0.003520f, 0.131016f, -0.231984f, -0.017478f, -0.192386f, -0.096951f, -0.014989f, 0.036145f, -0.132242f, -0.005057f, -0.129693f, 0.041339f, -0.047789f, -0.635209f, -0.074632f, 0.020489f, 0.003289f, 0.064135f, -0.034603f, -0.203392f, 0.050121f, 0.064292f, 0.082837f, 0.027870f, -0.131701f, -0.033500f, 0.017715f, 0.005058f, -0.046191f, -0.163815f, 0.026895f, 0.021988f, -0.043404f, 0.005504f, -0.134416f, -0.185302f, 0.122985f, 0.001242f, 0.206161f, 0.157011f, -0.080506f, -0.055615f, 0.215609f, -0.295579f, -0.162356f, 0.192440f, -0.178282f, 0.231061f, 0.156707f, 0.068344f, 0.001338f, 0.156044f, -0.167283f, 0.178461f, 0.085922f, -0.222411f, 0.187741f, 0.231031f, 0.114461f, 0.137965f, 0.143335f, -0.057576f, 0.044504f, 0.162707f, -0.225950f, 0.146142f, 0.177382f, -0.092480f, -0.248850f, -0.684900f, -0.209329f, -0.037844f, -0.003363f, -0.011910f, -0.218976f, 0.072820f, 0.001418f, -1.411120f, -0.113317f, 0.084761f, 0.169192f, -0.254109f, 0.005326f, 0.045918f, -0.062692f, -0.188027f, -0.319390f, -0.337786f, -0.160997f, -0.088676f, -0.093086f, 0.292391f, -0.080399f, -0.209041f, 0.284455f, 0.540904f, -0.659894f, 0.107592f, 0.192007f, -0.404232f, 0.122899f, 0.193815f, 0.176117f, 0.007541f, -0.212032f, 0.210012f, 0.031740f, -0.109772f, 0.193284f, -0.046048f, -0.207257f, -0.136021f, -0.221467f, 0.187678f, 0.044534f, -0.185181f, -0.184432f, 0.202952f, -0.170990f, -0.217816f, 0.129348f, 0.214413f, 0.254111f, 0.174366f, -0.042205f, -0.257406f, -0.059580f, 0.069138f, 0.083988f, 0.062265f, 0.169223f, -0.140879f, -0.083348f, 0.089600f, 0.065716f, -0.240372f, 0.165106f, 0.205143f, 0.084914f, -0.037264f, 0.143304f, -0.253802f, 0.076283f, -0.139741f, -0.066288f, 0.020281f, 0.215977f, 0.222471f, 0.139824f, 0.071891f, 0.112314f, 0.190798f, 0.234548f, 0.056061f, -0.061823f, 0.044355f, -0.157536f, 0.135287f, -0.150248f, 0.166675f, -0.101129f, -0.206542f, -0.094459f, -0.260107f, -0.149505f, -0.075845f, -0.426926f, -0.077662f, -0.035992f, -0.131481f, 0.274617f, -0.111838f, -0.363043f, -0.021165f, 0.013363f, -0.081452f, -0.038156f, -0.130597f, -0.062736f, -0.274172f, 0.030925f, -0.085287f, -0.042895f, -0.009723f, 0.060812f, -0.123930f, -0.833679f, -0.003546f, -0.078941f, -0.063900f, -0.507867f, -1.310271f, 0.032524f, -0.020194f, -0.051196f, 0.263207f, -0.237478f, 0.235771f, -0.138961f, -0.015130f, 0.199665f, 0.081793f, 0.219170f, 0.224996f, -0.255319f, 0.161359f, -0.048269f, 0.177095f, -0.149399f, 0.146055f, 0.171908f, 0.031917f, -0.234736f, -0.134726f, -0.093667f, 0.097641f, -0.249795f, 0.223147f, -0.096369f, 0.260276f, 0.167789f, 0.021945f, 0.103673f, 0.215029f, 0.045994f, 0.198456f, -0.059268f, -0.203054f, -0.041900f, -0.261406f, -0.217912f, -0.073740f, -0.044190f, 0.059301f, 0.078788f, 0.131537f, 0.079313f, 0.101173f, -0.133586f, 0.065440f, 0.106557f, -0.072542f, -0.013361f, -0.078144f, -0.082283f, -0.233331f, 0.037996f, -0.135072f, -0.028946f, -0.155148f, 0.061213f, -0.103187f, -0.195152f, 0.038273f, -0.089307f, -0.039011f, 0.036551f, -0.128479f, 0.170128f, -0.007094f, -0.129261f, -0.072301f, -0.202689f, -0.196280f, 0.243624f, -0.093651f, -0.600588f, -0.373482f, -0.070713f, 0.004226f, 0.111865f, -0.371664f, -0.040353f, -0.228263f, -0.080064f, -0.137566f, -0.112008f, 0.002078f, 0.012708f, -0.115894f, -0.001857f, -0.294648f, -0.170084f, -0.379462f, -0.215656f, -0.001887f, -0.565646f, -0.310141f, 0.003226f, -0.111696f, -0.011915f, 0.027357f, -0.354585f, -0.280229f, -0.226821f, 0.102741f, -0.683900f, -0.348727f, -0.572103f, 0.099994f, -0.094948f, -0.009117f, -0.310018f, 0.198624f, 0.000333f, -0.216888f, 0.011180f, -0.199234f, 0.119846f, -0.183675f, -0.346045f, 0.027423f, -0.172705f, 0.037744f, -0.189565f, 0.058882f, 0.086236f, -0.164134f, 0.027015f, -0.010411f, -0.007339f, 0.101021f, -0.154271f, -0.037731f, -0.145909f, 0.102352f, -0.154014f, -0.579553f, 0.017587f, -0.096858f, -0.129111f, -0.008355f, 0.052488f, -0.009961f, 0.166687f, -0.079926f, -0.176340f, -0.089532f, 0.011986f, -0.084639f, -0.056595f, 0.004001f, 0.065326f, -0.191578f, -0.019709f, -0.215777f, 0.105097f, 0.251317f, -0.036119f, -0.053607f, -0.065779f, 0.096569f, -0.033219f, -0.099506f, 0.041644f, -0.081615f, -0.366906f, -0.458985f, -0.002431f, 0.084658f, -0.003040f, -0.183128f, -0.060599f, 0.159366f, -0.273241f, -0.433202f, -0.064721f, 0.230463f, -0.057120f, -0.215263f, -0.058543f, 0.059349f, -0.197883f, -0.252583f, -0.147602f, -0.774653f, -0.395343f, -0.394577f, -0.271815f, 0.424592f, -0.067979f, -0.957452f, 0.354070f, 0.343221f, -1.295802f, 0.042737f, -0.012466f, 0.045549f, 0.031990f, -0.073149f, 0.209473f, -0.145956f, 0.226827f, -0.074223f, 0.200110f, -0.233871f, 0.186697f, -0.035575f, 0.104423f, 0.088463f, -0.046696f, -0.171691f, -0.005139f, -0.149114f, 0.118169f, -0.204924f, -0.145558f, 0.241688f, 0.146050f, 0.021926f, -0.032133f, 0.248763f, -0.023365f, 0.088863f, 0.048087f, -0.085463f, -0.095813f, -0.116118f, 0.137253f, -0.117863f, -0.153880f, 0.127961f, 0.197856f, 0.101360f, -0.148482f, -0.069309f, -0.078822f, -0.071654f, -0.051421f, 0.211988f, -0.052427f, -0.134811f, -0.230655f, 0.169046f, -0.193185f, -0.024390f, -0.002633f, -0.204863f, 0.084713f, -0.021955f, -0.265174f, 0.141996f, 0.243222f, 0.206048f, 0.226423f, -0.114109f, -0.025937f, 0.164385f, 0.160000f, 0.178687f, 0.086797f, -0.261494f, -0.079916f, -0.144396f, 0.208323f, -0.215077f, -0.244883f, 0.211995f, -0.077875f, -0.080476f, -0.020706f, -0.217648f, -0.128848f, 0.145539f, -0.214529f, 0.061390f, 0.062084f, 0.083404f, 0.021878f, -0.085774f, 0.147278f, -0.087964f, -0.211097f, 0.044060f, 0.131938f, 0.199660f, -0.093297f, -0.093363f, 0.099064f, -0.100904f, 0.157619f, -0.053473f, -0.089093f, -0.019701f, 0.175437f, -0.071685f, 0.234749f, 0.124412f, 0.128998f, 0.127558f, -0.142518f, 0.160357f, 0.010725f, 0.096174f, 0.264423f, -0.100536f, 0.010292f, -0.024476f, 0.074644f, -0.058374f, 0.146149f, -0.129870f, 0.005581f, 0.044238f, -0.041734f, 0.070995f, 0.173870f, -0.200658f, -0.159824f, 0.103551f, -0.199777f, -0.053364f, -0.226165f, 0.097059f, 0.192210f, -0.216307f, 0.016389f, 0.120188f, -0.211025f, 0.036998f, 0.013845f, -0.130962f, -0.191949f, -0.134246f, 0.096041f, -0.023339f, 0.192038f, -0.225036f, 0.107641f, 0.225872f, -0.140479f, -0.092214f, -0.115314f, -0.074598f, 0.187185f, -0.190825f, -0.055902f, -0.033178f, -0.211243f, 0.004755f, -0.040085f, -0.190695f, 0.220535f, -0.056911f, -0.047959f, -0.066092f, 0.075949f, 0.068994f, -0.094425f, -0.251157f, -0.604406f, 0.106891f, -0.023260f, -0.232813f, -0.030116f, 0.062491f, -0.817402f, 0.014961f, -0.059461f, 0.136728f, -0.019390f, -0.295698f, -0.094537f, -0.128324f, -0.013241f, 0.005902f, -0.061467f, -0.005780f, 0.010503f, -0.463135f, -0.496984f, 0.071152f, -0.199383f, -0.014116f, 0.019559f, -0.102858f, -0.000449f, 0.015166f, -1.003979f, 0.143084f, -0.109572f, -0.083801f, 0.202412f, 0.068917f, 0.128673f, 0.112545f, -0.255706f, 0.232553f, 0.201586f, -0.017783f, 0.216331f, 0.224464f, -0.156799f, 0.186856f, -0.163531f, -0.045756f, 0.133802f, -0.142689f, 0.098754f, 0.049650f, -0.125821f, -0.122025f, -0.171795f, 0.051861f, -0.088195f, -0.091093f, -0.033919f, -0.030115f, -0.231200f, -0.140096f, 0.146955f, -0.041698f, -0.066916f, 0.093656f, -0.008760f, -0.151949f, -0.170617f, -0.158722f, 0.023471f, -0.181739f, 0.081313f, -0.016500f, -0.121804f, -0.092529f, -0.058693f, 0.054934f, 0.039160f, -0.270358f, 0.147560f, -0.150314f, 0.094586f, 0.101719f, -0.138757f, -0.061118f, -0.091155f, -0.135975f, 0.147595f, 0.059719f, 0.072595f, 0.186833f, -0.013431f, 0.207001f, 0.105913f, 0.022234f, -0.269212f, 0.085643f, 0.505225f, -0.747026f, 0.084937f, -0.166760f, -0.068552f, 0.003211f, -0.201780f, 0.019518f, 0.108950f, 0.067345f, -0.160277f, -0.249197f, 0.003792f, -0.085293f, -0.167640f, 0.046554f, 0.125341f, -0.315799f, -0.037117f, -0.972459f, -0.117341f, 0.269424f, 0.016796f, -0.086555f, 0.066538f, 0.001849f, 0.018897f, -0.015114f, -0.302380f, -0.344443f, -0.167830f, 0.128448f, 0.035300f, -0.043912f, -0.239367f, -0.114362f, -0.181645f, -0.239338f, -0.213759f, -0.021978f, -0.172715f, -0.150671f, -0.139699f, -0.203820f, 0.236282f, 0.164348f, -0.176599f, -0.149593f, -0.250754f, 0.233605f, -0.246315f, 0.110340f, -0.067300f, -0.130428f, 0.236906f, 0.120516f, -0.184885f, 0.139299f, 0.136213f, 0.162860f, 0.079888f, 0.239549f, -0.388758f, -0.491818f, -0.141550f, -0.038594f, -0.496763f, -0.177099f, -0.134117f, 0.077371f, 0.467206f, -0.130558f, -0.153442f, 0.162817f, 0.038315f, -0.076913f, -0.044639f, -0.254339f, -0.416664f, 0.004578f, -0.218751f, -0.280681f, -1.428369f, -0.198505f, 0.567042f, -0.038460f, -0.113015f, -0.359279f, 0.065153f, 0.082073f, -0.962511f, 0.122955f, -0.101977f, -0.237688f, -0.415835f, -0.355179f, -0.070582f, -0.143401f, -0.895548f, -0.757375f, -0.243638f, 0.459882f, 0.040335f, -0.274582f, -0.176033f, -0.345764f, 0.037596f, 0.113940f, 0.099656f, -0.206634f, -0.061804f, -0.205317f, -0.206868f, -0.063417f, -0.684341f, 0.249159f, -0.493148f, -0.304614f, -0.058249f, -0.135679f, 0.087181f, -0.003578f, -0.491645f, 0.289329f, -0.307936f, -0.055389f, -0.164932f, -0.228987f, -0.127464f, 0.188521f, 0.100506f, 0.142918f, -0.196942f, 0.139582f, -0.216020f, 0.025691f, -0.163611f, 0.028201f, -0.087785f, 0.140827f, -0.212986f, 0.088513f, 0.206029f, -0.235283f, -0.174602f, 0.143865f, 0.054443f, -0.188623f, -0.074354f, -0.023954f, -0.028650f, -0.027566f, 0.217719f, 0.204504f, -0.069383f, 0.189664f, -0.007632f, 0.244086f, 0.151844f, -0.088657f, -0.092936f, 0.148378f, -0.847247f, -0.643408f, -0.492335f, 0.123338f, -0.639044f, -0.150474f, -0.046066f, -0.053800f, -0.009635f, -0.333879f, -0.081641f, 0.005112f, -0.330782f, 0.004797f, -0.024563f, -0.083263f, -0.309307f, 0.104488f, 0.227011f, -0.042904f, -0.048889f, -0.130014f, 0.114216f, 0.007283f, -0.296177f, 0.042113f, 0.010787f, -0.140307f, 0.170560f, -0.129568f, 0.007954f, 0.196711f, -0.021509f, -0.237139f, -0.182776f, 0.215488f, 0.003538f, 0.198173f, 0.011827f, -0.052526f, -0.216430f, -0.225097f, 0.142673f, -0.219959f, 0.119629f, -0.138193f, 0.220573f, -0.205504f, -0.160121f, -0.134795f, -0.013258f, 0.185592f, 0.211214f, 0.082457f, -0.117181f, 0.112536f, -0.172736f, 0.157701f, -0.004582f, 0.006836f, -0.394999f, 0.174063f, -0.034961f, -0.085888f, -0.634258f, -0.302607f, -0.974277f, -0.106071f, 0.060118f, -0.137877f, -0.796755f, -0.244778f, -0.074192f, -0.022997f, 0.002125f, -0.238753f, -0.053462f, -0.051456f, 0.310359f, -0.045793f, 0.325957f, -0.136082f, -0.041289f, -0.119635f, -0.345265f, -0.015724f, -0.093306f, 0.002775f, 0.147385f, -0.106941f, -1.123587f, -0.053154f, -0.084615f, 0.041100f, -0.039492f, -0.784137f, 0.028572f, -0.210514f, 0.138762f, -0.166635f, -0.159138f, -0.024802f, 0.163456f, -0.311137f, -0.470402f, -0.241537f, -0.077688f, 0.019972f, -0.152057f, -0.237613f, 0.001571f, -0.159371f, -0.010305f, -0.370874f, -0.065238f, 0.178051f, -0.026315f, -0.526157f, -0.228605f, -0.142775f, -0.002611f, -0.448261f, -0.020930f, -0.260446f, 0.052210f, 0.099085f, -0.214166f, -0.003781f, 0.167641f, 0.167898f, 0.132444f, 0.025893f, 0.173995f, -0.034381f, -0.153972f, -0.080052f, 0.038949f, 0.210215f, -0.159078f, 0.033341f, -0.005794f, -0.239020f, 0.132019f, 0.010643f, 0.174305f, 0.117581f, 0.211658f, 0.038955f, 0.087874f, 0.237763f, 0.256796f, 0.232229f, -0.049435f, 0.197018f, -0.052779f, -0.110320f, -0.206207f, 0.042059f, -0.093442f, -0.821100f, -0.009552f, 0.168535f, 0.355242f, -0.511575f, -0.102241f, 0.006355f, 0.084937f, -0.505737f, -0.309034f, -0.220745f, -0.212509f, -0.048305f, -0.328193f, 0.006941f, 0.003802f, -0.197798f, -0.014321f, -0.647871f, -0.234801f, 0.227478f, -0.343562f, -0.020747f, -0.146492f, -0.188053f, 0.019214f, -0.294634f, -0.208859f, -0.150646f, -0.202754f, -0.214329f, -0.796031f, -0.802200f, -0.023100f, -0.175445f, -0.044686f, 0.057047f, -0.964443f, 0.056780f, -0.099788f, 0.257622f, -0.076237f, -0.116177f, -0.046757f, -0.117353f, 0.032692f, -0.247262f, -0.089378f, -0.036994f, 0.012155f, 0.003465f, -0.423130f, 0.167898f, -0.114903f, -0.007303f, 0.019335f, -0.073371f, 0.003407f, 0.402078f, -0.921221f, 0.093194f, -0.051416f, -0.081972f, 0.061117f, -0.159407f, -0.067107f, -0.004203f, -0.348205f, 0.007251f, -0.028288f, -0.325588f, 0.049854f, 0.005877f, -0.026355f, -0.054518f, -0.107930f, 0.009481f, 0.085032f, -0.044327f, 0.002999f, -0.010413f, -0.101869f, -0.587886f, -0.014069f, 0.172192f, 0.006766f, -0.155198f, 0.029342f, -0.001984f, -0.091016f, 0.024227f, -0.065448f, -0.329823f, -0.149573f, -0.157646f, 0.151793f, -0.042958f, -0.182659f, -0.024598f, 0.078020f, -0.049933f, 0.221198f, -0.162078f, 0.173058f, -0.009567f, -0.098416f, 0.210427f, 0.106057f, 0.151843f, -0.217329f, -0.216715f, 0.087487f, -0.030871f, 0.102766f, 0.160549f, -0.136225f, -0.210458f, -0.013203f, 0.185020f, 0.107038f, -0.118005f, -0.133158f, 0.208779f, 0.118154f, -0.019947f, -0.097696f, 0.264377f, -0.255533f, -0.425043f, -0.086625f, 0.035543f, -0.086078f, 0.032355f, 0.164806f, -0.469931f, 0.065418f, 0.040293f, -0.218769f, 0.064694f, -0.018446f, -0.048300f, 0.024423f, 0.002533f, 0.211658f, -0.120889f, -0.046481f, -0.455514f, -0.088779f, 0.287876f, -0.056802f, -0.176975f, 0.014675f, 0.053351f, 0.036754f, -0.039016f, -0.060112f, -0.318890f, 0.037569f, 0.050060f, -0.022786f, -0.262729f, 0.033638f, 0.155609f, -0.181404f, -0.046742f, 0.212410f, -0.231150f, 0.104641f, 0.162457f, 0.077092f, -0.003790f, 0.128113f, 0.103655f, -0.088332f, -0.156754f, 0.151145f, 0.230970f, -0.249114f, 0.076951f, 0.113916f, -0.088775f, 0.176084f, -0.144074f, -0.072360f, 0.136418f, 0.112295f, -0.068613f, -0.205726f, -0.042226f, 0.092596f, 0.199856f, 0.105115f, -0.359188f, 0.107160f, -0.099632f, 0.193530f, 0.131061f, -0.201915f, 0.089028f, -0.141515f, -0.010442f, -0.196262f, 0.178737f, 0.009580f, -0.053468f, -0.159054f, 0.154461f, -0.061811f, 0.182345f, -0.208848f, 0.034405f, -0.070717f, 0.190848f, 0.158504f, -0.171994f, 0.110579f, -0.007981f, 0.163809f, -0.079788f, 0.013017f, 0.047311f, -0.104979f, -0.053267f, -0.062603f, -0.152381f, -0.074976f, -0.026939f, -0.132733f, -0.009851f, -0.075975f, -0.685568f, 0.010327f, 0.052222f, -0.031112f, -0.187495f, -0.136132f, -0.098218f, -0.058004f, -0.087985f, 0.021708f, -0.038452f, -0.152958f, -0.238797f, -0.095948f, 0.034588f, 0.000607f, -0.239177f, 0.052464f, 0.015182f, -0.074064f, -0.016907f, -0.318934f, -0.267238f, -0.181705f, 0.013299f, 0.063502f, 0.045480f, 0.076914f, 0.014167f, 0.219517f, -0.058810f, -0.241990f, -0.188955f, -0.168480f, 0.249952f, -0.053296f, 0.055575f, -0.154899f, -0.122901f, -0.226229f, 0.132188f, 0.013477f, 0.068397f, 0.051048f, -0.122673f, 0.047206f, -0.236559f, 0.246746f, -0.126577f, 0.214026f, 0.121740f, 0.210248f, -0.110940f, 0.172388f, -0.080523f, -0.157677f, -0.083062f, 0.166106f, -0.016916f, 0.049716f, -0.117434f, -0.166842f, 0.026292f, -0.194110f, -0.225781f, -0.098411f, 0.043797f, -0.131386f, 0.101797f, 0.138790f, -0.061480f, -0.065960f, 0.091593f, 0.191783f, -0.232767f, 0.092652f, -0.259775f, 0.209105f, 0.097386f, 0.171337f, -0.042841f, 0.020087f, 0.295023f, -0.184670f, 0.159573f, 0.121604f, -0.015544f };
static const float emlearnModel_layer_2_biases[8] = { 0.176924f, 0.192476f, 0.211527f, 0.230474f, 0.245685f, 0.257147f, 0.265155f, 0.271188f };
static const float emlearnModel_layer_2_weights[256] = { -0.150969f, -0.041915f, -0.021572f, -0.008549f, 0.013357f, 0.050692f, 0.071698f, 0.101700f, -0.020009f, 0.016132f, 0.041829f, 0.061539f, 0.081854f, 0.101242f, 0.118782f, 0.134273f, -0.094177f, -0.064023f, -0.043790f, -0.025179f, -0.005573f, 0.021472f, 0.053254f, 0.082105f, 0.001478f, -0.019067f, -0.042073f, -0.072027f, -0.104603f, -0.140203f, -0.165431f, -0.186416f, 0.465604f, 0.449392f, 0.422501f, 0.390472f, 0.363862f, 0.332077f, 0.299162f, 0.267375f, 0.026969f, 0.040728f, 0.049731f, 0.061833f, 0.077358f, 0.088125f, 0.097161f, 0.113681f, 0.313458f, 0.307316f, 0.289619f, 0.272875f, 0.265464f, 0.259041f, 0.249289f, 0.241607f, -0.048507f, -0.066342f, -0.081829f, -0.091464f, -0.095559f, -0.090976f, -0.088697f, -0.087221f, -0.125011f, -0.104382f, -0.078634f, -0.056847f, -0.038037f, -0.021845f, -0.009798f, 0.007569f, 0.109844f, 0.100925f, 0.083996f, 0.057935f, 0.030336f, -0.002910f, -0.038136f, -0.063820f, 0.080459f, 0.093190f, 0.107681f, 0.120186f, 0.130138f, 0.139388f, 0.144830f, 0.146237f, -0.022661f, -0.044299f, -0.067264f, -0.091235f, -0.108991f, -0.113485f, -0.123076f, -0.126049f, 0.036691f, 0.009386f, -0.022794f, -0.054042f, -0.084808f, -0.109633f, -0.131677f, -0.152360f, -0.158249f, -0.142791f, -0.137913f, 0.043006f, -0.003331f, -0.018365f, 0.015088f, 0.156143f, -0.029574f, -0.014670f, -0.097962f, -0.071125f, -0.061533f, -0.093858f, 0.071415f, 0.039659f, 0.058659f, 0.311191f, -0.174725f, -0.094147f, 0.018277f, 0.254877f, 0.167874f, -0.012546f, 0.072800f, 0.082970f, 0.050716f, 0.004515f, -0.032499f, -0.069493f, -0.091412f, -0.004756f, -0.305641f, 0.190061f, -0.329002f, 0.125099f, -0.354837f, 0.097585f, -0.079711f, 0.008590f, 0.033846f, 0.053659f, 0.078016f, 0.100782f, 0.119782f, 0.134123f, 0.146591f, 0.162506f, -0.067255f, 0.134244f, 0.236193f, 0.160209f, 0.091497f, 0.040304f, 0.004138f, -0.037963f, 0.321251f, 0.291137f, 0.251559f, 0.211223f, 0.171991f, 0.135176f, 0.102069f, 0.067840f, 0.023143f, 0.015352f, 0.010727f, -0.001379f, -0.017677f, -0.046999f, -0.080442f, -0.107914f, -0.072348f, -0.069321f, -0.076319f, -0.080576f, -0.084875f, -0.087714f, -0.080541f, -0.070007f, -0.005715f, -0.030861f, -0.055990f, -0.075364f, -0.089435f, -0.102906f, -0.108590f, -0.114725f, 0.064357f, 0.055521f, 0.041791f, 0.033404f, 0.031420f, 0.036128f, 0.045731f, 0.055957f, 0.169958f, -0.063941f, -0.181178f, -0.131821f, -0.056440f, 0.036219f, 0.079577f, 0.072908f, -0.162558f, -0.138070f, -0.109108f, -0.078135f, -0.051963f, -0.036557f, -0.028160f, -0.016581f, -0.159203f, -0.134107f, -0.123228f, -0.107971f, -0.079936f, -0.039537f, 0.002496f, 0.039975f, 0.335455f, 0.293105f, 0.243939f, 0.197136f, 0.153150f, 0.113898f, 0.076364f, 0.033828f, 0.006785f, -0.007665f, -0.035718f, -0.061099f, -0.080775f, -0.095532f, -0.109277f, -0.119874f, -0.132886f, -0.115124f, -0.092502f, -0.068521f, -0.037084f, -0.001485f, 0.046813f, 0.095462f, 0.134583f, 0.102457f, 0.059856f, 0.016304f, -0.022061f, -0.056249f, -0.086584f, -0.111177f };
static float emlearnModel_buf1[96];
static float emlearnModel_buf2[96];
static const EmlNetLayer emlearnModel_layers[3] = { 
{ 64, 96, emlearnModel_layer_0_weights, emlearnModel_layer_0_biases, EmlNetActivationRelu }, 
{ 32, 64, emlearnModel_layer_1_weights, emlearnModel_layer_1_biases, EmlNetActivationRelu }, 
{ 8, 32, emlearnModel_layer_2_weights, emlearnModel_layer_2_biases, EmlNetActivationRelu } };
static EmlNet emlearnModel = { 3, emlearnModel_layers, emlearnModel_buf1, emlearnModel_buf2, 96 };

    int32_t
    emlearnModel_predict(const float *features, int32_t n_features)
    {
        return eml_net_predict(&emlearnModel, features, n_features);
    }
    

    int32_t
    emlearnModel_regress(const float *features, int32_t n_features, float *out, int32_t out_length)
    {
        return eml_net_regress(&emlearnModel, features, n_features, out, out_length);
    }
